<?xml version="1.0"?>
<opencv_storage>
<opencv_ml_svm>
  <format>3</format>
  <svmType>EPS_SVR</svmType>
  <kernel>
    <type>CHI2</type>
    <gamma>1.</gamma></kernel>
  <C>1.</C>
  <p>1.0000000000000001e-01</p>
  <term_criteria><iterations>100</iterations></term_criteria>
  <var_count>48</var_count>
  <sv_total>180</sv_total>
  <support_vectors>
    <_>
      4.83317040e-02 1.44199327e-01 9.24210772e-02 3.87598187e-01
      1.55252293e-01 3.87598187e-01 6.80599213e-02 2.47160375e-01
      3.04057784e-02 2.87546851e-02 2.07828730e-01 3.87598187e-01
      1.52925417e-01 3.87598187e-01 2.34821454e-01 3.87598187e-01
      1.87363066e-02 6.48861611e-03 1.67123273e-01 3.93169343e-01
      9.22022536e-02 2.14372247e-01 3.20675611e-01 3.93169343e-01
      5.16852830e-03 5.71659068e-03 1.78516760e-01 3.93169343e-01
      4.97984625e-02 5.60456291e-02 3.93169343e-01 3.93169343e-01
      1.39905431e-03 2.07881834e-02 2.53446102e-01 2.67113298e-01
      5.68786152e-02 3.69883031e-02 4.32426184e-01 4.32426184e-01
      1.29033672e-03 8.39779451e-02 2.98161954e-01 9.61666331e-02
      2.36256029e-02 3.64461988e-02 4.32426184e-01 4.32426184e-01</_>
    <_>
      1.72498986e-01 2.98806190e-01 2.98806190e-01 6.24945164e-02
      1.98090553e-01 2.98806190e-01 2.98806190e-01 7.05565959e-02
      2.05928743e-01 2.98806190e-01 2.98806190e-01 2.38829762e-01
      2.98806190e-01 2.98806190e-01 2.98806190e-01 1.26972660e-01
      1.89512417e-01 2.67081857e-01 1.74532086e-01 2.97817945e-01
      3.26150000e-01 2.19374985e-01 2.26050094e-01 1.35737494e-01
      3.26150000e-01 2.13654265e-01 1.17859118e-01 3.26150000e-01
      3.26150000e-01 1.98747307e-01 1.47578478e-01 3.26150000e-01
      2.86513269e-01 2.89166957e-01 1.09698087e-01 2.89166957e-01
      2.89166957e-01 2.89166957e-01 2.25876093e-01 2.89166957e-01
      5.31273335e-02 2.89166957e-01 1.80063695e-01 2.89166957e-01
      9.11710337e-02 2.89166957e-01 2.89166957e-01 2.36329406e-01</_>
    <_>
      7.13449903e-03 1.13196438e-02 1.63231328e-01 3.89140338e-01
      4.81363609e-02 2.33360119e-02 1.63622096e-01 3.89140338e-01
      1.45302259e-03 1.87481984e-01 3.89140338e-01 2.53497720e-01
      9.54680610e-03 3.89140338e-01 3.89140338e-01 2.88097441e-01 0.
      1.08883582e-01 3.73963624e-01 1.79566294e-01 1.23054651e-03
      3.08789164e-01 3.73963624e-01 1.20053858e-01 3.05200956e-05
      9.35955439e-03 3.73963624e-01 3.73963624e-01 3.03137172e-02
      4.79544625e-02 3.73963624e-01 3.73963624e-01 3.34481330e-04
      7.21182022e-03 3.59448701e-01 3.59448701e-01 8.32936168e-02
      4.83489083e-03 2.61089891e-01 3.59448701e-01 1.87394217e-01
      1.88102294e-02 3.41548026e-01 3.59448701e-01 3.39496374e-01
      1.67903863e-03 8.84565860e-02 3.59448701e-01</_>
    <_>
      1.76749840e-01 2.14828983e-01 3.23839158e-01 1.89956889e-01
      3.46348912e-01 3.46348912e-01 1.30385190e-01 9.08610672e-02
      7.85672143e-02 3.01413089e-01 3.46348912e-01 1.26735121e-01
      1.96275398e-01 3.46348912e-01 3.46348912e-01 3.92377749e-02
      4.48068455e-02 2.48789713e-01 3.73741001e-01 1.95675850e-01
      9.13409069e-02 3.73741001e-01 3.73741001e-01 1.18006177e-01
      1.43815503e-01 6.33121729e-02 3.73741001e-01 2.37011299e-01
      3.73741001e-01 1.47191033e-01 1.27776161e-01 2.33527824e-01
      2.57827669e-01 9.43125263e-02 2.46649727e-01 3.25192988e-01
      3.37839276e-01 1.85034275e-01 2.38275174e-02 2.15657592e-01
      2.49565527e-01 2.53213257e-01 2.72450626e-01 3.37839276e-01
      3.37839276e-01 3.37839276e-01 7.56114274e-02 1.02305800e-01</_>
    <_>
      2.73782998e-01 3.07221621e-01 1.85187742e-01 1.38104260e-01
      1.89398572e-01 3.07221621e-01 2.60970801e-01 2.31896713e-01
      3.07221621e-01 3.07221621e-01 1.20622180e-01 1.28509119e-01
      2.88124919e-01 3.07221621e-01 2.51993537e-01 2.47680396e-01
      3.19417506e-01 3.19417506e-01 1.11007847e-01 8.74758735e-02
      3.19417506e-01 1.77432254e-01 1.84222728e-01 1.41760230e-01
      3.19417506e-01 3.19417506e-01 1.41370729e-01 2.48135552e-01
      3.19417506e-01 3.19417506e-01 1.86825097e-01 2.46300817e-01
      2.68800437e-01 2.31694728e-01 2.35487357e-01 2.34122291e-01
      2.43533477e-01 2.68800437e-01 1.74639434e-01 2.68800437e-01
      2.68800437e-01 2.68800437e-01 2.68800437e-01 2.12069407e-01
      2.68800437e-01 2.68800437e-01 2.68800437e-01 2.19772160e-01</_>
    <_>
      1.40873671e-01 1.28669485e-01 1.30602360e-01 4.18046445e-01
      1.04395628e-01 4.18046445e-01 6.50617406e-02 4.10204798e-01
      1.55361369e-01 1.02099702e-02 4.44546789e-02 4.18046445e-01
      8.03812519e-02 1.48570627e-01 7.18530193e-02 4.18046445e-01
      1.08974494e-01 2.66742744e-02 1.04725935e-01 4.92775351e-01
      8.29924345e-02 1.17762433e-02 1.22549027e-01 4.92775351e-01
      1.96601778e-01 1.45385131e-01 8.33324492e-02 2.76283890e-01
      2.34622180e-01 3.14112380e-02 1.47972852e-01 4.92775351e-01
      3.21002394e-01 3.08088183e-01 2.26786099e-02 7.12382644e-02
      2.47743517e-01 7.41578862e-02 2.55961448e-01 3.45814824e-01
      3.45814824e-01 3.45814824e-01 4.81311791e-02 4.69331406e-02
      1.75253689e-01 1.65619344e-01 3.45814824e-01 3.45814824e-01</_>
    <_>
      1.63768440e-01 4.29228023e-02 3.79691303e-01 8.77378061e-02
      4.23724085e-01 4.94122803e-02 2.03464121e-01 2.05822125e-01
      4.23724085e-01 8.67733359e-02 1.85461417e-01 1.74867898e-01
      4.23724085e-01 9.51494500e-02 3.95677574e-02 3.27551186e-01
      3.58556449e-01 2.30089918e-01 5.57266921e-02 6.85217157e-02
      3.58556449e-01 2.80279905e-01 1.20368198e-01 1.27157167e-01
      3.01729202e-01 3.58556449e-01 1.67629421e-01 7.56347785e-03
      2.53251106e-01 3.58556449e-01 3.58556449e-01 1.77290030e-02
      8.58084783e-02 3.56708229e-01 3.23725641e-01 9.72742364e-02
      1.38424128e-01 3.56708229e-01 3.56708229e-01 6.14632703e-02
      1.06904782e-01 1.30043164e-01 1.43214852e-01 3.12020451e-01
      3.52875978e-01 2.76991189e-01 2.57970572e-01 2.36959204e-01</_>
    <_>
      6.62016962e-03 3.26490283e-01 3.26490283e-01 1.10195875e-01
      1.21151460e-02 3.26490283e-01 3.26490283e-01 1.22028492e-01
      1.12801120e-02 2.99658328e-01 3.16385448e-01 1.81568995e-01
      1.87727064e-02 3.26490283e-01 3.26490283e-01 3.26490283e-01
      1.46326255e-02 3.21229219e-01 3.21229219e-01 1.50291622e-01
      2.00114530e-02 3.21229219e-01 3.21229219e-01 3.15248072e-01
      2.07928382e-02 3.21229219e-01 3.21229219e-01 1.15565985e-01
      3.56499664e-02 3.21229219e-01 3.21229219e-01 1.83418453e-01
      1.62524767e-02 3.25753301e-01 3.47205967e-01 1.32373556e-01
      1.69306379e-02 3.47205967e-01 3.47205967e-01 1.13250755e-01
      1.48166828e-02 1.32670671e-01 3.47205967e-01 3.47205967e-01
      5.08889416e-03 3.18334132e-01 3.47205967e-01 1.30464569e-01</_>
    <_>
      1.72529407e-02 4.60326709e-02 3.98500085e-01 1.69575781e-01
      3.82638685e-02 4.47166413e-02 3.67555201e-01 3.22596073e-01
      2.17148826e-01 7.44324550e-02 2.44164824e-01 3.38530749e-01
      3.98500085e-01 6.52339160e-02 1.21003173e-01 3.98500085e-01
      1.78844631e-01 2.28475705e-01 1.39458105e-01 8.15163553e-02
      4.14981365e-01 1.99854687e-01 1.99717283e-02 2.84556478e-01
      1.50747806e-01 4.14981365e-01 2.40188897e-01 3.62257450e-03
      3.49987060e-01 4.14981365e-01 1.99778184e-01 6.92946538e-02
      1.98328458e-02 3.98799628e-01 1.85959205e-01 2.15448046e-04
      3.30950134e-02 3.98799628e-01 2.70591438e-01 1.87103485e-03
      9.28185042e-03 3.98799628e-01 3.02050531e-01 7.73715973e-03
      1.17037818e-02 3.98799628e-01 3.98799628e-01 2.01458261e-05</_>
    <_>
      5.77995703e-02 3.25977862e-01 3.25977862e-01 3.00202449e-03
      9.17392746e-02 3.25977862e-01 3.25977862e-01 3.14570665e-02
      3.25977862e-01 2.96392649e-01 3.06542307e-01 1.84196711e-01
      3.25977862e-01 1.98076144e-01 2.39209950e-01 1.84979334e-01
      3.18661779e-01 9.32883769e-02 2.03342900e-01 3.18661779e-01
      3.18661779e-01 1.33213222e-01 3.18661779e-01 2.52581358e-01
      2.01921314e-01 4.61124815e-02 3.03465039e-01 2.91671097e-01
      1.69016927e-01 8.55655298e-02 3.18661779e-01 3.18661779e-01
      1.44913077e-01 6.08590394e-02 3.71460408e-01 2.71853685e-01
      1.40652284e-01 4.76691723e-02 4.25394028e-01 3.80064994e-01
      2.18174700e-02 1.09212853e-01 4.25394028e-01 1.13965116e-01
      9.38856695e-03 7.32657015e-02 4.25394028e-01 1.37576252e-01</_>
    <_>
      3.07575911e-01 3.07575911e-01 2.91144699e-01 7.74473548e-02
      3.07575911e-01 3.07575911e-01 2.68991083e-01 9.75391120e-02
      1.71824023e-01 3.07575911e-01 3.07575911e-01 1.37449294e-01
      2.14524135e-01 3.07575911e-01 2.58777648e-01 2.58905161e-02
      2.07023993e-01 2.93303370e-01 2.23209471e-01 3.14970940e-01
      3.14970940e-01 3.14970940e-01 7.39433393e-02 8.98230076e-02
      3.14970940e-01 2.16200411e-01 2.74236977e-01 3.14970940e-01
      3.14970940e-01 2.40374893e-01 6.84834346e-02 1.57955870e-01
      3.52279276e-01 3.52279276e-01 2.06936508e-01 2.39400625e-01
      3.52279276e-01 3.52279276e-01 1.53592631e-01 8.78854394e-02
      6.12197258e-02 3.52279276e-01 1.85823083e-01 1.27317801e-01
      1.25173956e-01 3.52279276e-01 2.12801099e-01 7.06085190e-02</_>
    <_>
      5.09399474e-02 3.73534411e-02 1.82532683e-01 3.31783086e-01
      9.14972275e-02 3.82613152e-01 9.93160084e-02 2.99357712e-01
      3.82613152e-01 3.96218300e-02 3.94217893e-02 3.82613152e-01
      3.82613152e-01 6.87752515e-02 3.34759690e-02 3.82613152e-01
      3.51926535e-01 1.95363402e-01 2.03243773e-02 1.83627635e-01
      2.70480990e-01 7.27953687e-02 1.18018292e-01 3.68575633e-01
      2.04573005e-01 3.68575633e-01 1.52899578e-01 3.73886079e-02
      1.18318886e-01 3.68575633e-01 3.68575633e-01 2.89415330e-01
      2.16467269e-02 3.68688554e-01 2.08969116e-01 7.44444202e-04
      8.44689459e-03 3.68688554e-01 3.68688554e-01 2.15000957e-02
      3.15342704e-03 3.68688554e-01 3.68688554e-01 9.68081504e-03
      4.70489962e-03 3.68688554e-01 3.68688554e-01 1.15711521e-03</_>
    <_>
      3.18335801e-01 3.18335801e-01 1.49644658e-01 4.45152670e-02
      3.18335801e-01 3.18335801e-01 3.18335801e-01 1.25317693e-01
      2.01566920e-01 3.18335801e-01 2.80858099e-01 7.59686679e-02
      7.24475756e-02 3.18335801e-01 3.18335801e-01 1.24530114e-01
      1.23945147e-01 3.04097056e-01 3.04097056e-01 1.52475283e-01
      1.43834308e-01 3.04097056e-01 3.04097056e-01 1.62762180e-01
      1.81998119e-01 2.41466016e-01 3.04097056e-01 3.04097056e-01
      3.04097056e-01 2.21720502e-01 3.04097056e-01 1.75445199e-01
      3.15541118e-01 3.67733613e-02 1.19928576e-01 3.58234942e-01
      3.58234942e-01 1.15548946e-01 4.21969481e-02 2.80619681e-01
      3.58234942e-01 4.60358039e-02 1.69216804e-02 3.58234942e-01
      3.58234942e-01 1.21769898e-01 3.57991480e-03 3.58234942e-01</_>
    <_>
      3.58483523e-01 6.17881492e-02 5.49848825e-02 2.28498504e-01
      3.58483523e-01 2.70224184e-01 9.23449453e-03 3.58483523e-01
      3.58483523e-01 1.77829310e-01 6.18031248e-03 2.39316717e-01
      3.58483523e-01 5.99413887e-02 2.58829221e-02 3.58483523e-01
      3.50796133e-01 2.96175838e-01 2.20502038e-02 5.81521578e-02
      2.30065361e-01 7.83061460e-02 1.03537425e-01 3.50796133e-01
      2.65254736e-01 3.50796133e-01 3.46773982e-01 1.72331985e-02
      8.41311216e-02 3.50796133e-01 3.50796133e-01 1.47812054e-01
      5.64407259e-02 3.95372719e-01 3.95372719e-01 6.82827458e-02
      3.17967422e-02 3.95372719e-01 3.95372719e-01 2.28865687e-02
      6.70550466e-02 1.64262041e-01 1.94620818e-01 2.90763319e-01
      9.50514376e-02 3.95372719e-01 1.89409912e-01 7.91170001e-02</_>
    <_>
      2.35320643e-01 3.05883527e-01 3.05883527e-01 2.53256112e-01
      3.03721309e-01 3.05883527e-01 2.11228251e-01 7.23824725e-02
      2.36558720e-01 2.54161000e-01 3.05883527e-01 2.00857759e-01
      3.05883527e-01 3.05883527e-01 8.36142078e-02 7.77450353e-02
      3.09918612e-01 2.40972161e-01 2.02198997e-01 2.77411312e-01
      3.09918612e-01 3.09918612e-01 1.05185239e-02 5.75590655e-02
      3.09918612e-01 2.60082573e-01 1.50979191e-01 3.09918612e-01
      3.09918612e-01 3.05337548e-01 4.74908277e-02 2.35264152e-01
      2.63659388e-01 1.70940399e-01 1.44416571e-01 3.16650629e-01
      3.43045235e-01 2.45225161e-01 1.09336466e-01 2.63366461e-01
      3.43045235e-01 3.43045235e-01 1.74420476e-01 1.56121269e-01
      3.43045235e-01 2.60546088e-01 5.15645519e-02 1.97990879e-01</_>
    <_>
      1.44718975e-01 2.90686995e-01 1.83137417e-01 2.90686995e-01
      2.90686995e-01 2.90686995e-01 9.24511999e-02 2.90686995e-01
      1.65262729e-01 2.90686995e-01 2.90686995e-01 2.78820187e-01
      1.88766494e-01 2.90686995e-01 2.90686995e-01 1.81354612e-01
      1.25808671e-01 2.59598106e-01 2.75287002e-01 2.64167905e-01
      1.85246661e-01 2.75287002e-01 2.75287002e-01 1.99330077e-01
      1.11208163e-01 2.75287002e-01 2.75287002e-01 2.75287002e-01
      2.75287002e-01 2.75287002e-01 2.75287002e-01 2.75287002e-01
      8.94580781e-02 3.00279737e-01 3.00279737e-01 3.00279737e-01
      3.00279737e-01 3.00279737e-01 3.00279737e-01 2.65640706e-01
      1.26346096e-01 9.31365788e-02 3.00279737e-01 3.00279737e-01
      1.34671539e-01 1.51108891e-01 2.77837932e-01 2.32994199e-01</_>
    <_>
      3.75144243e-01 3.75144243e-01 6.59819171e-02 5.75259402e-02
      1.39558479e-01 3.75144243e-01 1.26653105e-01 6.14463463e-02
      3.44785631e-01 3.75144243e-01 1.72338113e-01 1.27354324e-01
      1.69127911e-01 3.75144243e-01 1.82640016e-01 1.37374297e-01
      2.36134931e-01 3.02587062e-01 1.61528274e-01 1.99643001e-01
      1.40435666e-01 3.02587062e-01 1.38571516e-01 1.11679986e-01
      2.90944397e-01 3.02587062e-01 3.02587062e-01 3.02587062e-01
      3.02587062e-01 3.02587062e-01 2.63247311e-01 1.70326218e-01
      2.27713957e-01 1.86977252e-01 2.98654199e-01 2.98654199e-01
      2.98654199e-01 2.98654199e-01 1.60555691e-01 2.42214322e-01
      1.55159920e-01 1.24651834e-01 1.53134674e-01 2.98654199e-01
      2.98654199e-01 2.98654199e-01 2.21671119e-01 2.98654199e-01</_>
    <_>
      2.97777623e-01 1.19935021e-01 2.97777623e-01 8.84895846e-02
      2.97777623e-01 1.13776632e-01 2.53696471e-01 2.74793625e-01
      2.97777623e-01 2.97777623e-01 2.97777623e-01 9.79293361e-02
      2.49518588e-01 2.97777623e-01 2.97777623e-01 2.01914355e-01
      2.54712284e-01 3.26467782e-01 3.26467782e-01 1.52654424e-01
      1.12933725e-01 3.26467782e-01 2.78952926e-01 1.70685634e-01
      1.42425373e-01 3.26467782e-01 3.26467782e-01 1.18672706e-01
      1.87122121e-01 3.26467782e-01 2.68980414e-01 8.73686373e-02
      3.12245876e-01 2.91836709e-01 2.48826623e-01 1.56471983e-01
      3.12245876e-01 3.12245876e-01 9.93982852e-02 1.09035015e-01
      3.12245876e-01 3.12245876e-01 1.11303218e-01 2.05734655e-01
      3.12245876e-01 3.12245876e-01 1.49185166e-01 2.09978059e-01</_>
    <_>
      3.58427554e-01 9.15349126e-02 3.58427554e-01 1.09600522e-01
      3.58427554e-01 9.09959450e-02 1.19233482e-01 1.99114263e-01
      3.58427554e-01 2.13158160e-01 1.88896433e-01 9.50939208e-02
      3.58427554e-01 3.58427554e-01 1.33164465e-01 1.87533438e-01
      2.98992157e-01 2.57283062e-01 1.25165448e-01 3.87111530e-02
      2.98992157e-01 2.98992157e-01 1.60493359e-01 2.06911936e-01
      2.98992157e-01 2.98992157e-01 1.71660557e-01 1.05829813e-01
      2.98992157e-01 2.98992157e-01 2.98992157e-01 2.98737675e-01
      2.75461286e-01 2.75461286e-01 1.07056625e-01 1.43805996e-01
      2.75461286e-01 2.75461286e-01 2.75461286e-01 2.75461286e-01
      2.75461286e-01 2.75461286e-01 8.50252658e-02 2.75461286e-01
      2.40017697e-01 2.75461286e-01 2.75461286e-01 2.56125450e-01</_>
    <_>
      2.19492793e-01 2.94607848e-01 1.42981157e-01 2.94607848e-01
      1.60740688e-01 2.94607848e-01 9.38332900e-02 2.53251702e-01
      1.21744424e-01 2.94607848e-01 2.40730673e-01 2.94607848e-01
      2.88154602e-01 2.94607848e-01 2.57476568e-01 2.94607848e-01
      2.03496188e-01 2.88617402e-01 1.64868161e-01 1.64453566e-01
      2.88617402e-01 2.88617402e-01 2.34181270e-01 2.88617402e-01
      2.88617402e-01 2.46760562e-01 1.59337655e-01 1.60641462e-01
      2.88617402e-01 2.81013876e-01 2.69228935e-01 2.88617402e-01
      2.93551832e-01 2.93551832e-01 7.67119303e-02 1.90379277e-01
      2.93551832e-01 2.93551832e-01 2.63581753e-01 2.93551832e-01
      1.97336346e-01 2.93551832e-01 6.78329393e-02 2.93551832e-01
      1.13993555e-01 2.93551832e-01 2.31021196e-01 2.93551832e-01</_>
    <_>
      2.89650589e-01 2.89650589e-01 2.89650589e-01 2.89650589e-01
      2.57826358e-01 2.89650589e-01 2.54002452e-01 1.64661750e-01
      1.44526914e-01 2.89650589e-01 2.89650589e-01 2.89650589e-01
      1.34149089e-01 2.89650589e-01 1.63512036e-01 1.35289222e-01
      1.56246692e-01 2.14566261e-01 2.96532661e-01 2.96532661e-01
      1.87104732e-01 2.96532661e-01 9.79508907e-02 2.64533997e-01
      2.24323392e-01 1.42428517e-01 2.96532661e-01 2.96532661e-01
      2.32970670e-01 2.96532661e-01 2.69972563e-01 2.94359207e-01
      2.19403759e-01 7.28195980e-02 3.02114755e-01 3.02114755e-01
      3.02114755e-01 1.39296547e-01 2.13882968e-01 3.02114755e-01
      2.43704349e-01 1.38040990e-01 2.09181070e-01 3.02114755e-01
      3.02114755e-01 2.45263100e-01 2.38997549e-01 3.02114755e-01</_>
    <_>
      2.65599072e-01 2.65599072e-01 2.14191750e-01 2.20579579e-01
      2.65599072e-01 2.65599072e-01 2.65599072e-01 2.24482968e-01
      2.65599072e-01 2.65599072e-01 2.65599072e-01 2.30745554e-01
      2.65599072e-01 2.65599072e-01 2.65599072e-01 1.52330756e-01
      2.38606080e-01 3.48003238e-01 1.46818414e-01 1.58001557e-01
      2.17238814e-01 3.30908895e-01 2.08953470e-01 2.04667762e-01
      3.48003238e-01 3.48003238e-01 7.84691870e-02 1.43625438e-01
      2.16008887e-01 3.48003238e-01 1.98649466e-01 2.31287777e-01
      3.22834700e-01 3.22834700e-01 6.06902726e-02 8.19169730e-02
      3.14417154e-01 3.08734894e-01 1.65727615e-01 1.19266063e-01
      3.22834700e-01 3.22834700e-01 5.92300035e-02 2.71828353e-01
      3.22834700e-01 3.22834700e-01 1.38829365e-01 1.68846712e-01</_>
    <_>
      3.31503391e-01 7.73588344e-02 3.31503391e-01 9.30803865e-02
      3.31503391e-01 5.40509149e-02 1.53554633e-01 3.13682675e-01
      3.31503391e-01 3.31503391e-01 1.62524223e-01 5.61416931e-02
      3.31503391e-01 3.31503391e-01 1.55253395e-01 1.84962109e-01
      2.77178526e-01 2.88681597e-01 1.38041168e-01 7.24185333e-02
      8.22510347e-02 2.88681597e-01 2.67596781e-01 6.14843667e-02
      2.88681597e-01 2.88681597e-01 2.58281857e-01 2.88681597e-01
      2.88681597e-01 2.88681597e-01 2.83598006e-01 2.88681597e-01
      3.03211361e-01 2.33125627e-01 2.53946960e-01 3.03211361e-01
      3.03211361e-01 1.84351727e-01 1.87405601e-01 3.03211361e-01
      3.03211361e-01 1.94437176e-01 5.56289032e-02 3.03211361e-01
      3.03211361e-01 1.15208589e-01 1.39128834e-01 3.03211361e-01</_>
    <_>
      1.45499140e-01 1.34985745e-01 2.85772383e-01 1.66347817e-01
      2.43269607e-01 2.85772383e-01 2.09328651e-01 1.99536040e-01
      2.85358906e-01 2.85772383e-01 2.85772383e-01 2.85772383e-01
      2.85772383e-01 2.85772383e-01 2.29154482e-01 2.85772383e-01
      2.88375467e-01 1.92505151e-01 2.64456898e-01 2.88375467e-01
      2.88375467e-01 2.11350039e-01 1.81835130e-01 2.88375467e-01
      2.88375467e-01 1.74592599e-01 2.13032618e-01 2.88375467e-01
      2.88375467e-01 4.59218435e-02 2.62929946e-01 2.88375467e-01
      2.54782975e-01 2.92836040e-01 2.36782685e-01 2.24873513e-01
      2.75688916e-01 2.04144716e-01 2.92836040e-01 2.56296486e-01
      5.54121137e-02 2.92836040e-01 2.64538914e-01 2.92836040e-01
      3.28395963e-02 2.92836040e-01 2.92836040e-01 2.31323361e-01</_>
    <_>
      2.97345728e-01 1.34107554e-02 2.19784766e-01 1.96250826e-01
      2.77536791e-02 1.10485042e-02 3.84461373e-01 3.52657437e-01
      1.11718118e-01 3.78563744e-03 3.84461373e-01 3.02693069e-01
      8.80123582e-03 6.88182609e-03 3.84461373e-01 3.84461373e-01
      1.23197762e-02 1.23012392e-03 4.22318369e-01 1.88007519e-01
      4.10694778e-02 4.11822796e-02 4.22318369e-01 2.56453693e-01
      3.66558717e-03 7.48816971e-03 4.22318369e-01 2.13412195e-01
      2.68097639e-01 1.76626712e-01 4.22318369e-01 1.70385450e-01
      5.32599315e-02 9.37319826e-03 3.64574015e-01 1.86153203e-01
      3.64574015e-01 1.34536222e-01 3.64574015e-01 1.15801319e-01
      3.64574015e-01 1.50904888e-02 3.64574015e-01 2.75172561e-01
      3.64574015e-01 7.67671540e-02 1.37477368e-01 1.70423582e-01</_>
    <_>
      9.72075313e-02 9.61221829e-02 2.31753707e-01 1.55525669e-01
      3.96256268e-01 2.61686921e-01 1.27045184e-01 1.16856314e-01
      3.96256268e-01 2.54134331e-02 1.10740498e-01 3.96256268e-01
      3.96256268e-01 1.23127319e-01 3.72472517e-02 3.79006058e-01
      3.76784414e-01 2.94285943e-03 6.38365000e-03 3.00876111e-01
      3.76784414e-01 4.68706433e-03 2.20078905e-03 3.76784414e-01
      3.76784414e-01 1.03772320e-01 2.41709198e-03 1.98693320e-01
      3.76784414e-01 1.83317922e-02 5.69608361e-02 3.76784414e-01
      3.34848136e-01 3.34848136e-01 2.42477413e-02 7.90028125e-02
      2.83139318e-01 1.51785895e-01 2.55545586e-01 3.34848136e-01
      3.34848136e-01 3.34848136e-01 1.09282389e-01 1.22995926e-02
      1.10326797e-01 3.34848136e-01 3.34848136e-01 1.10389091e-01</_>
    <_>
      6.56713769e-02 6.59933388e-02 1.65751934e-01 1.35065436e-01
      6.33992776e-02 6.26882389e-02 4.10357088e-01 1.98980302e-01
      7.62280375e-02 8.23172256e-02 3.85434180e-01 1.37785509e-01
      3.84154133e-02 1.44449607e-01 6.65358961e-01 2.79038966e-01
      4.43111314e-03 1.00356443e-02 1.65825143e-01 2.38413960e-02
      1.90890068e-03 2.44288836e-02 5.58303177e-01 8.23300183e-02
      2.70645670e-03 4.58742343e-02 5.58303177e-01 3.02205104e-02
      2.26049828e-08 5.34292459e-02 5.58303177e-01 1.33687451e-01
      4.15173679e-04 5.73663078e-02 4.90078449e-01 1.32624693e-02
      5.12428465e-04 7.31899962e-02 4.90078449e-01 3.53831053e-02
      7.10889185e-03 5.91385216e-02 4.90078449e-01 6.70508072e-02
      4.96773534e-02 1.14585884e-01 4.90078449e-01 2.60794312e-02</_>
    <_>
      3.16452593e-01 2.33039200e-01 3.16452593e-01 7.08844066e-02
      3.16452593e-01 1.49668977e-01 3.16452593e-01 1.88524768e-01
      3.16452593e-01 2.81706989e-01 1.21182755e-01 7.92320371e-02
      3.16452593e-01 1.45580962e-01 2.64269561e-01 2.95561045e-01
      2.88772792e-01 2.88772792e-01 1.73069999e-01 9.01295319e-02
      1.59728467e-01 2.88772792e-01 2.88772792e-01 2.42887169e-01
      2.88772792e-01 2.88772792e-01 2.81181306e-01 1.72568649e-01
      2.88772792e-01 2.88772792e-01 2.37442970e-01 2.05403313e-01
      2.96920031e-01 2.96920031e-01 2.18495741e-01 7.03877509e-02
      2.96920031e-01 2.96920031e-01 2.52010524e-01 9.82231647e-02
      2.96920031e-01 2.96920031e-01 2.70530045e-01 2.54649427e-02
      2.96920031e-01 2.96920031e-01 2.96920031e-01 6.23908527e-02</_>
    <_>
      2.90236712e-01 2.90236712e-01 2.39915960e-02 2.66387850e-01
      2.90236712e-01 2.90236712e-01 6.29283413e-02 2.80606002e-01
      2.90236712e-01 2.90236712e-01 8.74165744e-02 2.66752243e-01
      2.90236712e-01 2.90236712e-01 1.15269803e-01 2.77268201e-01
      2.86329657e-01 2.86329657e-01 1.39522120e-01 2.54475921e-01
      2.86329657e-01 2.86329657e-01 1.77333996e-01 2.40966856e-01
      2.86329657e-01 2.86329657e-01 1.02010474e-01 1.93075508e-01
      2.86329657e-01 1.95782393e-01 2.85498589e-01 2.86329657e-01
      1.97635829e-01 3.28684807e-01 7.80028179e-02 1.05491780e-01
      1.13707826e-01 3.28684807e-01 2.53402591e-01 2.23649651e-01
      2.83870578e-01 3.28684807e-01 8.11318755e-02 3.28684807e-01
      1.90927491e-01 3.28684807e-01 2.03620255e-01 3.28684807e-01</_>
    <_>
      1.67199641e-01 1.54120550e-01 2.96791732e-01 1.48126110e-01
      2.96791732e-01 2.96791732e-01 1.88422531e-01 1.06220931e-01
      2.96791732e-01 2.96791732e-01 2.96791732e-01 2.96791732e-01
      2.96791732e-01 2.96791732e-01 2.07152650e-01 2.02282041e-01
      2.96558738e-01 2.20624119e-01 1.02930568e-01 2.96558738e-01
      2.96558738e-01 1.91832602e-01 6.76595271e-02 2.96558738e-01
      2.96558738e-01 2.96558738e-01 3.53388451e-02 2.85300851e-01
      2.96558738e-01 2.96558738e-01 1.49064049e-01 2.96558738e-01
      2.38267571e-01 3.23930591e-01 6.28098845e-02 1.60123482e-01
      1.88364491e-01 3.23930591e-01 3.23930591e-01 2.83218235e-01
      1.87701821e-01 3.23930591e-01 4.29083221e-02 2.72147208e-01
      1.51727170e-01 3.23930591e-01 2.09114820e-01 3.03596944e-01</_>
    <_>
      3.54854405e-01 1.13996142e-03 3.10424920e-02 3.54854405e-01
      3.54854405e-01 7.88610987e-03 7.18717556e-03 3.54854405e-01
      3.54854405e-01 1.03179924e-02 3.27150431e-03 3.34690452e-01
      3.54854405e-01 3.95191927e-03 4.21157181e-02 3.54854405e-01
      3.65464151e-01 1.35950133e-01 3.75742353e-02 1.98779151e-01
      3.18088531e-01 6.69052675e-02 2.61437625e-01 3.65464151e-01
      2.07444295e-01 3.65464151e-01 2.38578796e-01 2.94120293e-02
      8.28613490e-02 2.65817761e-01 3.65464151e-01 2.24356547e-01
      3.25707197e-02 3.67139041e-01 3.85893196e-01 3.39387357e-02
      1.49617299e-01 3.63886088e-01 3.85893196e-01 3.90372947e-02
      1.08262599e-01 7.11438730e-02 3.42291147e-01 1.85553908e-01
      3.85893196e-01 1.81765333e-01 2.09144726e-01 1.04510173e-01</_>
    <_>
      2.22241417e-01 4.66977470e-02 8.84221643e-02 3.86263698e-01
      6.71859607e-02 2.40605511e-02 3.86263698e-01 3.86263698e-01
      2.04843104e-01 1.78153679e-01 6.56390563e-02 3.19721103e-01
      1.27385616e-01 8.04589316e-03 3.71938258e-01 3.86263698e-01
      2.97367126e-01 3.58607113e-01 2.80070323e-02 1.41624525e-01
      2.02073753e-01 4.27852832e-02 9.91879553e-02 3.58607113e-01
      3.58607113e-01 3.58607113e-01 7.13366037e-03 5.45828305e-02
      2.23849833e-01 3.58607113e-01 9.95603800e-02 3.58607113e-01
      3.29736620e-01 3.63663673e-01 1.95833761e-02 3.81539576e-02
      1.84309334e-01 3.63663673e-01 7.03634322e-02 2.24455178e-01
      3.17015231e-01 3.63663673e-01 4.72091474e-02 2.31143683e-01
      2.52584159e-01 3.63663673e-01 7.11580440e-02 2.06102237e-01</_>
    <_>
      3.02332819e-01 2.95077898e-02 3.24020982e-02 3.71989220e-01
      2.31918812e-01 3.05595100e-02 1.12853818e-01 3.71989220e-01
      3.71989220e-01 4.08749282e-03 3.37257795e-02 3.71989220e-01
      3.71989220e-01 2.10989509e-02 6.03863448e-02 3.71989220e-01
      2.51243502e-01 1.68303642e-02 9.99247283e-02 3.78546536e-01
      3.78546536e-01 6.58150762e-02 1.23877004e-01 3.78546536e-01
      6.59264624e-02 6.12686798e-02 2.56063730e-01 3.78546536e-01
      1.84837997e-01 1.52426332e-01 2.35785037e-01 3.78546536e-01
      5.52195236e-02 1.13214418e-01 3.35402369e-01 3.37591320e-01
      1.13736555e-01 1.57033533e-01 3.21102798e-01 3.37591320e-01
      1.61183774e-01 1.18212268e-01 2.17393473e-01 3.37591320e-01
      2.43702397e-01 1.76701114e-01 3.06370705e-01 3.37591320e-01</_>
    <_>
      1.33518830e-01 1.45956770e-01 3.56778860e-01 1.28751034e-02
      3.56778860e-01 8.41089934e-02 3.56778860e-01 7.15108216e-02
      3.08881015e-01 3.00928295e-01 3.56778860e-01 2.93534505e-03
      3.56778860e-01 3.25019062e-01 1.21812202e-01 4.52280790e-02
      3.50768000e-01 3.50768000e-01 9.59000736e-02 1.51084233e-02
      3.50768000e-01 3.50768000e-01 8.69840235e-02 6.71723485e-03
      3.25791448e-01 3.36138546e-01 2.34618131e-02 4.43329290e-02
      3.50768000e-01 3.50768000e-01 1.30215526e-01 5.12699597e-02
      3.54570359e-01 1.03494413e-01 9.66056064e-03 1.46356851e-01
      3.54570359e-01 2.22528994e-01 3.92210409e-02 2.46623799e-01
      3.54570359e-01 3.54570359e-01 4.80895564e-02 2.67284960e-01
      3.54570359e-01 1.23139158e-01 9.54671949e-02 3.54570359e-01</_>
    <_>
      1.33435607e-01 3.22603554e-01 3.22603554e-01 5.53022362e-02
      2.84718961e-01 3.22603554e-01 1.85245216e-01 9.42070223e-03
      3.22603554e-01 1.99578583e-01 3.22603554e-01 1.89383715e-01
      2.78569371e-01 3.22603554e-01 2.68991619e-01 1.01736255e-01
      3.20577234e-01 1.15431726e-01 2.41636887e-01 2.49954283e-01
      3.20577234e-01 2.86541432e-01 2.05702871e-01 2.31101677e-01
      3.20577234e-01 1.81232944e-01 1.90120399e-01 2.67631680e-01
      3.20577234e-01 1.16947435e-01 1.28980026e-01 3.20577234e-01
      3.34700197e-01 2.44923651e-01 5.07479049e-02 2.14065105e-01
      3.34700197e-01 1.44942224e-01 6.11938946e-02 3.34700197e-01
      2.37271085e-01 3.34700197e-01 1.46208495e-01 3.34700197e-01
      2.24010900e-01 3.34700197e-01 2.02020660e-01 1.50675640e-01</_>
    <_>
      2.53618415e-02 1.18189029e-01 3.45913976e-01 8.68922621e-02
      3.17260772e-01 3.45913976e-01 2.68640220e-01 1.97440088e-01
      9.41306949e-02 2.46584639e-01 3.45913976e-01 9.03967544e-02
      3.45913976e-01 3.45913976e-01 2.86628485e-01 6.55959472e-02
      2.13457242e-01 2.17205584e-01 3.30616802e-01 1.52951419e-01
      3.30616802e-01 3.30616802e-01 2.38562122e-01 6.61138296e-02
      2.73572087e-01 2.28074193e-01 3.30616802e-01 1.61502704e-01
      2.27645725e-01 3.30616802e-01 2.35424966e-01 1.12026207e-01
      3.12169641e-01 1.50698394e-01 1.25722453e-01 2.06935287e-01
      3.12169641e-01 1.02591336e-01 1.20750718e-01 2.92846024e-01
      3.12169641e-01 3.12169641e-01 9.17756036e-02 2.50905067e-01
      3.12169641e-01 2.26169765e-01 3.12169641e-01 3.12169641e-01</_>
    <_>
      3.37588370e-01 3.40905488e-01 7.28998259e-02 2.62268633e-02
      2.93909550e-01 3.40905488e-01 5.15142642e-02 2.94940591e-01
      2.70059824e-01 3.40905488e-01 1.25081971e-01 1.06597111e-01
      3.40905488e-01 3.40905488e-01 6.88390583e-02 1.21807180e-01
      3.53559524e-01 2.35675484e-01 3.76563706e-02 1.60861462e-01
      3.53559524e-01 3.53559524e-01 1.16212172e-02 1.56905860e-01
      3.53559524e-01 3.53559524e-01 7.96456914e-03 6.90441057e-02
      3.53559524e-01 3.53559524e-01 1.12296389e-02 9.42790136e-02
      2.72814035e-01 4.09003645e-01 3.20424289e-02 2.84109935e-02
      3.29614162e-01 4.09003645e-01 1.23980537e-01 9.41083394e-03
      5.72528802e-02 4.09003645e-01 1.67135954e-01 2.58126054e-02
      5.17920889e-02 4.09003645e-01 3.03020269e-01 5.41730830e-03</_>
    <_>
      2.44286746e-01 3.55122507e-01 2.21058756e-01 6.15229905e-02
      3.82031232e-01 3.82031232e-01 2.77953427e-02 9.10676643e-03
      8.78566504e-02 3.82031232e-01 3.17548931e-01 1.52573720e-01
      1.74540997e-01 3.82031232e-01 1.03809908e-01 4.53670369e-03
      1.94748133e-01 3.57598633e-01 1.60275429e-01 3.54741603e-01
      3.57598633e-01 3.57598633e-01 4.19107229e-02 3.43412757e-02
      3.57598633e-01 5.06669059e-02 6.21969923e-02 3.57598633e-01
      3.57598633e-01 1.43639147e-01 2.07313267e-03 9.84980017e-02
      3.70178789e-01 3.30186114e-02 1.52664231e-02 3.70178789e-01
      3.70178789e-01 2.32817680e-01 3.80530651e-03 1.24866240e-01
      3.70178789e-01 3.89918126e-02 4.01052041e-03 3.70178789e-01
      3.70178789e-01 2.79233307e-01 1.60960387e-02 1.52340099e-01</_>
    <_>
      1.60092324e-01 2.70472169e-01 3.35823208e-01 1.53070748e-01
      3.58393341e-01 3.58393341e-01 3.05798184e-02 1.16047263e-02
      7.83708915e-02 3.09680760e-01 2.78725296e-01 3.08636397e-01
      3.10990125e-01 3.58393341e-01 4.35567051e-02 3.76706235e-02
      9.64371860e-02 1.23569869e-01 2.03806058e-01 3.49854976e-01
      3.49854976e-01 3.49854976e-01 3.79154384e-02 1.41403437e-01
      2.67064571e-01 2.41591390e-02 6.91284463e-02 3.49854976e-01
      3.49854976e-01 3.12594742e-01 1.31596010e-02 3.49854976e-01
      2.61269242e-01 2.39398163e-02 1.78533215e-02 3.74652237e-01
      3.74652237e-01 1.87798515e-01 3.27090770e-02 3.74652237e-01
      2.33189344e-01 4.45119478e-02 2.98448764e-02 3.74652237e-01
      3.05308193e-01 1.30493134e-01 1.46468520e-01 3.74652237e-01</_>
    <_>
      2.70787448e-01 2.70787448e-01 2.70787448e-01 2.04346791e-01
      2.70787448e-01 2.70787448e-01 2.70787448e-01 2.70787448e-01
      9.75285694e-02 2.70787448e-01 2.70787448e-01 2.49167979e-01
      1.37074336e-01 2.70787448e-01 2.70787448e-01 2.42004335e-01
      8.98381174e-02 1.82442486e-01 2.62837052e-01 3.24382365e-01
      2.06094608e-01 3.24382365e-01 1.99528396e-01 2.90712714e-01
      1.25897244e-01 1.52625591e-01 1.78522438e-01 3.24382365e-01
      3.24382365e-01 3.24382365e-01 1.30998164e-01 3.24382365e-01
      8.72883871e-02 2.33399138e-01 1.19808756e-01 3.57273519e-01
      3.57273519e-01 3.12552899e-01 1.41876280e-01 3.57273519e-01
      4.97770309e-02 1.85624495e-01 7.06830993e-02 3.57273519e-01
      1.72136754e-01 2.21635818e-01 2.07985640e-01 3.57273519e-01</_>
    <_>
      3.75298470e-01 3.75298470e-01 5.92486300e-02 8.28514919e-02
      2.26689816e-01 2.03766808e-01 8.50628912e-02 3.72249454e-01
      1.79514542e-01 3.75298470e-01 2.26374775e-01 5.44420816e-02
      5.35938405e-02 3.75298470e-01 2.71331638e-01 1.44351736e-01
      1.47925243e-01 3.52144748e-01 2.19278798e-01 8.62650648e-02
      1.71033591e-01 3.52144748e-01 1.67152643e-01 1.86957251e-02
      3.52144748e-01 3.33040237e-01 1.84208989e-01 3.06952327e-01
      3.52144748e-01 3.52144748e-01 3.32528055e-02 3.64559740e-02
      3.39574218e-01 1.70648709e-01 1.45266950e-01 3.39574218e-01
      3.39574218e-01 1.47327542e-01 5.13757057e-02 6.19196258e-02
      3.39574218e-01 2.88697481e-01 2.04495475e-01 3.39574218e-01
      3.39574218e-01 2.78492749e-01 8.44958648e-02 1.28368318e-01</_>
    <_>
      3.83573584e-03 3.13483089e-01 3.13483089e-01 7.05686063e-02
      2.67033000e-02 3.13483089e-01 3.13483089e-01 2.40119509e-02
      3.13483089e-01 2.55456179e-01 3.13483089e-01 1.99126914e-01
      3.13483089e-01 3.13483089e-01 2.00626940e-01 2.43412584e-01
      2.85789579e-01 2.11050093e-01 2.33696520e-01 2.03075618e-01
      2.85789579e-01 1.91819862e-01 2.69362450e-01 2.75908023e-01
      2.85789579e-01 2.27220982e-01 1.25141785e-01 2.70570606e-01
      2.85789579e-01 2.01790914e-01 2.85789579e-01 2.85789579e-01
      3.18160117e-01 2.01858848e-01 4.17258665e-02 2.49409750e-01
      3.18160117e-01 2.65443057e-01 9.10493210e-02 3.18160117e-01
      1.56189203e-01 3.18160117e-01 1.27227753e-01 2.96173841e-01
      2.37275675e-01 3.18160117e-01 3.18160117e-01 1.46362185e-01</_>
    <_>
      3.52956861e-01 2.33293772e-01 7.12006411e-04 1.77372247e-02
      3.52956861e-01 1.50039598e-01 2.85405628e-02 2.61481613e-01
      3.52956861e-01 3.52956861e-01 5.34361154e-02 1.09618958e-02
      3.52956861e-01 3.52956861e-01 2.57175356e-01 1.82886302e-01
      1.18222527e-01 3.86670023e-01 1.91313848e-01 3.28085981e-02
      5.85184172e-02 3.86670023e-01 3.86670023e-01 2.83461791e-02
      3.96628752e-02 3.07671338e-01 2.48437479e-01 1.16324514e-01
      2.60500640e-01 3.86670023e-01 3.12898606e-01 7.03337267e-02
      1.04672737e-01 2.27145791e-01 2.79632181e-01 1.56752378e-01
      3.77703011e-01 3.77703011e-01 1.19804256e-01 1.12419330e-01
      1.76837847e-01 3.43157291e-01 2.00839058e-01 1.98252454e-01
      3.77703011e-01 3.77703011e-01 5.00129908e-02 4.59328555e-02</_>
    <_>
      1.66994184e-01 2.12482169e-01 1.68876022e-01 2.56953333e-02
      3.47936340e-02 1.24413081e-01 4.83849347e-01 7.14671239e-02
      1.79635644e-01 2.08650991e-01 4.83849347e-01 3.85707878e-02
      9.24298353e-03 3.01279128e-01 4.83849347e-01 2.60521658e-02
      6.89111277e-02 3.83625701e-02 3.90639812e-01 7.63947740e-02
      4.59600650e-02 1.57065839e-01 3.90639812e-01 5.67617752e-02
      1.10994689e-01 2.39880458e-02 3.90639812e-01 2.55332738e-01
      3.90639812e-01 8.80325362e-02 3.90639812e-01 3.24345231e-01
      3.10274214e-01 8.60809386e-02 3.10274214e-01 3.10274214e-01
      3.10274214e-01 8.84260163e-02 9.03860927e-02 3.10274214e-01
      3.10274214e-01 3.10274214e-01 1.50478408e-01 1.30959749e-01
      3.10274214e-01 3.10274214e-01 1.10387057e-01 2.34713778e-01</_>
    <_>
      3.40251207e-01 1.60115197e-01 9.53252539e-02 1.72389328e-01
      3.40251207e-01 2.00164020e-01 3.83169614e-02 2.91716605e-01
      3.40251207e-01 3.40251207e-01 1.10087886e-01 1.86588377e-01
      3.40251207e-01 3.40251207e-01 2.31839672e-01 1.01076551e-01
      2.30649710e-01 2.73203462e-01 1.30938292e-01 2.99104452e-01
      1.51557073e-01 2.99104452e-01 2.99104452e-01 1.90252066e-01
      1.52713031e-01 2.21967384e-01 2.99104452e-01 2.99104452e-01
      1.10792801e-01 2.85921901e-01 2.99104452e-01 2.99104452e-01
      3.62800546e-02 1.20684631e-01 1.99055389e-01 3.95940632e-01
      1.88511595e-01 1.53688863e-01 2.92087853e-01 3.95940632e-01
      8.26617554e-02 1.37045719e-02 5.13967909e-02 3.95940632e-01
      3.95940632e-01 2.74399016e-02 4.25200760e-02 3.95940632e-01</_>
    <_>
      5.11974357e-02 3.09924006e-01 3.09924006e-01 7.43778273e-02
      1.21924534e-01 3.09924006e-01 3.09924006e-01 2.28407770e-01
      1.18019313e-01 3.09924006e-01 3.09924006e-01 9.24893245e-02
      1.86427832e-01 3.09924006e-01 3.09924006e-01 3.09924006e-01
      1.61761299e-01 2.90412188e-01 2.08760396e-01 7.56681040e-02
      2.71486014e-01 2.90412188e-01 2.90412188e-01 2.90412188e-01
      2.90412188e-01 2.30069354e-01 1.71439752e-01 1.33095339e-01
      2.90412188e-01 2.90412188e-01 2.84464896e-01 2.76744187e-01
      2.72502095e-01 1.82320997e-01 1.15055449e-01 2.02560201e-01
      2.72502095e-01 2.32951179e-01 1.96646854e-01 2.72502095e-01
      2.72502095e-01 2.72502095e-01 2.72502095e-01 2.72502095e-01
      2.72502095e-01 2.72502095e-01 2.72502095e-01 2.72502095e-01</_>
    <_>
      1.80993319e-01 3.20847094e-01 8.56962427e-02 1.98466629e-01
      3.49083990e-01 3.49083990e-01 1.78871062e-02 2.69387923e-02
      3.49083990e-01 1.33940294e-01 3.24897245e-02 3.49083990e-01
      3.49083990e-01 3.49083990e-01 1.65617396e-03 2.50751495e-01
      3.48092794e-01 4.91115674e-02 3.12518096e-03 3.48092794e-01
      3.48092794e-01 1.51172429e-01 3.65904928e-03 3.48092794e-01
      3.48092794e-01 2.03051701e-01 2.31211204e-02 1.87672794e-01
      3.48092794e-01 1.82980612e-01 1.99088544e-01 3.06787491e-01
      3.32116574e-01 3.32116574e-01 9.31598246e-02 6.13980889e-02
      1.67351037e-01 2.76239067e-01 3.32116574e-01 1.62154511e-01
      3.32116574e-01 3.32116574e-01 1.05417527e-01 2.34574705e-01
      8.23552534e-02 9.27050412e-02 3.32116574e-01 3.32116574e-01</_>
    <_>
      3.17503840e-01 6.96756467e-02 3.49334590e-02 8.83017853e-02
      3.86771321e-01 4.37101349e-02 1.10190473e-02 2.98025459e-01
      3.86771321e-01 3.86771321e-01 1.31396782e-02 4.60689068e-02
      3.86771321e-01 3.86771321e-01 1.69772399e-03 2.00862408e-01
      2.61775434e-01 3.71960849e-01 4.55571115e-02 3.77030931e-02
      3.71960849e-01 3.71960849e-01 1.24640064e-02 2.55886838e-02
      2.72587091e-01 3.71960849e-01 9.14197862e-02 9.92099121e-02
      3.71960849e-01 3.71960849e-01 2.66277231e-02 1.03969825e-02
      3.56620163e-01 2.61052549e-01 6.20539710e-02 1.42954752e-01
      3.56620163e-01 3.56620163e-01 5.17772324e-02 1.91466771e-02
      3.56620163e-01 3.23484004e-01 1.96004529e-02 4.00619358e-02
      3.56620163e-01 3.56620163e-01 1.76698834e-01 5.75666595e-03</_>
    <_>
      3.13079774e-01 3.17709565e-01 3.70212086e-02 2.90818457e-02
      3.56027901e-01 3.02649260e-01 4.98060044e-03 1.96545258e-01
      3.56027901e-01 3.56027901e-01 1.47840559e-01 3.69618088e-02
      3.56027901e-01 3.56027901e-01 1.91698167e-02 8.74480605e-02
      3.68231982e-01 2.20555589e-01 5.98163866e-02 3.70272398e-02
      3.68231982e-01 3.62683654e-01 6.78981934e-03 4.01691049e-02
      3.68231982e-01 3.53088140e-01 1.43703818e-02 1.56136043e-02
      3.68231982e-01 3.68231982e-01 6.84075430e-02 4.18708660e-02
      3.63297433e-01 3.63297433e-01 4.02567014e-02 1.30382844e-03
      3.42258453e-01 3.63297433e-01 2.63864756e-01 1.11860065e-02
      5.68324625e-02 3.63297433e-01 1.06295310e-01 2.01755986e-02
      2.85197049e-02 3.63297433e-01 3.63297433e-01 1.40812667e-02</_>
    <_>
      2.72063278e-02 4.25929427e-02 3.66818279e-01 3.74705583e-01
      8.93458575e-02 5.05555235e-02 3.74705583e-01 3.74705583e-01
      3.51732671e-02 6.44328445e-02 2.58081526e-01 3.74705583e-01
      8.79423618e-02 6.05743863e-02 2.51373410e-01 3.74705583e-01
      1.03096515e-02 2.34460920e-01 3.55756640e-01 2.29339451e-01
      3.25309858e-02 2.36064643e-01 3.55756640e-01 2.58245438e-01
      2.63776649e-02 3.55756640e-01 3.55756640e-01 4.18277197e-02
      3.26861702e-02 3.55756640e-01 3.55756640e-01 4.90391031e-02
      1.03944339e-01 1.60738051e-01 3.56058836e-01 1.68222398e-01
      1.62143320e-01 1.34359777e-01 3.56058836e-01 1.89355686e-01
      3.56058836e-01 8.51925090e-02 2.49072284e-01 3.56058836e-01
      3.56058836e-01 1.55193256e-02 1.45261794e-01 3.56058836e-01</_>
    <_>
      3.40630412e-01 1.54146329e-01 6.21884987e-02 1.58462569e-01
      1.88750058e-01 2.97229718e-02 2.53306150e-01 3.40630412e-01
      3.40630412e-01 3.40630412e-01 3.40630412e-01 1.29831612e-01
      5.07842824e-02 2.44840965e-01 3.40630412e-01 2.60051727e-01
      1.72468230e-01 2.91652381e-01 2.98312664e-01 1.59911945e-01
      6.54875860e-02 2.98312664e-01 2.98312664e-01 1.84330001e-01
      1.57058761e-01 2.80858248e-01 2.98312664e-01 2.34367460e-01
      1.92261830e-01 2.98312664e-01 2.98312664e-01 2.98312664e-01
      1.61017537e-01 2.05102965e-01 3.03549111e-01 3.03549111e-01
      2.08691373e-01 3.03549111e-01 3.03549111e-01 3.03549111e-01
      1.04269467e-01 6.38577119e-02 2.32245430e-01 3.03549111e-01
      2.54810393e-01 1.20283663e-01 3.03549111e-01 3.03549111e-01</_>
    <_>
      3.37302297e-01 4.90576066e-02 2.85018563e-01 3.37302297e-01
      8.53320211e-02 3.15907970e-02 2.23343745e-01 3.37302297e-01
      1.01257913e-01 2.07552522e-01 3.37302297e-01 3.37302297e-01
      4.48577330e-02 5.54291904e-02 3.37302297e-01 3.37302297e-01
      5.58557473e-02 2.29029313e-01 3.61370981e-01 3.43586564e-01
      2.28666440e-02 9.78403240e-02 3.61370981e-01 2.59524941e-01
      1.43630132e-01 1.36541218e-01 3.61370981e-01 3.61370981e-01
      1.08564235e-01 1.56694546e-01 3.14517945e-01 2.20056683e-01
      1.16345838e-01 9.22633931e-02 3.49387437e-01 3.49387437e-01
      1.81012228e-01 9.03193057e-02 2.45435178e-01 3.01529676e-01
      5.91052473e-02 1.75560966e-01 3.49387437e-01 3.49387437e-01
      1.00303575e-01 7.46533424e-02 3.49387437e-01 3.49387437e-01</_>
    <_>
      3.04081827e-01 1.93733126e-01 3.04081827e-01 3.04081827e-01
      2.03516424e-01 1.30951256e-01 3.04081827e-01 2.38244802e-01
      1.68050840e-01 1.76799253e-01 3.04081827e-01 3.04081827e-01
      1.51755840e-01 1.47804961e-01 3.04081827e-01 3.04081827e-01
      1.64845735e-01 1.13254771e-01 2.04532027e-01 2.61209220e-01
      3.06262732e-01 2.27193594e-01 1.52662128e-01 3.06262732e-01
      1.66145936e-01 3.06262732e-01 1.99903503e-01 2.18652129e-01
      3.06262732e-01 3.06262732e-01 3.06262732e-01 3.06262732e-01
      2.66721874e-01 2.05114394e-01 1.86064035e-01 2.71519542e-01
      2.03972831e-01 2.71519542e-01 2.71519542e-01 2.54604846e-01
      2.71519542e-01 2.71519542e-01 2.71519542e-01 2.71519542e-01
      1.77780807e-01 2.18892395e-01 2.71519542e-01 2.71519542e-01</_>
    <_>
      6.60931021e-02 3.51394743e-01 3.51394743e-01 5.36071472e-02
      2.01686502e-01 3.51394743e-01 3.12918574e-01 3.82785946e-02
      1.31422311e-01 3.51394743e-01 3.02036375e-01 1.34703159e-01
      3.03075463e-01 3.51394743e-01 1.14239365e-01 1.57169513e-02
      9.35152173e-02 3.25435340e-01 2.62062192e-01 1.40291810e-01
      1.69032231e-01 3.33707452e-01 1.80642903e-01 4.80401330e-03
      1.24978751e-01 2.60073632e-01 3.33707452e-01 3.05643588e-01
      3.33707452e-01 3.33707452e-01 3.09872001e-01 1.19531445e-01
      3.00254792e-01 7.97913969e-02 2.70885408e-01 3.00254792e-01
      3.00254792e-01 2.01409623e-01 1.14402004e-01 2.51307189e-01
      2.38192841e-01 2.98242807e-01 3.00254792e-01 2.81511009e-01
      3.00254792e-01 3.00254792e-01 1.16820633e-01 1.44732445e-01</_>
    <_>
      8.97778198e-02 1.45498589e-01 3.17601949e-01 3.17601949e-01
      3.17601949e-01 3.17601949e-01 2.48000696e-01 9.70652327e-02
      1.51751339e-01 1.45007595e-01 3.17601949e-01 3.17601949e-01
      2.22587049e-01 3.17601949e-01 2.09742293e-01 2.30176359e-01
      1.61261454e-01 1.25647798e-01 3.20506305e-01 3.20506305e-01
      3.18630934e-01 1.55610606e-01 8.03321972e-02 2.10732341e-01
      3.20506305e-01 1.34893715e-01 2.56188184e-01 3.20506305e-01
      3.20506305e-01 2.69772321e-01 7.38354474e-02 3.20506305e-01
      3.09731513e-01 1.07213385e-01 8.35856497e-02 3.09731513e-01
      3.09731513e-01 2.90320128e-01 1.18114352e-01 2.85811603e-01
      2.11906895e-01 2.51224488e-01 1.99126393e-01 2.36798435e-01
      3.09731513e-01 3.09731513e-01 3.09731513e-01 1.38398319e-01</_>
    <_>
      1.96220145e-01 3.26089561e-01 7.45327696e-02 1.69967815e-01
      2.28641242e-01 3.26089561e-01 1.83773831e-01 9.87775996e-02
      3.26089561e-01 2.03771904e-01 1.22608967e-01 3.26089561e-01
      3.26089561e-01 3.26089561e-01 1.64596304e-01 3.26089561e-01
      3.18856001e-01 2.48130873e-01 5.13448939e-02 2.08895341e-01
      3.18856001e-01 1.88499466e-01 6.45348579e-02 3.18856001e-01
      3.18856001e-01 3.18856001e-01 2.84179226e-02 1.83669299e-01
      3.18856001e-01 3.18856001e-01 3.71398292e-02 3.18856001e-01
      3.25901330e-01 3.25901330e-01 2.07050070e-02 3.25901330e-01
      3.25901330e-01 3.25901330e-01 1.13327049e-01 1.38535410e-01
      2.14138448e-01 1.76047415e-01 9.41181555e-03 3.25901330e-01
      1.84948280e-01 3.25901330e-01 1.79013789e-01 2.78585315e-01</_>
    <_>
      3.49939138e-01 5.23653887e-02 6.77989200e-02 2.64588803e-01
      3.49939138e-01 4.01630476e-02 2.69122142e-03 3.49939138e-01
      3.49939138e-01 3.20463508e-01 8.50479528e-02 2.06244200e-01
      3.49939138e-01 1.64353937e-01 5.75667433e-02 3.49939138e-01
      3.02929223e-01 3.02929223e-01 9.53113437e-02 1.58080921e-01
      3.02929223e-01 3.01438183e-01 2.10612267e-01 1.92909658e-01
      3.02929223e-01 3.02929223e-01 1.67633027e-01 2.08362177e-01
      2.59439200e-01 3.02929223e-01 3.02929223e-01 9.63091403e-02
      2.78978676e-01 3.19442689e-01 2.05505550e-01 2.49090418e-01
      3.19442689e-01 3.19442689e-01 1.79825649e-01 5.82326390e-02
      3.19442689e-01 2.44737282e-01 1.72609225e-01 3.03789705e-01
      3.19442689e-01 2.92020470e-01 9.73857474e-03 3.74803841e-02</_>
    <_>
      4.35326323e-02 3.00985456e-01 3.51707667e-01 1.67601213e-01
      2.20337566e-02 3.51707667e-01 3.51707667e-01 7.97389727e-03
      9.41576716e-03 1.05816312e-01 3.51707667e-01 3.51707667e-01
      3.27322409e-02 3.51707667e-01 3.30793560e-01 1.06715642e-01
      9.95594636e-03 3.03519275e-02 3.21164697e-01 4.14282471e-01
      1.02875859e-01 1.70132220e-01 1.49635121e-01 3.86279702e-01
      5.19356765e-02 6.40178623e-04 2.03297749e-01 4.14282471e-01
      3.46668720e-01 1.70472637e-02 3.42907384e-02 4.14282471e-01
      1.37542933e-01 6.30820694e-04 1.54725671e-01 3.95268559e-01
      3.95268559e-01 7.04367238e-04 1.44018065e-02 3.95268559e-01
      2.03847989e-01 1.54063907e-02 1.09717123e-01 3.95268559e-01
      3.33820641e-01 2.45301165e-02 7.70159811e-02 3.95268559e-01</_>
    <_>
      3.24652165e-01 1.64301977e-01 5.92681728e-02 1.54709265e-01
      3.24652165e-01 1.07674554e-01 2.74397880e-01 3.24652165e-01
      3.24652165e-01 3.24652165e-01 8.63067135e-02 3.88513915e-02
      2.15911284e-01 2.74343103e-01 3.24652165e-01 3.03630173e-01
      3.41672182e-01 2.28943512e-01 6.73547164e-02 7.34096095e-02
      1.80718988e-01 1.45766392e-01 3.41672182e-01 3.41672182e-01
      3.41672182e-01 1.27369612e-01 1.67604253e-01 1.13362409e-01
      3.31554383e-01 1.13161646e-01 3.41672182e-01 3.41672182e-01
      3.41470182e-01 7.16951564e-02 1.76607788e-01 2.05512866e-01
      1.27342612e-01 7.56088644e-02 3.45512271e-01 3.45512271e-01
      3.45512271e-01 8.96705836e-02 2.03989282e-01 3.45512271e-01
      9.86717865e-02 6.15304410e-02 3.45512271e-01 3.45512271e-01</_>
    <_>
      0. 4.89172945e-03 4.64880794e-01 8.02378803e-02 1.05738780e-02
      3.76869701e-02 4.64880794e-01 9.40130949e-02 1.17215351e-03
      1.29974671e-02 4.64880794e-01 1.86286822e-01 1.65007606e-01
      1.35318249e-01 4.64880794e-01 1.83455199e-01 2.02186927e-02
      1.12661216e-02 3.76628637e-01 1.84585273e-01 3.76628637e-01
      1.65824577e-01 3.76628637e-01 1.43214688e-01 1.58902332e-01
      1.80072989e-02 3.76628637e-01 2.24923939e-01 3.76628637e-01
      1.99876949e-01 2.69753844e-01 1.24470882e-01 3.56429935e-01
      9.72316414e-02 3.56429935e-01 1.32371590e-01 3.56429935e-01
      2.70841599e-01 6.40013516e-02 5.07503003e-02 3.56429935e-01
      3.00135314e-01 1.85608938e-01 5.07460386e-02 3.56429935e-01
      3.56429935e-01 7.21137831e-03 4.79060272e-03</_>
    <_>
      4.52894047e-02 4.31128711e-01 2.19887868e-01 3.62310186e-02
      7.17291161e-02 4.31128711e-01 3.45408097e-02 4.98443515e-05
      1.84245616e-01 4.31128711e-01 2.09164619e-01 1.87843174e-01
      2.84649074e-01 4.31128711e-01 1.18594617e-02 2.45185592e-03
      3.03746581e-01 3.09192866e-01 1.86381996e-01 3.09192866e-01
      3.09192866e-01 3.09192866e-01 8.32673814e-03 8.70666839e-03
      3.09192866e-01 2.36304343e-01 2.18829557e-01 3.09192866e-01
      3.09192866e-01 3.09192866e-01 3.30571160e-02 1.20176030e-02
      2.97008067e-01 2.81033188e-01 2.77939647e-01 3.19927156e-01
      3.19927156e-01 3.19927156e-01 1.64024934e-01 2.24966742e-02
      9.30449814e-02 1.22237407e-01 2.62427092e-01 3.19927156e-01
      1.09422527e-01 3.19927156e-01 3.05223733e-01 1.24820486e-01</_>
    <_>
      1.00605220e-01 1.61820725e-01 3.21989059e-01 7.70643204e-02
      3.21989059e-01 3.21989059e-01 1.42300025e-01 1.02337122e-01
      1.85233012e-01 3.21989059e-01 3.21989059e-01 1.68974817e-01
      3.21989059e-01 3.21989059e-01 3.21989059e-01 1.77580610e-01
      2.02276796e-01 3.26670945e-01 3.26670945e-01 1.22322388e-01
      3.26670945e-01 3.26670945e-01 2.83131450e-01 8.59841779e-02
      3.26670945e-01 2.59004354e-01 8.50657970e-02 1.50068104e-01
      3.26670945e-01 3.26670945e-01 6.36025071e-02 7.36079440e-02
      3.49977702e-01 3.49977702e-01 1.25425234e-02 7.25999400e-02
      3.49977702e-01 3.49977702e-01 4.85762022e-02 4.33941260e-02
      3.49977702e-01 3.49977702e-01 1.39180822e-02 1.39683019e-02
      3.49977702e-01 3.49977702e-01 7.90704638e-02 1.77917331e-02</_>
    <_>
      2.27087364e-02 6.79638295e-04 3.36356610e-01 3.12560141e-01
      5.45770898e-02 6.23908639e-03 3.36356610e-01 3.27513188e-01
      3.27238105e-02 1.90179050e-03 3.36356610e-01 3.36356610e-01
      3.36356610e-01 1.98001377e-02 3.36356610e-01 3.28428924e-01
      1.31960288e-01 6.27325941e-03 3.38750213e-01 3.38750213e-01
      3.38750213e-01 2.81485990e-02 3.35610777e-01 2.30294034e-01
      2.97035664e-01 1.88819692e-02 3.38750213e-01 3.38750213e-01
      3.38750213e-01 6.71009272e-02 8.61760080e-02 1.53865010e-01
      2.92030990e-01 2.34646685e-02 2.90460497e-01 3.94016922e-01
      4.24555987e-01 8.74811783e-02 1.28124962e-02 2.05479413e-01
      4.10222918e-01 8.46668184e-02 5.37327901e-02 1.86711401e-01
      4.24555987e-01 1.43034056e-01 6.99700695e-03 1.61455348e-01</_>
    <_>
      4.72192243e-02 3.62003058e-01 3.62003058e-01 8.72946829e-02
      1.21182285e-01 3.62003058e-01 2.65541911e-01 5.45565039e-02
      7.66796693e-02 2.83248037e-01 3.53894919e-01 1.30636081e-01
      3.62003058e-01 3.62003058e-01 1.05444551e-01 5.99420927e-02
      2.26837024e-01 1.00983940e-01 1.05338886e-01 1.61100790e-01
      4.04079676e-01 4.04079676e-01 3.45297195e-02 8.12559947e-02
      4.04079676e-01 2.23325044e-01 2.72579547e-02 1.87004939e-01
      4.04079676e-01 3.34712237e-01 1.38673007e-01 1.39620930e-01
      3.46640438e-01 3.46640438e-01 7.19236955e-02 4.54553887e-02
      3.46640438e-01 3.46640438e-01 3.46640438e-01 4.67512757e-02
      1.05293132e-01 3.46640438e-01 1.07788078e-01 2.97288895e-02
      4.19511423e-02 3.46640438e-01 3.46640438e-01 2.20493581e-02</_>
    <_>
      1.21163920e-01 4.14100140e-01 1.86943486e-01 2.73958534e-01
      1.27256051e-01 4.14100140e-01 9.20330510e-02 7.81686697e-03
      2.88828984e-02 2.46368170e-01 4.14100140e-01 2.07532987e-01
      7.85843134e-02 4.14100140e-01 2.20592812e-01 3.32022682e-02
      4.79125045e-02 1.01480618e-01 3.73098820e-01 1.79739490e-01
      3.16075772e-01 3.73098820e-01 3.11012119e-01 1.52601421e-01
      2.14390054e-01 7.77316317e-02 2.76337087e-01 1.33530602e-01
      3.73098820e-01 2.39810556e-01 1.51292786e-01 2.95377910e-01
      2.29548931e-01 1.91601574e-01 8.62820670e-02 1.49056584e-01
      3.68821383e-01 3.68821383e-01 1.67251959e-01 1.31944075e-01
      1.01906903e-01 2.47631609e-01 1.67871833e-01 3.68821383e-01
      1.81962505e-01 3.68821383e-01 3.68821383e-01 1.36830598e-01</_>
    <_>
      6.05669692e-02 3.71610820e-02 2.66162694e-01 3.95217597e-01
      1.65638506e-01 4.68834713e-02 2.17112422e-01 3.95217597e-01
      1.48353040e-01 2.91758366e-02 2.61258900e-01 3.95217597e-01
      2.19379231e-01 6.85154349e-02 2.73244053e-01 3.95217597e-01
      6.03371374e-02 1.58129156e-01 3.54326606e-01 2.26015210e-01
      9.00306925e-02 2.56177694e-01 3.54326606e-01 2.54229128e-01
      3.25502865e-02 3.54326606e-01 3.54326606e-01 5.84498197e-02
      5.56013770e-02 3.54326606e-01 3.54326606e-01 1.32345170e-01
      1.22774065e-01 2.19883099e-01 2.71594882e-01 1.41183123e-01
      1.43439621e-01 1.68900684e-01 3.40481013e-01 2.54312396e-01
      3.40481013e-01 1.71034411e-01 2.53924489e-01 3.40481013e-01
      3.40481013e-01 1.01060838e-01 2.05236971e-01 3.40481013e-01</_>
    <_>
      2.80123562e-01 2.80123562e-01 2.20220551e-01 7.74844661e-02
      2.80123562e-01 2.80123562e-01 2.64034778e-01 1.89877987e-01
      2.80123562e-01 2.80123562e-01 2.34333754e-01 1.83944225e-01
      2.80123562e-01 2.80123562e-01 2.80123562e-01 2.04844356e-01
      2.68619925e-01 2.20183447e-01 1.61986977e-01 2.68619925e-01
      1.86489224e-01 2.61431098e-01 2.24640280e-01 2.68619925e-01
      2.68619925e-01 2.68619925e-01 2.68619925e-01 2.68619925e-01
      2.68619925e-01 2.17808872e-01 2.68619925e-01 2.68619925e-01
      3.04052323e-01 3.04052323e-01 1.21145003e-01 2.04562992e-01
      3.04052323e-01 2.58049458e-01 1.89418852e-01 3.04052323e-01
      1.97349399e-01 3.04052323e-01 8.87369737e-02 2.63150454e-01
      2.10099667e-01 3.04052323e-01 3.04052323e-01 1.74999669e-01</_>
    <_>
      6.46654610e-03 1.84490725e-01 3.66809636e-01 3.66809636e-01
      2.70370003e-02 1.34429023e-01 3.66809636e-01 3.15523565e-01
      3.22039798e-02 2.29377314e-01 3.66809636e-01 2.27970153e-01
      4.90648672e-02 2.51056015e-01 2.83716470e-01 2.32699916e-01
      1.39534712e-01 9.01057124e-02 3.07368398e-01 3.96256566e-01
      7.16682971e-02 2.06768557e-01 1.49501935e-01 1.93349853e-01
      2.36828342e-01 2.71735452e-02 3.96256566e-01 3.96256566e-01
      1.99202731e-01 8.49836171e-02 1.85863718e-01 3.96256566e-01
      1.05113313e-01 2.29692739e-03 3.41595381e-01 3.41595381e-01
      2.84552127e-01 1.04579944e-02 1.04005128e-01 3.41595381e-01
      2.20691189e-01 6.26354590e-02 3.41595381e-01 3.41595381e-01
      3.41595381e-01 4.68622297e-02 1.48326963e-01 3.41595381e-01</_>
    <_>
      3.03110152e-01 1.75944954e-01 2.49888673e-01 3.03110152e-01
      3.03110152e-01 3.03110152e-01 1.47614196e-01 6.58621117e-02
      1.07885167e-01 2.73952723e-01 3.03110152e-01 2.77845681e-01
      2.42845714e-01 3.03110152e-01 3.03110152e-01 1.07007295e-01
      2.30467156e-01 9.86942872e-02 3.37831587e-01 3.37831587e-01
      3.37831587e-01 2.68809766e-01 1.63012385e-01 2.28024468e-01
      3.16310406e-01 8.26485977e-02 2.19729349e-01 3.37831587e-01
      3.37831587e-01 1.64164156e-01 1.50938397e-02 1.73058853e-01
      2.82627821e-01 1.07529201e-01 1.62580445e-01 3.53371859e-01
      3.53371859e-01 2.49054581e-01 2.83310264e-02 1.15358539e-01
      3.53371859e-01 6.03693314e-02 9.44036022e-02 3.53371859e-01
      3.53371859e-01 2.27190956e-01 4.68207486e-02 3.34267706e-01</_>
    <_>
      1.18091740e-01 3.64972837e-02 3.41735959e-01 1.51030809e-01
      3.09724480e-01 8.23633149e-02 1.18003950e-01 1.81461573e-01
      4.09524292e-01 7.54962415e-02 1.10081010e-01 4.09524292e-01
      4.09524292e-01 3.64692099e-02 3.85122970e-02 4.09524292e-01
      3.42519879e-01 2.96347320e-01 1.67498048e-02 2.19375476e-01
      3.42519879e-01 1.11458473e-01 1.44076556e-01 3.42519879e-01
      3.42519879e-01 3.42519879e-01 6.44035265e-02 1.67019330e-02
      1.20946921e-01 3.06459785e-01 3.42519879e-01 1.01375520e-01
      2.23883778e-01 3.41364771e-01 2.07899615e-01 9.77295823e-03
      1.05025403e-01 3.41364771e-01 3.41364771e-01 1.98710784e-02
      1.14475735e-01 3.41364771e-01 2.33453527e-01 9.09212232e-02
      3.41364771e-01 3.41364771e-01 3.41364771e-01 1.18771289e-02</_>
    <_>
      3.49085331e-01 1.82382494e-01 3.49085331e-01 1.11869685e-01
      3.49085331e-01 2.45946825e-01 1.13696992e-01 1.09164149e-01
      3.49085331e-01 2.49945089e-01 3.47050488e-01 9.06626284e-02
      3.49085331e-01 2.10475817e-01 7.27507100e-02 1.23969890e-01
      3.52491349e-01 3.52491349e-01 1.40436351e-01 4.30281274e-02
      3.52491349e-01 1.87963486e-01 1.26021981e-01 1.16416752e-01
      3.52491349e-01 3.52491349e-01 1.43143341e-01 1.16557004e-02
      1.23368263e-01 3.52491349e-01 3.52491349e-01 6.74025789e-02
      2.32200757e-01 3.32278728e-01 2.43620127e-01 2.53059864e-02
      1.32634491e-01 3.32278728e-01 3.32278728e-01 3.08491401e-02
      3.32278728e-01 2.76385784e-01 2.00817212e-01 1.18999004e-01
      3.32278728e-01 2.66722441e-01 2.97667205e-01 1.46827430e-01</_>
    <_>
      5.74095286e-02 8.02275632e-03 3.25220793e-01 3.25220793e-01
      2.55891860e-01 2.05671281e-01 1.54339567e-01 2.66727060e-01
      3.25220793e-01 7.10623860e-02 3.25220793e-01 3.25220793e-01
      3.25220793e-01 1.42551571e-01 1.57778397e-01 3.25220793e-01
      3.56102139e-01 1.34102508e-01 7.99110010e-02 1.57256678e-01
      3.56102139e-01 1.22574210e-01 1.40337870e-01 3.56102139e-01
      3.56102139e-01 2.69750267e-01 2.48891842e-02 1.33903161e-01
      3.56102139e-01 1.92529902e-01 1.52934864e-01 3.56102139e-01
      2.97445387e-01 2.97445387e-01 8.53492692e-02 1.17251836e-01
      2.97445387e-01 2.97445387e-01 2.97445387e-01 2.97445387e-01
      1.17541894e-01 2.97445387e-01 9.32145193e-02 2.97445387e-01
      2.42969513e-01 2.97445387e-01 2.97445387e-01 9.85816941e-02</_>
    <_>
      1.16486795e-01 3.33202332e-01 3.33202332e-01 2.12065384e-01
      1.91614255e-02 3.33202332e-01 3.33202332e-01 1.06765240e-01
      2.10751981e-01 1.40645042e-01 2.27919266e-01 3.33202332e-01
      2.05699965e-01 1.47583082e-01 2.82813072e-01 3.33202332e-01
      3.45358968e-01 4.94413935e-02 5.43039851e-02 3.50212812e-01
      3.50212812e-01 2.65347268e-02 6.36364371e-02 3.50212812e-01
      2.50305504e-01 3.13389674e-02 2.31647357e-01 3.50212812e-01
      2.58020639e-01 4.67748232e-02 2.60342270e-01 3.50212812e-01
      4.35875282e-02 6.06590733e-02 3.69799405e-01 2.51871556e-01
      5.68095073e-02 9.30020958e-02 3.69799405e-01 2.65670180e-01
      8.34654644e-02 6.60046637e-02 3.69799405e-01 3.56247008e-01
      1.11004218e-01 1.02539249e-01 3.69799405e-01 3.69799405e-01</_>
    <_>
      2.12429300e-01 3.49598169e-01 1.40639052e-01 1.56250715e-01
      3.49598169e-01 3.49598169e-01 7.19871419e-03 2.57889368e-02
      3.49598169e-01 1.42408460e-01 5.22131883e-02 3.49598169e-01
      3.49598169e-01 1.97025165e-01 6.09934330e-03 3.33608449e-01
      3.38722289e-01 2.78521597e-01 2.66995784e-02 2.49412566e-01
      3.38722289e-01 1.76086560e-01 1.21196046e-01 3.38722289e-01
      2.88374245e-01 3.38722289e-01 1.09926894e-01 5.11822030e-02
      1.21261559e-01 3.38722289e-01 3.38722289e-01 9.72761586e-02
      9.61991400e-02 3.61463636e-01 3.06510389e-01 1.48360267e-01
      8.74606613e-03 3.61463636e-01 3.61463636e-01 3.06713134e-02
      7.21122418e-03 4.66645733e-02 3.25246096e-01 3.61463636e-01
      4.12550202e-04 2.66475022e-01 3.61463636e-01 1.94561660e-01</_>
    <_>
      3.50487709e-01 2.60219425e-02 4.56050970e-02 2.03635007e-01
      3.50487709e-01 8.24962556e-02 1.72362253e-02 1.14475697e-01
      3.22619915e-01 2.73184448e-01 3.50487709e-01 1.19427964e-01
      3.50487709e-01 3.50487709e-01 3.50487709e-01 4.51700948e-02
      3.12258620e-02 1.80436656e-01 3.20921838e-01 1.36875093e-01
      7.48296604e-02 3.20921838e-01 3.20921838e-01 6.96829185e-02
      4.44628745e-02 7.19485432e-02 3.20921838e-01 3.20921838e-01
      3.20921838e-01 3.20921838e-01 3.20921838e-01 3.20921838e-01
      8.37757066e-02 9.69932824e-02 3.55379462e-01 3.55379462e-01
      3.55379462e-01 1.23686992e-01 2.68210351e-01 3.55379462e-01
      5.15591726e-02 1.07893765e-01 3.55379462e-01 7.02278316e-02
      3.40849102e-01 1.30629212e-01 3.01565737e-01 1.33790076e-01</_>
    <_>
      2.60867566e-01 3.47910374e-01 1.56464070e-01 3.20741371e-03
      3.47910374e-01 3.47910374e-01 9.42713246e-02 3.71453390e-02
      2.82337725e-01 3.47910374e-01 2.01968253e-01 1.43062407e-02
      3.47910374e-01 3.47910374e-01 2.15832740e-01 1.30336601e-02
      1.41460925e-01 3.16131204e-01 2.14063391e-01 1.79619849e-01
      3.16131204e-01 3.16131204e-01 1.42595544e-01 4.07840759e-02
      3.16131204e-01 3.06359261e-01 1.39425933e-01 3.16131204e-01
      3.16131204e-01 3.16131204e-01 7.98432231e-02 2.39799336e-01
      3.03367108e-01 2.82367676e-01 5.78446984e-02 3.03367108e-01
      3.03367108e-01 1.82040974e-01 7.13582635e-02 3.03367108e-01
      3.03367108e-01 3.03367108e-01 3.98764983e-02 2.08764598e-01
      3.03367108e-01 2.80393720e-01 1.24956608e-01 3.03367108e-01</_>
    <_>
      2.91671485e-01 2.91671485e-01 1.70219645e-01 2.80850291e-01
      1.78003088e-01 2.91671485e-01 7.48120397e-02 2.11411744e-01
      2.91671485e-01 2.91671485e-01 1.45900160e-01 2.91671485e-01
      2.68549234e-01 2.91671485e-01 1.82409585e-01 2.91671485e-01
      2.63463140e-01 2.79354274e-01 1.97838947e-01 2.79354274e-01
      1.58015609e-01 2.79354274e-01 2.79354274e-01 2.79354274e-01
      6.36150911e-02 2.79354274e-01 2.75574416e-01 2.79354274e-01
      5.75356819e-02 2.79354274e-01 2.79354274e-01 2.79354274e-01
      4.52370383e-02 2.07429320e-01 3.11647683e-01 3.45448494e-01
      7.29582831e-02 3.45448494e-01 3.45448494e-01 3.45448494e-01
      7.93260261e-02 3.64502780e-02 2.05054641e-01 3.45448494e-01
      1.10312872e-01 8.70509893e-02 2.52199411e-01 3.45448494e-01</_>
    <_>
      4.81864326e-02 1.73914701e-01 3.78004849e-01 1.99597836e-01
      2.00717375e-02 1.37191370e-01 3.78004849e-01 1.90779328e-01
      8.17971602e-02 4.89047691e-02 3.78004849e-01 3.55252147e-01
      1.81153655e-01 5.59300743e-02 3.78004849e-01 3.54136884e-01
      6.03040420e-02 7.22397305e-03 3.44415128e-01 2.81096131e-01
      3.29144895e-01 4.65315245e-02 3.44415128e-01 2.49051034e-01
      9.66471806e-02 3.71588282e-02 3.44415128e-01 2.90860146e-01
      3.44415128e-01 2.25293800e-01 3.21984887e-01 1.30718902e-01
      2.14071229e-01 1.18526362e-01 3.45921904e-01 1.80388212e-01
      3.45921904e-01 2.68633693e-01 1.21938840e-01 1.09969757e-01
      2.13891357e-01 3.45921904e-01 3.45921904e-01 8.31773207e-02
      3.45921904e-01 3.45921904e-01 1.66249245e-01 8.19981322e-02</_>
    <_>
      1.50018379e-01 1.18472017e-02 3.02401394e-01 2.41386294e-01
      8.90677571e-02 4.96194959e-02 4.43170935e-01 2.26243690e-01
      3.87285277e-02 1.39961373e-02 4.43170935e-01 2.51950026e-01
      1.22255430e-01 7.32654780e-02 4.43170935e-01 2.94858903e-01
      5.11153191e-02 4.11191396e-03 3.19869071e-01 2.53039837e-01
      3.19869071e-01 5.09363115e-02 3.19869071e-01 3.00752282e-01
      2.50132799e-01 5.01084514e-03 3.19869071e-01 3.19869071e-01
      3.19869071e-01 3.03845778e-02 2.39520684e-01 3.19869071e-01
      2.92690635e-01 4.94808368e-02 2.92690635e-01 2.92690635e-01
      2.92690635e-01 7.17572644e-02 2.05096573e-01 2.92690635e-01
      2.38090545e-01 2.92690635e-01 2.92690635e-01 2.82201976e-01
      2.42772177e-01 1.45490795e-01 2.13634327e-01 2.92690635e-01</_>
    <_>
      4.00833376e-02 2.80086920e-02 3.76750469e-01 2.57565349e-01
      6.87242448e-02 5.60802333e-02 3.76750469e-01 2.66522020e-01
      1.09447628e-01 1.17886281e-02 3.02961051e-01 3.76750469e-01
      3.76750469e-01 1.03789372e-02 1.86781868e-01 3.76750469e-01
      1.09817892e-01 6.62630275e-02 2.74126887e-01 3.62195730e-01
      3.62195730e-01 1.41313568e-01 4.26776409e-02 3.46983939e-01
      5.65998703e-02 1.90919504e-01 3.62195730e-01 2.41433039e-01
      3.62195730e-01 3.62195730e-01 7.29428306e-02 5.83361946e-02
      7.92642757e-02 1.14758961e-01 3.24340671e-01 2.45211765e-01
      3.81467342e-01 3.81467342e-01 5.77150732e-02 2.54262686e-02
      3.11401069e-01 5.68298325e-02 2.68581837e-01 3.49211425e-01
      3.81467342e-01 2.70629644e-01 2.42484435e-02 5.26088700e-02</_>
    <_>
      1.20140284e-01 1.79621130e-01 3.19767594e-01 3.19767594e-01
      1.85320139e-01 2.25086272e-01 2.73575425e-01 3.19767594e-01
      3.40433121e-02 2.53612220e-01 3.19767594e-01 3.19767594e-01
      2.16070451e-02 3.19767594e-01 3.19767594e-01 9.24784765e-02
      3.67119461e-02 1.45175636e-01 3.41275424e-01 3.41275424e-01
      3.50762345e-02 3.22309077e-01 3.41275424e-01 1.55615628e-01
      5.27423397e-02 1.05521105e-01 3.41275424e-01 3.41275424e-01
      1.08935244e-01 1.63586855e-01 3.41275424e-01 3.05743784e-01
      4.62662168e-02 1.82135478e-01 3.53241265e-01 3.53241265e-01
      1.66421548e-01 1.77101880e-01 3.53241265e-01 3.53241265e-01
      2.74058133e-02 2.15507120e-01 3.53241265e-01 1.51300639e-01
      3.36282104e-02 2.66463369e-01 3.53241265e-01 1.05827868e-01</_>
    <_>
      1.57821596e-01 3.85700166e-01 2.36049429e-01 1.16356332e-02
      3.69613379e-01 3.85700166e-01 3.55985314e-02 9.21807718e-03
      3.85700166e-01 2.26209447e-01 1.35708690e-01 9.56917778e-02
      3.85700166e-01 3.03746819e-01 1.03519512e-02 1.06046997e-01
      3.84067267e-01 1.59233019e-01 8.93979706e-03 7.12967664e-02
      3.84067267e-01 8.15654323e-02 2.10675970e-03 1.73062876e-01
      3.84067267e-01 3.84067267e-01 9.30809416e-03 2.72215772e-02
      3.84067267e-01 3.84067267e-01 1.60280302e-01 1.32185578e-01
      3.28704089e-01 3.91061366e-01 5.11805490e-02 4.60078865e-02
      2.37412587e-01 3.91061366e-01 3.91061366e-01 2.85703186e-02
      1.01837501e-01 2.51900673e-01 7.51247332e-02 1.85544595e-01
      1.22284032e-01 3.91061366e-01 2.87998855e-01 5.12042530e-02</_>
    <_>
      4.56967093e-02 2.00631171e-01 3.64783257e-01 1.03191547e-01
      2.23023295e-01 3.64783257e-01 3.58991921e-01 3.19648162e-02
      1.32592812e-01 2.00843647e-01 3.64783257e-01 1.24811247e-01
      3.64783257e-01 3.64783257e-01 1.53584212e-01 3.62003520e-02
      9.61486548e-02 3.12672079e-01 3.41998398e-01 1.05876923e-01
      2.60771126e-01 3.41998398e-01 7.12618083e-02 1.82889700e-02
      2.09476531e-01 3.41998398e-01 3.41998398e-01 2.59510934e-01
      2.99151182e-01 3.41998398e-01 8.16553533e-02 1.12918518e-01
      3.15281600e-01 1.43852860e-01 1.37335032e-01 3.15281600e-01
      3.15281600e-01 2.65040427e-01 2.74187159e-02 3.15281600e-01
      3.15281600e-01 3.15281600e-01 1.06535688e-01 2.30984226e-01
      3.15281600e-01 1.60900727e-01 2.20119115e-02 3.15281600e-01</_>
    <_>
      3.00509572e-01 1.12332679e-01 2.70559460e-01 1.46132201e-01
      3.00509572e-01 1.05413444e-01 1.49541616e-01 2.73086518e-01
      3.00509572e-01 3.00509572e-01 3.00509572e-01 1.24399967e-01
      3.00509572e-01 2.87254810e-01 3.00509572e-01 2.27239877e-01
      3.08206499e-01 3.08206499e-01 3.08206499e-01 8.39125440e-02
      3.08206499e-01 3.08206499e-01 3.05527300e-01 7.41860569e-02
      3.08206499e-01 3.08206499e-01 1.66124389e-01 6.99803010e-02
      3.08206499e-01 3.08206499e-01 5.86334132e-02 1.32222548e-02
      3.94077748e-01 3.45786065e-01 1.26125857e-01 7.11133927e-02
      3.94077748e-01 2.80859500e-01 2.87192501e-02 1.20126940e-02
      3.94077748e-01 3.25145334e-01 3.61541137e-02 3.60278003e-02
      3.94077748e-01 2.14023530e-01 1.29395518e-02 1.38530321e-02</_>
    <_>
      1.83449592e-02 7.87143111e-02 3.74330252e-01 9.58727524e-02
      3.60621244e-01 2.71912277e-01 3.74330252e-01 3.14783789e-02
      1.38599172e-01 1.27161637e-01 3.74330252e-01 8.83003622e-02
      3.74330252e-01 3.74330252e-01 1.75768450e-01 2.95680389e-02
      3.03869337e-01 1.26365423e-01 2.64610440e-01 6.12796284e-02
      3.90540063e-01 3.90540063e-01 2.96569970e-02 1.58165395e-02
      3.90540063e-01 1.95930764e-01 5.67604564e-02 9.13473964e-02
      3.90540063e-01 3.90540063e-01 7.21264584e-03 1.65882558e-02
      3.65082473e-01 2.27074787e-01 8.04436393e-03 1.01192489e-01
      3.65082473e-01 3.65082473e-01 5.61383727e-04 1.79832838e-02
      3.65082473e-01 3.65082473e-01 5.21704135e-03 3.19366157e-02
      3.65082473e-01 3.65082473e-01 2.14785558e-08 1.08342152e-02</_>
    <_>
      3.16680044e-01 3.16680044e-01 1.83984458e-01 2.25859389e-01
      1.50260508e-01 3.16680044e-01 1.02715313e-01 2.81924397e-01
      2.05326006e-01 3.16680044e-01 2.69028515e-01 1.77990898e-01
      2.44683951e-01 3.16680044e-01 1.74834013e-01 2.47545242e-01
      3.03548217e-01 3.02005857e-01 1.57166824e-01 2.43838966e-01
      3.03548217e-01 3.03548217e-01 6.74075633e-02 1.84099168e-01
      3.03548217e-01 3.03548217e-01 7.68683702e-02 3.03548217e-01
      3.03548217e-01 1.79776117e-01 1.06676176e-01 2.97599524e-01
      2.93008149e-01 2.93008149e-01 5.47321700e-02 2.93008149e-01
      2.93008149e-01 2.93008149e-01 2.70191640e-01 2.15603679e-01
      9.33948904e-02 2.93008149e-01 7.55264759e-02 2.93008149e-01
      4.02922630e-02 2.93008149e-01 2.93008149e-01 2.93008149e-01</_>
    <_>
      3.29435647e-01 3.31554860e-01 2.62224562e-02 3.01306129e-01
      2.48715296e-01 3.31554860e-01 1.45605326e-01 5.10790646e-02
      3.07737738e-01 1.35625809e-01 9.87298042e-02 2.95802146e-01
      3.31554860e-01 2.82765448e-01 3.90087925e-02 2.99014777e-01
      3.03427875e-01 3.02903950e-01 1.54855013e-01 8.25533122e-02
      3.09248865e-01 1.09245032e-01 6.03207685e-02 2.72919625e-01
      3.09248865e-01 3.09248865e-01 2.05515146e-01 1.07410967e-01
      3.09248865e-01 2.70098180e-01 3.09248865e-01 2.95527458e-01
      3.33365649e-01 3.16594958e-01 2.33525231e-01 1.36337996e-01
      1.66655123e-01 1.85377359e-01 3.33365649e-01 1.43881977e-01
      1.89540938e-01 3.33365649e-01 3.33365649e-01 8.25873911e-02
      1.67381838e-01 3.33365649e-01 3.33365649e-01 5.39894924e-02</_>
    <_>
      3.59801501e-01 6.94422191e-03 1.08446339e-02 3.59801501e-01
      3.59801501e-01 1.88880451e-02 1.00932661e-02 3.59801501e-01
      3.59801501e-01 5.64097501e-02 1.08120918e-01 3.59801501e-01
      2.33310416e-01 2.96016447e-02 1.39279336e-01 3.59801501e-01
      1.04585275e-01 2.04123810e-01 3.09175104e-01 3.09175104e-01
      1.41716897e-01 1.13254361e-01 3.09175104e-01 3.09175104e-01
      1.08511232e-01 3.09175104e-01 3.09175104e-01 2.20411688e-01
      2.36035675e-01 2.52598435e-01 2.49792755e-01 3.09175104e-01
      1.58062205e-01 3.05129945e-01 2.82000154e-01 8.86662900e-02
      1.79660618e-01 3.05129945e-01 1.84195086e-01 1.51141569e-01
      2.78768182e-01 3.05129945e-01 3.05129945e-01 3.05129945e-01
      2.19593987e-01 3.05129945e-01 3.05129945e-01 1.33674026e-01</_>
    <_>
      1.66061148e-01 1.74094830e-02 2.90709853e-01 3.35767001e-01
      3.35767001e-01 1.52046727e-02 1.21095203e-01 3.35767001e-01
      3.35767001e-01 1.96281582e-01 2.82193035e-01 1.40109777e-01
      3.35767001e-01 1.17651828e-01 2.03197941e-01 3.35767001e-01
      2.46481314e-01 3.34298998e-01 2.30389386e-01 2.91501377e-02
      2.42188781e-01 3.34298998e-01 3.34298998e-01 1.55851483e-01
      2.56613884e-02 3.34298998e-01 3.34298998e-01 1.14392079e-01
      2.02144627e-02 3.34298998e-01 3.34298998e-01 5.08859381e-02
      3.47617231e-02 3.18259209e-01 3.18259209e-01 3.18259209e-01
      1.04963250e-01 3.18259209e-01 3.18259209e-01 2.08307043e-01
      9.27412435e-02 1.41339406e-01 2.40871400e-01 3.18259209e-01
      3.18259209e-01 2.47160718e-01 1.11648694e-01 2.68383026e-01</_>
    <_>
      2.32701436e-01 1.67701349e-01 1.30827025e-01 1.05766162e-01
      3.59083831e-01 2.80423254e-01 3.38291824e-02 4.40904088e-02
      1.42082900e-01 3.59083831e-01 3.59083831e-01 1.94058582e-01
      3.56117904e-01 3.59083831e-01 3.10153931e-01 8.65133256e-02
      1.49160266e-01 2.70187765e-01 2.89900959e-01 2.89900959e-01
      1.43566102e-01 2.89900959e-01 2.89900959e-01 2.01575786e-01
      1.33196592e-01 2.14909226e-01 2.89900959e-01 2.89900959e-01
      2.89900959e-01 2.58844674e-01 2.89900959e-01 1.93236902e-01
      3.09106052e-01 1.08830005e-01 2.67914623e-01 3.09118718e-01
      3.09118718e-01 1.20305195e-01 9.96024534e-02 2.38983527e-01
      3.09118718e-01 3.09118718e-01 1.76406741e-01 2.77647555e-01
      3.09118718e-01 3.09118718e-01 6.76770136e-02 2.23878086e-01</_>
    <_>
      2.44913865e-02 5.92276305e-02 3.11885476e-01 3.11885476e-01
      3.11885476e-01 3.11885476e-01 2.50711113e-01 1.63541868e-01
      7.83611536e-02 5.01268655e-02 3.11885476e-01 3.11885476e-01
      3.11885476e-01 3.11885476e-01 1.66957647e-01 2.97431409e-01
      1.37280881e-01 1.57584667e-01 3.12396377e-01 3.15258026e-01
      3.15258026e-01 2.02066734e-01 3.89488116e-02 2.89206773e-01
      2.92345524e-01 2.52140611e-01 2.28333771e-01 3.15258026e-01
      3.15258026e-01 3.15258026e-01 2.51981057e-02 1.75614968e-01
      1.44494697e-01 1.39697343e-01 1.21236384e-01 3.83402318e-01
      2.98225999e-01 3.83402318e-01 8.03334266e-02 2.73057133e-01
      1.35321155e-01 2.75379606e-02 7.88063854e-02 3.83402318e-01
      1.23698734e-01 3.57827932e-01 1.20468453e-01 3.83402318e-01</_>
    <_>
      1.08965211e-01 3.00955296e-01 3.00955296e-01 3.00955296e-01
      8.59441012e-02 2.49449149e-01 2.43183881e-01 3.00381988e-01
      1.86218068e-01 3.00955296e-01 1.65228203e-01 3.00955296e-01
      2.07275778e-01 3.00955296e-01 1.64866194e-01 3.00955296e-01
      1.90063611e-01 3.17843169e-01 1.20853499e-01 1.69556335e-01
      2.24474996e-01 3.17843169e-01 2.47587472e-01 3.16978782e-01
      2.33345464e-01 3.17843169e-01 1.40010059e-01 1.69927835e-01
      3.17843169e-01 3.17843169e-01 2.60880411e-01 1.70506522e-01
      2.73343712e-01 3.04396749e-01 2.02560440e-01 2.48718575e-01
      2.15626016e-01 3.04396749e-01 3.04396749e-01 1.17870159e-01
      2.10180447e-01 1.53258026e-01 1.80289537e-01 3.04396749e-01
      2.42359698e-01 3.04396749e-01 2.10027009e-01 3.04396749e-01</_>
    <_>
      1.23436779e-01 5.91025017e-02 3.52904260e-01 3.00228626e-01
      2.46526569e-01 1.01876684e-01 3.52904260e-01 2.16749042e-01
      8.48156065e-02 5.15429042e-02 3.52904260e-01 3.38762701e-01
      3.11251402e-01 1.04693435e-01 2.67150134e-01 3.03365737e-01
      2.84935772e-01 7.23650232e-02 3.27536345e-01 3.06410164e-01
      3.27536345e-01 7.39069730e-02 8.07895511e-02 3.01237196e-01
      3.27536345e-01 1.52079195e-01 2.67686844e-01 2.68484771e-01
      3.27536345e-01 8.92921761e-02 4.93994094e-02 3.27536345e-01
      3.19210708e-01 3.19210708e-01 1.27232358e-01 1.52219519e-01
      3.19210708e-01 3.19210708e-01 2.62284309e-01 3.19210708e-01
      2.31724963e-01 3.19210708e-01 1.14098482e-01 5.05412109e-02
      1.15246251e-01 3.19210708e-01 3.03040475e-01 3.17143388e-02</_>
    <_>
      3.07960480e-01 2.94839501e-01 3.07960480e-01 2.99087334e-02
      3.07960480e-01 1.96147546e-01 1.79053918e-01 1.47701249e-01
      3.07960480e-01 3.07960480e-01 3.07960480e-01 3.39881219e-02
      1.98216110e-01 3.07960480e-01 3.07960480e-01 1.32612854e-01
      2.71896213e-01 2.83141911e-01 2.79728174e-01 1.00654870e-01
      1.99596569e-01 2.83141911e-01 2.83141911e-01 1.92264900e-01
      1.71833098e-01 2.83141911e-01 2.13894740e-01 2.34045282e-01
      2.83141911e-01 2.83141911e-01 2.58493811e-01 2.83141911e-01
      6.95769340e-02 3.33708048e-01 1.71204433e-01 2.71563500e-01
      2.93594539e-01 3.33708048e-01 1.67259008e-01 1.41418591e-01
      5.88811561e-02 2.60906756e-01 2.12653920e-01 3.33708048e-01
      1.45745307e-01 3.33708048e-01 2.89424568e-01 2.95602739e-01</_>
    <_>
      3.27605009e-01 7.83033371e-02 2.19332442e-01 3.27605009e-01
      5.91037236e-02 1.81132238e-02 3.02904338e-01 3.27605009e-01
      1.32011712e-01 2.40130141e-01 3.27605009e-01 3.24995309e-01
      1.08026028e-01 1.02881700e-01 3.27605009e-01 3.27605009e-01
      5.20199351e-02 3.17945421e-01 3.17945421e-01 2.15688065e-01
      2.44621471e-01 1.71175778e-01 3.17945421e-01 3.17945421e-01
      2.01022834e-01 3.17945421e-01 1.80379525e-01 1.41867787e-01
      1.78540885e-01 1.86324269e-01 3.17945421e-01 3.03730428e-01
      3.36140960e-01 2.34715715e-01 5.49047925e-02 3.32833618e-01
      1.43332809e-01 1.06661424e-01 3.22328776e-01 3.10011566e-01
      3.35088909e-01 2.23744977e-02 1.37212783e-01 3.36140960e-01
      3.28602761e-01 1.46252764e-02 1.30593836e-01 3.36140960e-01</_>
    <_>
      8.19143951e-02 5.58747686e-02 1.27749950e-01 4.30597931e-01
      7.37382025e-02 4.30597931e-01 1.39697731e-01 4.30597931e-01
      6.73884302e-02 5.59845765e-04 6.62509128e-02 4.30597931e-01
      6.58844933e-02 4.10083346e-02 5.06747887e-02 4.30597931e-01
      8.44080821e-02 5.02259657e-03 1.23174340e-01 4.86501932e-01
      1.00198947e-01 1.55168073e-03 1.08335473e-01 4.86501932e-01
      2.76016831e-01 2.33581141e-02 5.77280074e-02 3.07880998e-01
      1.95279405e-01 5.77119226e-03 1.67231411e-01 4.86501932e-01
      3.45029414e-01 4.11596522e-02 4.63725105e-02 1.39562026e-01
      1.63744077e-01 9.26984567e-03 4.00942892e-01 4.00942892e-01
      1.58448890e-01 3.16719532e-01 3.47655445e-01 6.38726950e-02
      4.47580554e-02 5.88938668e-02 4.00942892e-01 2.97708839e-01</_>
    <_>
      2.55900890e-01 2.91668564e-01 1.19873658e-01 2.91668564e-01
      2.91668564e-01 2.91668564e-01 1.51225701e-01 2.91668564e-01
      2.68529654e-01 2.91668564e-01 5.61831780e-02 2.74157405e-01
      2.51788199e-01 2.91668564e-01 1.94353685e-01 2.17416137e-01
      3.07937235e-01 3.07937235e-01 1.24548890e-01 2.63816535e-01
      1.90873429e-01 3.07937235e-01 3.07937235e-01 1.94604307e-01
      3.07937235e-01 3.07937235e-01 1.66576996e-01 1.23142913e-01
      2.75653958e-01 3.07937235e-01 1.80237293e-01 1.49492353e-01
      2.53234744e-01 2.96818912e-01 1.79385781e-01 1.22541018e-01
      2.35667929e-01 3.21018577e-01 2.14380279e-01 1.12827033e-01
      1.19762965e-01 3.21018577e-01 3.21018577e-01 1.68376788e-01
      2.68850952e-01 3.21018577e-01 3.21018577e-01 2.29999691e-01</_>
    <_>
      1.89907759e-01 2.78796285e-01 3.00940603e-01 3.00940603e-01
      1.08579710e-01 3.00940603e-01 3.00940603e-01 3.00940603e-01
      1.38607591e-01 1.57108918e-01 3.00940603e-01 3.00940603e-01
      7.57291541e-02 8.18147212e-02 3.00940603e-01 3.00940603e-01
      5.00522815e-02 7.16710836e-02 3.40914547e-01 3.40914547e-01
      6.16952740e-02 3.98043059e-02 3.40914547e-01 3.40914547e-01
      3.14288400e-02 4.98260148e-02 3.40914547e-01 3.40914547e-01
      2.05617547e-01 8.96113738e-02 3.40914547e-01 3.40914547e-01
      6.39952123e-02 1.43217489e-01 3.41103405e-01 1.14385828e-01
      3.41103405e-01 1.37098059e-01 3.41103405e-01 2.35579818e-01
      3.15951139e-01 3.00837368e-01 3.41103405e-01 5.20502105e-02
      3.41103405e-01 2.77244270e-01 1.15515418e-01 1.40015095e-01</_>
    <_>
      4.15688567e-02 3.19037825e-01 3.19037825e-01 2.51787752e-01
      5.70965670e-02 3.19037825e-01 3.19037825e-01 1.56866595e-01
      6.42232746e-02 3.19037825e-01 3.19037825e-01 3.19037825e-01
      1.18181303e-01 3.19037825e-01 1.87519535e-01 1.90483615e-01
      4.63760421e-02 3.27457219e-01 2.72690177e-01 3.27457219e-01
      1.19756244e-01 3.27457219e-01 1.12145931e-01 2.59558856e-01
      2.72141900e-02 2.21064508e-01 2.80368388e-01 3.27457219e-01
      1.19420059e-01 3.27457219e-01 2.00203374e-01 3.27457219e-01
      9.47786588e-03 1.24042332e-01 2.51234710e-01 3.55410039e-01
      6.15342408e-02 3.55410039e-01 2.63414145e-01 3.55410039e-01
      2.86758356e-02 1.16516218e-01 2.09115177e-01 3.55410039e-01
      2.49892399e-02 2.34117597e-01 3.15493137e-01 3.55410039e-01</_>
    <_>
      3.42435986e-01 3.06357771e-01 1.03569932e-01 1.54054323e-02
      2.34547690e-01 2.25643799e-01 3.42435986e-01 5.04190428e-03
      3.42435986e-01 2.27156952e-01 3.42435986e-01 2.30225306e-02
      1.97588176e-01 3.28242898e-01 3.42435986e-01 2.40723956e-02
      2.93058187e-01 3.14142376e-01 3.14142376e-01 2.68079098e-02
      2.72767961e-01 2.40471795e-01 3.14142376e-01 1.09714456e-01
      1.75283238e-01 3.14142376e-01 3.14142376e-01 2.81764176e-02
      1.66874245e-01 3.14142376e-01 3.14142376e-01 1.25816390e-01
      7.21956640e-02 3.81541580e-01 3.81541580e-01 5.84619157e-02
      1.06629789e-01 3.81541580e-01 3.81541580e-01 1.12496898e-01
      4.80484031e-02 3.81541580e-01 1.07237093e-01 6.36231378e-02
      2.04031512e-01 3.81541580e-01 1.60174042e-01 7.03427717e-02</_>
    <_>
      3.35172862e-01 1.25771448e-01 3.03905308e-02 8.46756101e-02
      3.35172862e-01 6.07766211e-02 3.75564247e-02 3.35172862e-01
      3.35172862e-01 3.35172862e-01 1.51262537e-01 7.73249865e-02
      3.35172862e-01 3.35172862e-01 2.00121537e-01 3.35172862e-01
      1.74167842e-01 3.33330244e-01 2.64778525e-01 1.17905021e-01
      1.06994860e-01 3.33330244e-01 1.92523435e-01 8.77506584e-02
      3.23420674e-01 3.33330244e-01 3.33330244e-01 2.19991177e-01
      3.33330244e-01 3.33330244e-01 7.41299987e-02 3.10781449e-02
      3.00466865e-01 2.09305122e-01 1.59494877e-01 2.87631571e-01
      3.00466865e-01 3.00466865e-01 1.40745090e-02 1.45970404e-01
      3.00466865e-01 3.00466865e-01 7.56667927e-02 3.00466865e-01
      3.00466865e-01 3.00466865e-01 1.13733798e-01 2.87418634e-01</_>
    <_>
      2.51052409e-01 1.32544413e-01 1.32915318e-01 3.23576093e-01
      1.89287499e-01 2.29562655e-01 3.23576093e-01 2.37563908e-01
      2.18703672e-01 1.97778642e-01 3.23576093e-01 3.23576093e-01
      1.29472315e-01 1.47037297e-01 3.23576093e-01 3.23576093e-01
      1.71842679e-01 1.73415780e-01 2.77006447e-01 2.82754809e-01
      1.25966370e-01 6.01766370e-02 3.08747977e-01 3.08747977e-01
      1.81344241e-01 3.08747977e-01 3.05268794e-01 1.80928975e-01
      2.17186198e-01 2.80239016e-01 3.08747977e-01 3.08747977e-01
      1.60190299e-01 2.96345532e-01 2.06737399e-01 1.10199012e-01
      1.55632854e-01 2.96345532e-01 2.96345532e-01 2.96345532e-01
      2.96345532e-01 1.94862247e-01 2.82009751e-01 2.96345532e-01
      1.85171381e-01 2.26472601e-01 2.96345532e-01 2.72852212e-01</_>
    <_>
      7.55232126e-02 2.28026450e-01 3.38019401e-01 3.75492987e-03
      3.38019401e-01 3.38019401e-01 2.38540769e-01 3.69147304e-03
      2.91656137e-01 3.38019401e-01 3.26477557e-01 4.01171334e-02
      3.38019401e-01 3.38019401e-01 5.64380698e-02 2.28077825e-03
      2.97611684e-01 3.24735403e-01 1.04146339e-01 1.53058693e-01
      3.42018425e-01 3.42018425e-01 6.30422775e-03 4.23557078e-03
      3.42018425e-01 2.47190058e-01 5.48854321e-02 3.42018425e-01
      3.42018425e-01 3.42018425e-01 1.64613090e-02 4.44951281e-02
      1.76725745e-01 1.34537384e-01 4.30499427e-02 4.12579626e-01
      2.63348758e-01 4.12579626e-01 6.86057210e-02 2.08547100e-01
      3.85792255e-02 3.52295600e-02 6.71874136e-02 4.12579626e-01
      3.34388092e-02 3.33772868e-01 1.62750229e-01 4.12579626e-01</_>
    <_>
      7.02935010e-02 3.02027166e-01 3.02027166e-01 3.02027166e-01
      1.52437672e-01 2.32201129e-01 3.02027166e-01 3.02027166e-01
      8.83307755e-02 3.02027166e-01 2.03882828e-01 3.02027166e-01
      1.19934790e-01 2.19843909e-01 2.70253241e-01 3.02027166e-01
      1.13967180e-01 3.32014889e-01 1.23109214e-01 1.95768625e-01
      1.22418679e-01 2.62888014e-01 3.32014889e-01 3.32014889e-01
      2.63630390e-01 3.32014889e-01 8.54828209e-02 1.06174424e-01
      2.22308278e-01 2.17280895e-01 3.32014889e-01 3.32014889e-01
      3.06666225e-01 3.20273846e-01 3.81174050e-02 8.27666298e-02
      2.35964179e-01 3.20273846e-01 2.83649594e-01 3.20273846e-01
      1.59898430e-01 3.20273846e-01 1.41433194e-01 7.09192827e-02
      1.09313808e-01 3.20273846e-01 3.20273846e-01 2.83397824e-01</_>
    <_>
      2.99953282e-01 1.01179525e-01 3.12803417e-01 3.12803417e-01
      1.30530685e-01 1.16352089e-01 2.63066769e-01 1.26362428e-01
      2.47983128e-01 1.16456836e-01 3.12803417e-01 3.12803417e-01
      3.12803417e-01 2.06811309e-01 2.84144431e-01 3.05157095e-01
      2.15154558e-01 7.85697475e-02 2.24824488e-01 3.03327590e-01
      3.03327590e-01 2.80598938e-01 1.62668556e-01 3.03327590e-01
      1.68523073e-01 2.22286358e-01 1.76102892e-01 1.89432010e-01
      3.03327590e-01 3.03327590e-01 3.03327590e-01 3.03327590e-01
      1.82052702e-01 2.00427055e-01 1.73939288e-01 1.28403470e-01
      2.91754782e-01 2.91754782e-01 2.91754782e-01 2.88141578e-01
      2.91754782e-01 2.77195841e-01 1.45253628e-01 1.22880548e-01
      2.91754782e-01 2.91754782e-01 2.91754782e-01 2.91754782e-01</_>
    <_>
      4.71399724e-02 1.18008159e-01 3.10842961e-01 1.87217548e-01
      1.17170885e-01 2.80283123e-01 3.10842961e-01 2.25253060e-01
      2.49081239e-01 1.75696984e-01 3.10842961e-01 3.10842961e-01
      2.82522619e-01 2.24051148e-01 3.10842961e-01 3.10842961e-01
      2.65619099e-01 1.33189678e-01 2.37417057e-01 2.84090281e-01
      2.47301415e-01 1.01559266e-01 2.84090281e-01 2.84090281e-01
      2.84090281e-01 2.14481562e-01 2.84090281e-01 2.84090281e-01
      2.84090281e-01 9.30647105e-02 2.84090281e-01 2.84090281e-01
      2.86584735e-01 3.21422786e-01 1.77402213e-01 3.21422786e-01
      2.83035368e-01 8.62772614e-02 1.72678337e-01 3.21422786e-01
      2.39374042e-01 3.21422786e-01 1.59034595e-01 2.08062544e-01
      6.76346347e-02 1.24432229e-01 3.21422786e-01 3.21422786e-01</_>
    <_>
      2.81930494e-04 1.66349746e-02 3.83887112e-01 2.77473658e-01
      7.58906603e-02 6.24717260e-03 3.83887112e-01 3.14775467e-01
      1.17976377e-02 9.38611012e-03 3.83887112e-01 3.83887112e-01
      1.88503802e-01 1.45848421e-02 2.02963248e-01 3.83887112e-01
      4.45026904e-02 1.30203343e-03 1.42667383e-01 4.19921309e-01
      2.83817530e-01 7.83525221e-03 4.21047956e-02 4.19921309e-01
      5.34743890e-02 0. 7.55518079e-02 4.19921309e-01 4.19921309e-01
      3.16508324e-03 2.89005917e-02 4.19921309e-01 3.67031470e-02 0.
      1.63007319e-01 3.83439928e-01 3.83439928e-01 7.54563464e-03
      4.94138859e-02 3.83439928e-01 1.51070088e-01 5.53839654e-03
      2.65830487e-01 3.83439928e-01 3.83439928e-01 3.58145721e-02
      4.46397513e-02 3.65823954e-01</_>
    <_>
      1.85582712e-01 6.31494401e-03 3.19238931e-01 3.19238931e-01
      3.19238931e-01 3.46081331e-02 2.91998446e-01 2.66750932e-01
      3.19238931e-01 5.39408997e-02 3.19238931e-01 3.19238931e-01
      3.19238931e-01 1.11017585e-01 1.94372788e-01 1.95710614e-01
      3.24394941e-01 1.16070546e-01 3.24394941e-01 2.53376573e-01
      3.24394941e-01 1.50363356e-01 6.07301369e-02 1.10851519e-01
      3.24394941e-01 3.24394941e-01 3.24394941e-01 1.46191686e-01
      3.24394941e-01 3.24394941e-01 1.08271919e-01 7.44970590e-02
      3.29416037e-01 3.29416037e-01 2.49523297e-01 7.17372447e-02
      3.29416037e-01 3.29416037e-01 1.21327288e-01 1.70060303e-02
      3.29416037e-01 3.29416037e-01 6.08554408e-02 1.99188039e-01
      3.29416037e-01 3.29416037e-01 4.49589901e-02 2.77665984e-02</_>
    <_>
      4.13296707e-02 2.98173249e-01 3.51303488e-01 1.98569391e-02
      1.07539222e-01 3.51303488e-01 3.51303488e-01 5.53842587e-03
      4.99060750e-02 3.51303488e-01 3.51303488e-01 1.58503324e-01
      1.15089118e-01 3.51303488e-01 3.34387600e-01 2.69396603e-02
      1.75880298e-01 1.69065565e-01 3.04297239e-01 2.95695037e-01
      1.96017638e-01 3.04297239e-01 1.48024559e-01 2.42588967e-01
      3.04297239e-01 1.70144066e-01 2.84925938e-01 3.04297239e-01
      3.04297239e-01 1.89826086e-01 1.70518741e-01 3.04297239e-01
      3.19270492e-01 1.97778046e-01 1.18045233e-01 2.25893855e-01
      3.19270492e-01 1.10375047e-01 1.05788745e-01 3.19270492e-01
      3.19270492e-01 3.19270492e-01 5.96126430e-02 1.74118146e-01
      3.19270492e-01 3.19270492e-01 1.50793344e-01 3.14979315e-01</_>
    <_>
      8.40417854e-03 2.09335500e-04 3.59573394e-01 3.59573394e-01
      1.23877041e-02 2.94673210e-03 3.01792800e-01 3.59573394e-01
      1.68115238e-03 5.37241250e-03 3.59573394e-01 3.59573394e-01
      3.02898115e-04 3.60300089e-03 3.59573394e-01 3.59573394e-01
      5.26697149e-05 1.85130853e-02 4.33998555e-01 3.65267813e-01 0.
      4.21387050e-03 4.33998555e-01 2.98179567e-01 0. 5.73734976e-02
      4.33998555e-01 8.37771520e-02 0. 2.02835593e-02 4.33998555e-01
      9.39787924e-02 0. 1.97312653e-01 4.29608673e-01 1.99502632e-02 0.
      9.54704881e-02 4.29608673e-01 2.78535206e-02 8.35454615e-04
      3.64948899e-01 4.29608673e-01 8.00447445e-03 7.99595099e-03
      2.73641884e-01 4.29608673e-01 6.08398253e-03</_>
    <_>
      2.36811209e-02 6.03297427e-02 3.21527839e-01 3.21527839e-01
      3.03148896e-01 3.21527839e-01 1.88041285e-01 1.39364287e-01
      1.05081778e-02 4.71112430e-02 3.21527839e-01 3.21527839e-01
      2.40899473e-01 3.21527839e-01 2.48761311e-01 3.21527839e-01
      1.20341396e-02 9.05108359e-03 3.20348710e-01 3.20348710e-01
      3.09170693e-01 2.50960827e-01 2.34315470e-01 3.20348710e-01
      1.08664975e-01 2.40713893e-03 3.20348710e-01 3.20348710e-01
      3.20348710e-01 8.23404640e-02 2.14811027e-01 3.20348710e-01
      2.24492341e-01 7.15169171e-03 2.37905100e-01 3.82132024e-01
      3.82132024e-01 1.27192497e-01 6.52558208e-02 3.41104805e-01
      1.81913018e-01 1.04189087e-02 5.11221476e-02 3.82132024e-01
      3.01264375e-01 2.00788289e-01 3.68351825e-02 3.82132024e-01</_>
    <_>
      6.04130030e-02 2.05565318e-01 3.51487249e-01 8.64114836e-02
      3.09179485e-01 3.64079028e-01 8.93444046e-02 3.20463330e-02
      4.61992957e-02 3.43642652e-01 3.64079028e-01 2.02896163e-01
      1.54140159e-01 3.64079028e-01 3.57254952e-01 6.63454831e-02
      1.48818314e-01 1.16396621e-01 2.75074959e-01 2.33917013e-01
      2.41069674e-01 2.75074959e-01 2.14235306e-01 2.68638045e-01
      2.49588534e-01 2.51071632e-01 2.75074959e-01 2.75074959e-01
      2.75074959e-01 2.75074959e-01 2.75074959e-01 2.75074959e-01
      1.92196995e-01 2.02995420e-01 2.85983592e-01 3.05171460e-01
      3.05171460e-01 3.05171460e-01 3.05171460e-01 2.66120017e-01
      3.05171460e-01 4.80767265e-02 8.26868340e-02 3.05171460e-01
      3.05171460e-01 1.00495718e-01 4.37322035e-02 3.05171460e-01</_>
    <_>
      1.73500746e-01 2.10131422e-01 3.04381639e-01 7.40042180e-02
      3.04381639e-01 2.37464264e-01 3.04381639e-01 1.43994153e-01
      3.04381639e-01 3.04381639e-01 3.04381639e-01 1.31038800e-01
      3.04381639e-01 3.04381639e-01 2.47262061e-01 1.43545687e-01
      2.88400352e-01 2.88400352e-01 2.58043468e-01 1.91221148e-01
      2.88400352e-01 2.88400352e-01 2.37536088e-01 1.71064228e-01
      2.88400352e-01 2.88400352e-01 2.02789113e-01 1.79293409e-01
      2.88400352e-01 2.88400352e-01 1.70094326e-01 2.01693088e-01
      2.91054219e-01 2.83903837e-01 9.19587687e-02 2.06211448e-01
      2.91054219e-01 2.57363707e-01 9.22089592e-02 1.57872468e-01
      2.91054219e-01 2.91054219e-01 2.31388882e-01 2.91054219e-01
      2.91054219e-01 2.91054219e-01 2.16606930e-01 2.69074410e-01</_>
    <_>
      3.00996959e-01 3.00996959e-01 7.98759162e-02 1.36084780e-01
      1.39103904e-01 3.00996959e-01 2.11147994e-01 1.77510083e-01
      3.00996959e-01 3.00996959e-01 3.00996959e-01 2.33794823e-01
      1.73434526e-01 3.00996959e-01 3.00996959e-01 2.59069413e-01
      2.23097339e-01 2.88909227e-01 2.88909227e-01 1.00539766e-01
      1.71100378e-01 2.88909227e-01 2.88909227e-01 9.45008919e-02
      2.88909227e-01 2.64291912e-01 2.88909227e-01 2.82302260e-01
      2.88909227e-01 2.88909227e-01 2.25790590e-01 1.75362304e-01
      2.58874208e-01 2.52207994e-01 2.58874208e-01 2.58874208e-01
      2.58874208e-01 2.48237938e-01 2.58874208e-01 2.58874208e-01
      1.73837051e-01 2.26234138e-01 2.58874208e-01 2.58874208e-01
      2.58874208e-01 2.58874208e-01 2.58874208e-01 2.31530696e-01</_>
    <_>
      3.25120866e-01 3.25120866e-01 1.27343670e-01 2.26766635e-02
      1.34257182e-01 3.25120866e-01 3.25120866e-01 2.14660808e-01
      2.74592012e-01 3.25120866e-01 3.08618277e-01 9.49500944e-04
      6.45350590e-02 3.25120866e-01 3.25120866e-01 3.43503803e-02
      1.82275072e-01 3.30090165e-01 1.63464323e-01 3.78484242e-02
      1.29750907e-01 3.30090165e-01 2.24323571e-01 2.93850023e-02
      3.30090165e-01 3.30090165e-01 1.48440730e-02 3.30090165e-01
      3.30090165e-01 2.98750699e-01 1.22945681e-01 3.30090165e-01
      3.89803886e-01 7.35530555e-02 1.23236394e-02 3.89803886e-01
      3.89803886e-01 7.10308552e-02 4.55073416e-02 3.89803886e-01
      1.76738992e-01 9.08529982e-02 8.41491222e-02 3.06007981e-01
      2.64354914e-01 8.91985074e-02 7.50964731e-02 3.89803886e-01</_>
    <_>
      2.10834250e-01 3.85883003e-02 1.86093420e-01 3.92151594e-01
      3.92151594e-01 1.68341532e-01 5.36338985e-02 1.91872761e-01
      3.92151594e-01 1.88330621e-01 2.93933868e-01 7.71051869e-02
      3.92151594e-01 3.13550740e-01 5.46535626e-02 5.68987392e-02
      2.51146168e-01 3.68288338e-01 1.05716012e-01 6.97569747e-04
      3.68288338e-01 3.68288338e-01 1.25406563e-01 2.05639587e-03
      7.09556192e-02 3.68288338e-01 2.86806315e-01 1.88797072e-03
      7.22827166e-02 3.68288338e-01 3.68288338e-01 1.16792289e-04
      1.09234154e-02 3.63185257e-01 3.63185257e-01 4.73353676e-02
      2.90919328e-03 3.63185257e-01 3.63185257e-01 1.58016644e-02
      2.04733033e-02 1.18695617e-01 3.63185257e-01 1.37915775e-01
      1.19282506e-01 3.63185257e-01 3.63185257e-01 1.50571153e-01</_>
    <_>
      2.54265666e-02 3.86290878e-01 3.86290878e-01 2.02885401e-02
      1.54715151e-01 3.86290878e-01 9.23868492e-02 5.96451573e-02
      5.97100332e-02 3.86290878e-01 3.86290878e-01 2.34356765e-02
      1.69046581e-01 3.86290878e-01 1.75881997e-01 1.01680327e-02
      2.87136942e-01 2.62172312e-01 2.28366628e-01 5.33658825e-02
      3.92313719e-01 3.92313719e-01 6.08775355e-02 5.48287816e-02
      3.92313719e-01 4.53739353e-02 3.99267897e-02 1.37308076e-01
      3.92313719e-01 5.34631014e-02 2.44048238e-03 3.77062887e-01
      3.64245743e-01 9.90307182e-02 1.83721643e-03 8.92209113e-02
      3.64245743e-01 3.26244421e-02 2.35079136e-02 3.64245743e-01
      3.64245743e-01 3.64245743e-01 1.14320330e-02 3.54987122e-02
      3.64245743e-01 2.35687226e-01 2.34289765e-01 2.62853980e-01</_>
    <_>
      2.54563928e-01 1.87983736e-01 2.84540981e-01 9.14481729e-02
      2.84540981e-01 2.84540981e-01 2.63650030e-01 1.80147067e-01
      2.84540981e-01 2.53771603e-01 2.31554627e-01 1.44785866e-01
      2.84540981e-01 2.84540981e-01 2.84540981e-01 2.84540981e-01
      2.91750401e-01 2.91750401e-01 1.02869526e-01 1.67143911e-01
      2.91750401e-01 2.91750401e-01 2.57026970e-01 2.91750401e-01
      2.91750401e-01 2.91750401e-01 4.11810055e-02 1.63038120e-01
      2.91750401e-01 2.91750401e-01 2.13552833e-01 2.29250491e-01
      2.80320525e-01 3.81949246e-01 5.63173667e-02 1.02867484e-01
      3.32576156e-01 3.81949246e-01 1.50681838e-01 1.66475594e-01
      1.16884060e-01 3.81949246e-01 1.14367217e-01 2.98648864e-01
      8.73029679e-02 3.81949246e-01 1.87314466e-01 2.53532622e-02</_>
    <_>
      3.35581422e-01 1.51791368e-02 5.67213213e-03 3.39799821e-01
      3.39799821e-01 5.52788787e-02 3.96640413e-03 2.58234441e-01
      1.88957021e-01 7.80071244e-02 2.43929401e-01 3.39799821e-01
      3.39799821e-01 3.39799821e-01 3.39799821e-01 1.41053215e-01
      2.21987534e-02 7.79705942e-02 4.38470930e-01 1.03769876e-01
      3.56966667e-02 3.69840860e-01 4.38470930e-01 3.02125737e-02
      6.14265969e-04 3.58060598e-02 4.38470930e-01 1.07968569e-01
      7.06779398e-03 2.34976888e-01 4.38470930e-01 4.56043594e-02
      9.17586964e-03 6.68445602e-03 3.87653470e-01 2.55443752e-01
      1.21909350e-01 5.92070930e-02 3.87653470e-01 2.15788677e-01
      2.15764597e-01 1.67980709e-03 2.41681993e-01 3.87653470e-01
      3.87653470e-01 1.13717290e-02 9.66533124e-02 3.87653470e-01</_>
    <_>
      7.26978108e-02 2.09825143e-01 3.46810907e-01 1.23416506e-01
      3.19668740e-01 1.86487779e-01 3.46810907e-01 1.71891123e-01
      3.46810907e-01 2.10545719e-01 2.30178371e-01 1.98389232e-01
      3.46810907e-01 1.08860552e-01 1.24779522e-01 3.46810907e-01
      3.13360363e-01 3.13360363e-01 2.77940445e-02 1.42286196e-01
      3.13360363e-01 3.13360363e-01 8.96634459e-02 2.86605269e-01
      2.49368161e-01 3.13360363e-01 1.10832885e-01 3.00337374e-01
      1.70136929e-01 3.13360363e-01 3.13360363e-01 6.84715137e-02
      1.40105098e-01 1.66682690e-01 1.49917111e-01 3.51460546e-01
      1.74231485e-01 3.51460546e-01 3.22797745e-01 3.51460546e-01
      2.68452018e-01 6.31821807e-03 2.87528969e-02 3.51460546e-01
      3.15768093e-01 2.12915726e-02 3.64306234e-02 3.51460546e-01</_>
    <_>
      3.32017392e-01 3.32017392e-01 6.14837594e-02 1.59580871e-01
      2.17877731e-01 3.32017392e-01 7.00038392e-03 1.50059223e-01
      3.32017392e-01 3.32017392e-01 6.41687363e-02 3.32017392e-01
      2.08392709e-01 2.77136654e-01 3.74193490e-02 3.32017392e-01
      3.27447355e-01 3.27447355e-01 7.63183385e-02 1.95034519e-01
      1.47281617e-01 1.44344881e-01 1.06986925e-01 3.27447355e-01
      3.27447355e-01 3.27447355e-01 3.11878711e-01 9.16401967e-02
      1.11372247e-01 3.27447355e-01 3.27447355e-01 1.73980758e-01
      2.00551778e-01 3.22323233e-01 3.22323233e-01 8.08686242e-02
      4.73569669e-02 3.22323233e-01 3.22323233e-01 3.18649858e-02
      5.20775020e-02 3.22323233e-01 3.04922432e-01 3.22323233e-01
      1.26405507e-01 3.22323233e-01 3.22323233e-01 6.28830418e-02</_>
    <_>
      2.46277332e-01 3.15608829e-01 2.35784322e-01 1.89886898e-01
      3.06742668e-01 3.15608829e-01 2.02411309e-01 6.40928820e-02
      8.11536685e-02 2.16576979e-01 3.02033335e-01 3.15608829e-01
      1.49256766e-01 3.15608829e-01 2.94704974e-01 2.30420083e-01
      2.92267632e-02 1.97453182e-02 3.23510915e-01 3.23510915e-01
      1.48238808e-01 3.23510915e-01 3.23510915e-01 2.75264442e-01
      5.58571005e-03 1.07357546e-03 3.23510915e-01 3.23510915e-01
      1.47979215e-01 2.13057593e-01 3.12792778e-01 3.23510915e-01
      4.30923281e-03 6.37161545e-04 3.06989998e-01 3.99619997e-01
      8.03205669e-02 6.76201731e-02 2.54272014e-01 3.99619997e-01
      4.72422596e-03 3.95842316e-03 2.85327077e-01 3.99619997e-01
      3.39111574e-02 2.03346554e-02 3.22909087e-01 3.99619997e-01</_>
    <_>
      2.29145020e-01 3.87965918e-01 3.67628671e-02 6.22340217e-02
      6.19343221e-02 2.95178801e-01 7.42080435e-02 4.55889367e-02
      3.87965918e-01 3.87965918e-01 7.46719763e-02 3.00617963e-01
      2.59205848e-01 3.87965918e-01 1.77084133e-01 2.08030745e-01
      2.64328212e-01 3.35077971e-01 9.67826545e-02 3.35077971e-01
      1.08779110e-01 3.35077971e-01 1.32512629e-01 1.44358233e-01
      1.31641835e-01 3.35077971e-01 1.58117622e-01 3.35077971e-01
      8.92267004e-02 3.35077971e-01 1.75929129e-01 3.35077971e-01
      6.62049353e-02 3.22947562e-01 1.17415719e-01 3.27713042e-01
      4.62308787e-02 3.27713042e-01 2.03316733e-01 3.27713042e-01
      1.69899985e-02 2.60544538e-01 1.52793035e-01 3.27713042e-01
      8.97818431e-03 3.27713042e-01 3.07916552e-01 3.27713042e-01</_>
    <_>
      3.29977930e-01 3.51122022e-01 2.75885195e-01 6.75844327e-02
      1.16570510e-01 3.51122022e-01 1.27215505e-01 4.10600156e-02
      2.16176033e-01 3.51122022e-01 3.51122022e-01 5.31425960e-02
      1.12225778e-01 3.51122022e-01 3.10947448e-01 1.39685953e-02
      1.93860948e-01 3.10013533e-01 2.88376838e-01 1.61215127e-01
      1.87266722e-01 3.10013533e-01 2.13918969e-01 4.25108187e-02
      3.10013533e-01 1.56744257e-01 3.10013533e-01 3.10013533e-01
      3.10013533e-01 3.10013533e-01 1.70808360e-01 2.02554524e-01
      3.10863584e-01 4.35765646e-02 3.10863584e-01 3.10863584e-01
      3.10863584e-01 9.55769643e-02 2.05283210e-01 1.94486156e-01
      3.10863584e-01 5.47586717e-02 3.10863584e-01 2.94958204e-01
      3.10863584e-01 2.02839196e-01 2.61643320e-01 1.72745302e-01</_>
    <_>
