<?xml version="1.0"?>
<opencv_storage>
<opencv_ml_svm>
  <format>3</format>
  <svmType>EPS_SVR</svmType>
  <kernel>
    <type>CHI2</type>
    <gamma>1.</gamma></kernel>
  <C>1.</C>
  <p>1.0000000000000001e-01</p>
  <term_criteria><iterations>100</iterations></term_criteria>
  <var_count>48</var_count>
  <sv_total>168</sv_total>
  <support_vectors>
    <_>
      6.75131977e-02 3.66923898e-01 3.66923898e-01 1.84198797e-01
      1.08552329e-01 3.66923898e-01 3.66923898e-01 1.64843917e-01
      1.07349984e-01 2.82125145e-01 1.82394370e-01 1.33742288e-01
      8.65711272e-02 3.66923898e-01 2.80097336e-01 1.32294238e-01
      2.94999629e-01 3.07686687e-01 1.88137203e-01 1.25497758e-01
      2.43122786e-01 3.07686687e-01 3.07686687e-01 3.05621237e-01
      1.59965560e-01 3.07686687e-01 1.90454558e-01 3.09332851e-02
      1.57533735e-01 3.07686687e-01 3.07686687e-01 2.24900350e-01
      1.94408014e-01 3.58425915e-01 1.21287733e-01 3.23518142e-02
      2.84409612e-01 3.58425915e-01 3.20127815e-01 2.81174272e-01
      1.06484890e-01 3.20912331e-01 9.99849811e-02 1.35560352e-02
      1.29430816e-01 3.58425915e-01 3.58425915e-01 1.59072310e-01</_>
    <_>
      3.20594609e-01 1.56647921e-01 1.13717467e-01 3.20594609e-01
      3.20594609e-01 1.70321777e-01 3.62169780e-02 3.20594609e-01
      3.20594609e-01 3.01091909e-01 9.53899100e-02 2.15891182e-01
      3.20594609e-01 1.70227170e-01 1.84924245e-01 3.20594609e-01
      3.30327958e-01 3.30327958e-01 1.61283642e-01 1.87125392e-02
      2.15928689e-01 2.21758425e-01 3.30327958e-01 1.01177424e-01
      3.30327958e-01 3.30327958e-01 3.06043684e-01 2.70831566e-02
      2.75190353e-01 1.80457309e-01 3.30327958e-01 8.31136331e-02
      1.70182303e-01 2.99799412e-01 2.99799412e-01 3.91885750e-02
      2.99799412e-01 1.58127010e-01 2.99799412e-01 8.50579813e-02
      2.99799412e-01 2.99799412e-01 2.98711181e-01 1.85324073e-01
      2.99799412e-01 2.54460782e-01 2.99799412e-01 1.64031580e-01</_>
    <_>
      3.44373465e-01 2.39692815e-03 1.56814791e-02 3.44373465e-01
      3.11649472e-01 2.94843200e-03 1.15985259e-01 3.44373465e-01
      2.26237878e-01 3.82072255e-02 2.53978133e-01 3.44373465e-01
      1.89821675e-01 1.44851103e-01 3.44373465e-01 3.44373465e-01
      1.88233051e-02 6.44591749e-02 4.07624960e-01 1.42803743e-01
      3.05684172e-02 3.45045358e-01 4.07624960e-01 6.05256520e-02
      1.90730076e-04 9.86216813e-02 4.07624960e-01 7.79422596e-02
      9.99183767e-03 4.07624960e-01 4.07624960e-01 2.60733142e-02
      1.23025235e-02 5.82994893e-02 3.67699176e-01 1.37424842e-01
      1.47308275e-01 2.98060805e-01 3.67699176e-01 6.25639930e-02
      1.81379855e-01 1.29046468e-02 3.67699176e-01 3.67699176e-01
      3.67699176e-01 8.10783580e-02 1.56976923e-01 3.45169991e-01</_>
    <_>
      1.07623741e-03 9.86073092e-02 3.93454671e-01 4.89465855e-02
      9.23497230e-03 3.93454671e-01 3.93454671e-01 1.19175296e-02
      3.08925410e-05 2.33934388e-01 3.93454671e-01 8.73937365e-03
      8.35435465e-03 3.93454671e-01 3.93454671e-01 3.28692491e-03 0.
      3.50405186e-01 3.52835923e-01 0. 9.60161816e-03 3.52835923e-01
      3.52835923e-01 0. 3.96467978e-03 3.52835923e-01 3.52835923e-01
      8.91732331e-03 4.52873968e-02 3.52835923e-01 3.52835923e-01
      3.73290008e-04 3.05838771e-02 3.60677332e-01 3.60677332e-01
      6.01102859e-02 2.31830403e-01 3.60677332e-01 2.15075374e-01
      3.85672157e-03 8.46669674e-02 2.81776607e-01 3.60677332e-01
      1.42022297e-01 3.60677332e-01 3.60677332e-01 6.68784976e-02
      9.58280079e-03</_>
    <_>
      2.97194332e-01 2.97194332e-01 1.21821398e-02 2.97194332e-01
      2.59353936e-01 2.97194332e-01 7.04756193e-03 2.97194332e-01
      2.97194332e-01 2.97194332e-01 1.23372907e-02 2.97194332e-01
      2.97194332e-01 2.13988483e-01 1.94905121e-02 2.97194332e-01
      3.34724277e-01 3.34724277e-01 1.39488811e-02 1.32842720e-01
      2.37720817e-01 1.02609307e-01 9.12721902e-02 3.34724277e-01
      3.34724277e-01 3.34724277e-01 1.53400660e-01 8.46018121e-02
      9.49157029e-02 3.34724277e-01 3.34724277e-01 2.81891018e-01
      1.77140459e-01 3.04282069e-01 1.74944073e-01 9.57963914e-02
      7.22652748e-02 2.72269428e-01 3.04282069e-01 3.04282069e-01
      1.13761604e-01 3.04282069e-01 3.04282069e-01 1.41133547e-01
      2.81865567e-01 2.93298066e-01 3.04282069e-01 3.04282069e-01</_>
    <_>
      2.50804394e-01 3.80888224e-01 3.04654371e-02 5.68938628e-02
      7.01555684e-02 3.02656025e-01 7.02393278e-02 4.18490879e-02
      3.80888224e-01 3.80888224e-01 7.83941969e-02 3.03451210e-01
      2.85334527e-01 3.80888224e-01 1.76860198e-01 1.86259344e-01
      2.63013870e-01 3.34510535e-01 9.95378271e-02 3.34510535e-01
      1.17587388e-01 3.34510535e-01 1.34283468e-01 1.36390969e-01
      1.27596840e-01 3.34510535e-01 1.63704574e-01 3.34510535e-01
      9.42025110e-02 3.34510535e-01 1.78541198e-01 3.34510535e-01
      6.19533993e-02 3.15475851e-01 1.29205436e-01 3.23871195e-01
      5.01501672e-02 3.23871195e-01 2.10566074e-01 3.23871195e-01
      1.16160270e-02 2.67286807e-01 1.69658527e-01 3.23871195e-01
      9.62817948e-03 3.23871195e-01 3.16297829e-01 3.23871195e-01</_>
    <_>
      6.63154200e-02 3.14432502e-01 3.14432502e-01 5.64017296e-02
      8.03978518e-02 3.14432502e-01 3.14432502e-01 1.15122937e-01
      1.24328241e-01 3.14432502e-01 3.12751830e-01 2.14130115e-02
      2.77503282e-01 3.14432502e-01 3.14432502e-01 2.94533283e-01
      1.90964133e-01 2.93567449e-01 1.49840951e-01 6.79709613e-02
      2.93567449e-01 2.93567449e-01 2.93567449e-01 2.62501270e-01
      2.93567449e-01 2.47187778e-01 1.46410048e-01 2.22472444e-01
      2.93567449e-01 2.93567449e-01 2.07685992e-01 2.93567449e-01
      2.67375976e-01 1.83183253e-01 1.43099964e-01 2.67375976e-01
      2.67375976e-01 2.67375976e-01 1.41603857e-01 2.67375976e-01
      2.67375976e-01 2.67375976e-01 2.67375976e-01 2.67375976e-01
      2.67375976e-01 2.67375976e-01 2.55663365e-01 2.67375976e-01</_>
    <_>
      3.72693911e-02 3.98088008e-01 2.18064085e-01 7.76982959e-03
      7.38187730e-02 3.98088008e-01 2.43405163e-01 1.38114579e-02
      4.29534726e-02 2.45797083e-01 3.98088008e-01 7.12126717e-02
      1.31545901e-01 3.98088008e-01 3.98088008e-01 7.16141164e-02
      6.08676560e-02 6.53027743e-02 3.50509584e-01 1.94322139e-01
      3.50509584e-01 3.50509584e-01 3.50509584e-01 1.76558226e-01
      1.82748631e-01 2.90686935e-02 3.50509584e-01 2.52794117e-01
      3.50509584e-01 1.68038264e-01 1.72454536e-01 1.62261486e-01
      3.56684893e-01 7.72911161e-02 3.37405771e-01 1.94310769e-01
      3.56684893e-01 2.49078885e-01 5.76371029e-02 6.06197678e-02
      3.56684893e-01 2.88535237e-01 1.87904224e-01 1.17538169e-01
      3.56684893e-01 3.56684893e-01 3.28714363e-02 1.57895014e-02</_>
    <_>
      6.93078525e-03 9.23655089e-03 3.79655808e-01 8.20399970e-02
      9.52515304e-02 1.40498236e-01 3.79655808e-01 6.31284043e-02
      5.20750172e-02 3.08159757e-02 3.79655808e-01 3.13687652e-01
      3.79655808e-01 2.20381662e-01 3.79655808e-01 2.91930258e-01
      1.89043328e-01 9.44663882e-02 3.12781513e-01 3.12781513e-01
      3.12781513e-01 1.34889498e-01 2.25707576e-01 3.12781513e-01
      3.12781513e-01 2.24209547e-01 1.51488781e-01 3.12781513e-01
      3.12781513e-01 1.43211335e-01 8.17796960e-02 3.12781513e-01
      3.12989950e-01 3.12989950e-01 1.01271711e-01 2.44613275e-01
      3.12989950e-01 3.12989950e-01 7.94261247e-02 2.54843444e-01
      3.12989950e-01 3.12989950e-01 9.65640247e-02 1.89297780e-01
      3.12989950e-01 3.12989950e-01 1.14622392e-01 1.16314299e-01</_>
    <_>
      3.43505442e-01 1.34679541e-01 1.10201783e-01 2.62485117e-01
      3.60176802e-01 2.71787733e-01 3.65100242e-02 2.17754722e-01
      3.60176802e-01 1.38966456e-01 7.83091486e-02 2.97302097e-01
      3.60176802e-01 1.44076288e-01 5.57269305e-02 3.60176802e-01
      3.07463855e-01 3.07463855e-01 6.01469874e-02 1.71797812e-01
      3.07463855e-01 3.07463855e-01 2.08479583e-01 2.43959129e-01
      1.18539281e-01 3.07463855e-01 2.34042302e-01 2.99631536e-01
      2.42733181e-01 3.07463855e-01 2.68974185e-01 6.11448921e-02
      1.38215438e-01 2.25200325e-01 2.68583715e-01 3.37517858e-01
      3.37517858e-01 3.37517858e-01 8.77641663e-02 9.81860980e-02
      3.17202181e-01 5.14205433e-02 1.76364616e-01 3.37517858e-01
      3.37517858e-01 3.35999072e-01 1.98431592e-02 1.41712189e-01</_>
    <_>
      2.87252396e-01 6.37349337e-02 3.09375495e-01 1.66716725e-01
      3.09375495e-01 3.09375495e-01 2.14122325e-01 3.09375495e-01
      3.09375495e-01 1.35840267e-01 2.34620929e-01 1.91533804e-01
      3.09375495e-01 2.14076236e-01 1.03362940e-01 3.09375495e-01
      3.14220279e-01 2.90594101e-01 1.19817749e-01 1.53222218e-01
      3.14220279e-01 1.90779731e-01 7.53751248e-02 3.14220279e-01
      3.14220279e-01 3.14220279e-01 5.74385971e-02 1.80211648e-01
      3.14220279e-01 3.14220279e-01 8.27848166e-02 3.14220279e-01
      3.15913141e-01 3.15913141e-01 2.03143209e-01 8.46630186e-02
      1.93002939e-01 3.15913141e-01 3.15913141e-01 1.10878915e-01
      2.08229601e-01 3.15913141e-01 3.15913141e-01 1.12622149e-01
      2.09105879e-01 3.15913141e-01 3.15913141e-01 2.62037665e-02</_>
    <_>
      2.12025732e-01 3.52340072e-01 2.05203176e-01 8.63967910e-02
      2.16157645e-01 3.52340072e-01 1.57004252e-01 3.52340072e-01
      2.98605323e-01 2.57924825e-01 1.31361172e-01 1.28257811e-01
      3.52340072e-01 3.52340072e-01 6.89783320e-02 1.25322461e-01
      3.82405013e-01 1.53631464e-01 4.12434451e-02 1.10202529e-01
      3.82405013e-01 1.56212196e-01 1.28742596e-02 1.31263778e-01
      3.82405013e-01 3.82405013e-01 5.36718518e-02 1.23901390e-01
      3.82405013e-01 3.82405013e-01 8.50086659e-02 1.18629642e-01
      1.66877374e-01 3.09916347e-01 5.08890413e-02 1.71908379e-01
      3.09916347e-01 3.09916347e-01 1.74871653e-01 9.75257382e-02
      1.87041387e-01 3.09916347e-01 7.86190405e-02 3.09916347e-01
      3.09916347e-01 3.09916347e-01 3.09916347e-01 2.95416832e-01</_>
    <_>
      1.72529407e-02 4.60326709e-02 3.98500085e-01 1.69575781e-01
      3.82638685e-02 4.47166413e-02 3.67555201e-01 3.22596073e-01
      2.17148826e-01 7.44324550e-02 2.44164824e-01 3.38530749e-01
      3.98500085e-01 6.52339160e-02 1.21003173e-01 3.98500085e-01
      1.78844631e-01 2.28475705e-01 1.39458105e-01 8.15163553e-02
      4.14981365e-01 1.99854687e-01 1.99717283e-02 2.84556478e-01
      1.50747806e-01 4.14981365e-01 2.40188897e-01 3.62257450e-03
      3.49987060e-01 4.14981365e-01 1.99778184e-01 6.92946538e-02
      1.98328458e-02 3.98799628e-01 1.85959205e-01 2.15448046e-04
      3.30950134e-02 3.98799628e-01 2.70591438e-01 1.87103485e-03
      9.28185042e-03 3.98799628e-01 3.02050531e-01 7.73715973e-03
      1.17037818e-02 3.98799628e-01 3.98799628e-01 2.01458261e-05</_>
    <_>
      3.03427637e-01 3.03427637e-01 2.18911275e-01 1.80267647e-01
      5.92079572e-02 2.10301325e-01 2.74290293e-01 3.03427637e-01
      3.03427637e-01 3.03427637e-01 3.03427637e-01 1.63141653e-01
      1.08016841e-01 3.03427637e-01 3.03427637e-01 1.36939704e-01
      2.62028873e-01 2.73122430e-01 2.73122430e-01 2.33934015e-01
      2.33637258e-01 2.73122430e-01 2.73122430e-01 1.57401621e-01
      2.07389817e-01 2.54440814e-01 2.73122430e-01 2.73122430e-01
      2.73122430e-01 2.73122430e-01 2.73122430e-01 1.24142408e-01
      1.14204243e-01 1.59670800e-01 3.30581963e-01 3.30581963e-01
      3.04053783e-01 3.30581963e-01 2.81621933e-01 2.70779610e-01
      8.75727162e-02 8.11876729e-02 1.18983537e-01 3.30581963e-01
      3.30581963e-01 1.44787803e-01 8.93901438e-02 3.30581963e-01</_>
    <_>
      5.09399474e-02 3.73534411e-02 1.82532683e-01 3.31783086e-01
      9.14972275e-02 3.82613152e-01 9.93160084e-02 2.99357712e-01
      3.82613152e-01 3.96218300e-02 3.94217893e-02 3.82613152e-01
      3.82613152e-01 6.87752515e-02 3.34759690e-02 3.82613152e-01
      3.51926535e-01 1.95363402e-01 2.03243773e-02 1.83627635e-01
      2.70480990e-01 7.27953687e-02 1.18018292e-01 3.68575633e-01
      2.04573005e-01 3.68575633e-01 1.52899578e-01 3.73886079e-02
      1.18318886e-01 3.68575633e-01 3.68575633e-01 2.89415330e-01
      2.16467269e-02 3.68688554e-01 2.08969116e-01 7.44444202e-04
      8.44689459e-03 3.68688554e-01 3.68688554e-01 2.15000957e-02
      3.15342704e-03 3.68688554e-01 3.68688554e-01 9.68081504e-03
      4.70489962e-03 3.68688554e-01 3.68688554e-01 1.15711521e-03</_>
    <_>
      1.19658560e-01 5.73683269e-02 3.51598769e-01 5.75830527e-02
      3.82793307e-01 1.06041797e-01 2.48464674e-01 9.59483981e-02
      3.82793307e-01 2.55093545e-01 3.82793307e-01 3.66686657e-02
      3.82793307e-01 3.17864507e-01 1.07147217e-01 6.62168637e-02
      3.37903738e-01 3.27750951e-01 1.55877262e-01 2.56921053e-02
      3.37903738e-01 3.35319459e-01 4.19763848e-02 2.20429655e-02
      3.37903738e-01 3.37903738e-01 1.26136482e-01 2.08165869e-02
      2.74643630e-01 3.37903738e-01 2.94452757e-01 1.37220565e-02
      3.18660080e-01 3.50632995e-01 2.14037254e-01 3.83908637e-02
      1.48735374e-01 3.50632995e-01 3.50632995e-01 5.42211868e-02
      2.66929358e-01 2.95794725e-01 1.32955581e-01 5.34551516e-02
      2.43661538e-01 3.50632995e-01 2.77495295e-01 1.23188362e-01</_>
    <_>
      3.58483523e-01 6.17881492e-02 5.49848825e-02 2.28498504e-01
      3.58483523e-01 2.70224184e-01 9.23449453e-03 3.58483523e-01
      3.58483523e-01 1.77829310e-01 6.18031248e-03 2.39316717e-01
      3.58483523e-01 5.99413887e-02 2.58829221e-02 3.58483523e-01
      3.50796133e-01 2.96175838e-01 2.20502038e-02 5.81521578e-02
      2.30065361e-01 7.83061460e-02 1.03537425e-01 3.50796133e-01
      2.65254736e-01 3.50796133e-01 3.46773982e-01 1.72331985e-02
      8.41311216e-02 3.50796133e-01 3.50796133e-01 1.47812054e-01
      5.64407259e-02 3.95372719e-01 3.95372719e-01 6.82827458e-02
      3.17967422e-02 3.95372719e-01 3.95372719e-01 2.28865687e-02
      6.70550466e-02 1.64262041e-01 1.94620818e-01 2.90763319e-01
      9.50514376e-02 3.95372719e-01 1.89409912e-01 7.91170001e-02</_>
    <_>
      3.60867620e-01 2.28430867e-01 2.12757930e-01 1.24885112e-01
      1.54094502e-01 2.18885392e-01 3.01077008e-01 2.10503712e-01
      6.75637200e-02 3.60867620e-01 3.60867620e-01 1.38860464e-01
      2.68949829e-02 3.60867620e-01 3.60867620e-01 3.22331712e-02
      2.52238708e-03 1.93327010e-01 3.48110408e-01 2.74291307e-01
      1.45726074e-02 3.48110408e-01 3.48110408e-01 3.64649706e-02
      8.84694420e-03 4.48290184e-02 3.48110408e-01 3.48110408e-01
      1.45145416e-01 3.48110408e-01 3.28581691e-01 1.55423164e-01
      6.99728131e-02 9.27345082e-03 3.60185444e-01 3.60185444e-01
      3.60185444e-01 1.18669353e-01 1.74669251e-01 2.22814202e-01
      1.33515656e-01 1.06272856e-02 3.15635204e-01 3.60185444e-01
      3.60185444e-01 1.75139710e-01 1.16542570e-01 2.94436008e-01</_>
    <_>
      3.75144243e-01 3.75144243e-01 6.59819171e-02 5.75259402e-02
      1.39558479e-01 3.75144243e-01 1.26653105e-01 6.14463463e-02
      3.44785631e-01 3.75144243e-01 1.72338113e-01 1.27354324e-01
      1.69127911e-01 3.75144243e-01 1.82640016e-01 1.37374297e-01
      2.36134931e-01 3.02587062e-01 1.61528274e-01 1.99643001e-01
      1.40435666e-01 3.02587062e-01 1.38571516e-01 1.11679986e-01
      2.90944397e-01 3.02587062e-01 3.02587062e-01 3.02587062e-01
      3.02587062e-01 3.02587062e-01 2.63247311e-01 1.70326218e-01
      2.27713957e-01 1.86977252e-01 2.98654199e-01 2.98654199e-01
      2.98654199e-01 2.98654199e-01 1.60555691e-01 2.42214322e-01
      1.55159920e-01 1.24651834e-01 1.53134674e-01 2.98654199e-01
      2.98654199e-01 2.98654199e-01 2.21671119e-01 2.98654199e-01</_>
    <_>
      3.05589527e-01 1.10378340e-01 1.51389996e-02 3.05589527e-01
      3.05589527e-01 3.05589527e-01 2.76767015e-02 3.05589527e-01
      3.05589527e-01 2.43425429e-01 1.88670203e-01 2.11310998e-01
      1.82444736e-01 3.05589527e-01 2.52779156e-01 3.05589527e-01
      2.57411033e-01 2.90632337e-01 2.90632337e-01 6.08312972e-02
      1.04713574e-01 2.90632337e-01 2.90632337e-01 2.64719129e-01
      2.90632337e-01 2.90632337e-01 2.90632337e-01 1.00261256e-01
      2.16765895e-01 2.90632337e-01 2.90632337e-01 1.69851422e-01
      2.59955585e-01 2.78929114e-01 2.78929114e-01 2.03297853e-01
      2.78929114e-01 2.78929114e-01 2.78929114e-01 1.83051318e-01
      1.62361413e-01 1.29221305e-01 2.78929114e-01 2.78929114e-01
      2.78929114e-01 2.78929114e-01 2.78929114e-01 1.83641568e-01</_>
    <_>
      2.14364335e-01 3.53060871e-01 1.37965709e-01 8.24849531e-02
      3.53060871e-01 3.53060871e-01 4.05597910e-02 3.97385433e-02
      3.53060871e-01 2.01058328e-01 6.48295283e-02 2.39445895e-01
      3.53060871e-01 2.66590327e-01 2.26713587e-02 3.53060871e-01
      3.41441423e-01 3.41441423e-01 7.10707717e-03 1.34820297e-01
      3.41441423e-01 3.08062166e-01 4.64027375e-02 3.41441423e-01
      2.20589027e-01 3.41441423e-01 5.22356518e-02 1.71761408e-01
      1.69248924e-01 3.41441423e-01 2.07550734e-01 1.70879886e-01
      1.11555554e-01 3.35851848e-01 1.90327764e-01 2.93921441e-01
      4.20547798e-02 3.35851848e-01 3.35851848e-01 1.91327378e-01
      9.34803933e-02 8.25617909e-02 2.85629004e-01 3.35851848e-01
      1.00551926e-01 3.35851848e-01 1.97944686e-01 3.35851848e-01</_>
    <_>
      1.73810482e-01 1.11169808e-01 3.39650154e-01 1.66061357e-01
      3.39650154e-01 2.31439769e-01 1.57514945e-01 1.40820026e-01
      2.95993984e-01 3.03663224e-01 3.39650154e-01 2.55329370e-01
      3.39650154e-01 3.39650154e-01 6.41745850e-02 4.80544604e-02
      1.06416509e-01 3.34295124e-01 2.45284319e-01 3.34295124e-01
      2.46694282e-01 3.34295124e-01 1.16349362e-01 3.32515985e-02
      1.06306344e-01 1.43995002e-01 3.34295124e-01 3.34295124e-01
      3.34295124e-01 3.34295124e-01 1.29486471e-01 1.36364073e-01
      2.20474362e-01 3.24774161e-02 2.34357625e-01 3.98684233e-01
      3.98684233e-01 1.48848534e-01 4.84504923e-02 2.64086306e-01
      1.58410639e-01 1.56902093e-02 1.44169137e-01 3.98684233e-01
      3.98684233e-01 1.81872547e-01 4.40228470e-02 2.83280969e-01</_>
    <_>
      1.05566733e-01 3.03484611e-02 3.32163334e-01 3.32163334e-01
      2.43129760e-01 1.23648271e-01 3.32163334e-01 3.32163334e-01
      3.10103483e-02 7.06520304e-02 3.32163334e-01 3.32163334e-01
      1.04833387e-01 1.03012830e-01 3.32163334e-01 3.32163334e-01
      1.76781058e-01 4.32302728e-02 2.19389424e-01 3.79647434e-01
      2.13802442e-01 4.32548597e-02 1.67614475e-01 3.79647434e-01
      3.79647434e-01 8.28511193e-02 6.06300160e-02 3.79647434e-01
      3.13297480e-01 1.11489063e-02 9.89805087e-02 3.79647434e-01
      3.65460038e-01 1.88931108e-01 5.19478619e-02 2.79923290e-01
      1.44772321e-01 1.43556958e-02 1.40561312e-01 3.86001736e-01
      3.86001736e-01 3.10407430e-01 2.83692665e-02 2.71254450e-01
      2.40550652e-01 2.10416261e-02 1.69922248e-01 3.86001736e-01</_>
    <_>
      2.65585005e-01 2.65585005e-01 2.54420757e-01 1.83201268e-01
      2.65585005e-01 2.65585005e-01 2.65585005e-01 1.70934722e-01
      2.65585005e-01 2.59768456e-01 2.65585005e-01 2.65585005e-01
      2.65585005e-01 2.65585005e-01 2.65585005e-01 1.62682816e-01
      2.71381378e-01 2.71381378e-01 2.71381378e-01 2.30987176e-01
      2.71381378e-01 2.71381378e-01 2.63399869e-01 1.89229041e-01
      2.71381378e-01 1.63142055e-01 1.37315318e-01 2.38320172e-01
      2.71381378e-01 2.71381378e-01 2.71381378e-01 2.71381378e-01
      2.90115803e-01 2.62618333e-01 2.24371031e-01 2.16101274e-01
      2.90115803e-01 2.90115803e-01 2.90115803e-01 2.90115803e-01
      1.58789709e-01 1.73955828e-01 2.07818970e-01 2.90115803e-01
      1.33496076e-01 2.82682270e-01 2.90115803e-01 2.13368744e-01</_>
    <_>
      4.81272042e-02 2.43110359e-01 3.15755665e-01 1.66260347e-01
      2.17762083e-01 4.12600607e-01 7.76483417e-02 2.31422633e-02
      1.21140005e-02 2.23931015e-01 4.12600607e-01 1.17760614e-01
      8.57256204e-02 4.12600607e-01 4.12600607e-01 2.57806163e-02
      3.57769779e-04 9.48611200e-02 3.54828626e-01 1.29076585e-01
      2.87983846e-02 3.54828626e-01 3.54828626e-01 5.77346906e-02
      1.16434670e-03 2.92730443e-02 3.54828626e-01 3.54828626e-01
      1.38732195e-01 3.54828626e-01 3.54828626e-01 2.55351484e-01
      7.72635080e-03 1.18395928e-02 3.31917197e-01 3.31917197e-01
      2.52889037e-01 2.49012783e-01 3.31917197e-01 3.31917197e-01
      1.42113894e-01 4.04656213e-03 2.20268846e-01 3.31917197e-01
      3.31917197e-01 9.73793715e-02 1.45349473e-01 3.31917197e-01</_>
    <_>
      2.55099624e-01 5.94841130e-02 4.75094989e-02 3.56680810e-01
      3.56680810e-01 3.40546995e-01 1.47556989e-02 2.48219803e-01
      3.56680810e-01 2.65639722e-02 1.27716614e-02 3.28884393e-01
      3.56680810e-01 5.12018763e-02 8.58919753e-04 3.56680810e-01
      3.48903149e-01 1.70836076e-01 2.85056507e-04 1.32846370e-01
      3.48903149e-01 2.13805437e-01 8.22140064e-05 3.48903149e-01
      3.48903149e-01 3.42992097e-01 1.49450649e-03 1.92595690e-01
      3.48903149e-01 3.48903149e-01 6.10996457e-03 1.37082011e-01
      1.91091940e-01 3.00097108e-01 2.82223430e-02 3.41758490e-01
      1.57706171e-01 3.41758490e-01 6.54072538e-02 1.82554469e-01
      6.93698674e-02 3.41758490e-01 2.24320129e-01 3.14349890e-01
      5.16474694e-02 3.41758490e-01 3.41758490e-01 2.57156879e-01</_>
    <_>
      1.09512635e-01 3.21036160e-01 2.89676994e-01 8.34328961e-03
      8.67498517e-02 3.21036160e-01 3.21036160e-01 2.10258998e-02
      3.21036160e-01 3.21036160e-01 2.08387733e-01 2.85105854e-01
      3.21036160e-01 2.27819264e-01 2.25888997e-01 2.16392592e-01
      3.17350596e-01 8.48257169e-02 1.73747674e-01 3.17350596e-01
      3.17350596e-01 1.44088656e-01 3.17350596e-01 2.84323186e-01
      1.74069852e-01 5.69862947e-02 3.01978081e-01 3.04248452e-01
      1.37481436e-01 1.31790638e-01 3.17350596e-01 3.17350596e-01
      1.34569094e-01 6.54027537e-02 3.73316586e-01 2.80356944e-01
      1.12635538e-01 6.61093369e-02 4.16079372e-01 4.16079372e-01
      2.34469287e-02 1.27371132e-01 4.16079372e-01 8.95193294e-02
      9.82590578e-03 8.75634402e-02 4.16079372e-01 1.15739323e-01</_>
    <_>
      2.84833580e-01 1.66470587e-01 2.84833580e-01 2.84833580e-01
      2.70590454e-01 2.04716787e-01 2.20138445e-01 2.84833580e-01
      2.84833580e-01 2.84833580e-01 2.84833580e-01 1.67186797e-01
      2.64681041e-01 1.92927256e-01 1.46909758e-01 2.84833580e-01
      3.16695184e-01 2.10953832e-01 1.49167210e-01 2.11715177e-01
      3.16695184e-01 9.83972847e-02 4.55461182e-02 2.43846834e-01
      3.16695184e-01 3.16695184e-01 3.16695184e-01 2.03453168e-01
      3.16695184e-01 3.16695184e-01 1.89831302e-01 1.85855269e-01
      2.53669679e-01 3.19366425e-01 2.95260608e-01 1.08997039e-01
      3.19366425e-01 3.19366425e-01 1.41169593e-01 6.95963576e-02
      3.19366425e-01 2.27666482e-01 1.30626753e-01 3.19366425e-01
      3.19366425e-01 3.19366425e-01 4.68340628e-02 1.53544098e-01</_>
    <_>
      3.03459138e-01 2.57528245e-01 1.26510456e-01 2.05583662e-01
      3.55918795e-01 3.55918795e-01 4.65118252e-02 1.81968808e-02
      8.89616832e-02 2.41206288e-01 2.36028507e-01 3.36067379e-01
      3.55918795e-01 3.55918795e-01 1.63956329e-01 9.45097134e-02
      2.67650988e-02 1.01171218e-01 2.61727095e-01 2.45401174e-01
      2.37807035e-01 3.48674178e-01 2.18699127e-01 1.46456733e-01
      1.14924923e-01 6.41018301e-02 2.33646438e-01 3.48674178e-01
      3.48674178e-01 3.48674178e-01 2.26350918e-01 3.48674178e-01
      2.96107054e-01 2.58180629e-02 5.05148843e-02 3.85008305e-01
      3.85008305e-01 1.35677010e-01 4.69743870e-02 3.85008305e-01
      3.85008305e-01 4.39987592e-02 1.01336995e-02 2.40527377e-01
      3.85008305e-01 1.49335116e-01 3.44554558e-02 2.45160729e-01</_>
    <_>
      3.16128343e-01 1.97490394e-01 6.14544824e-02 3.16128343e-01
      2.74067134e-01 2.08103150e-01 4.79695834e-02 3.16128343e-01
      3.16128343e-01 2.80972362e-01 1.18696302e-01 3.16128343e-01
      2.00298995e-01 1.77886754e-01 2.62528211e-01 3.16128343e-01
      1.81621015e-01 3.10351610e-01 2.55492508e-01 1.23844281e-01
      3.32780592e-02 2.78523624e-01 3.23364198e-01 2.55566180e-01
      5.93186542e-02 3.23364198e-01 3.23364198e-01 2.12119654e-01
      8.97053480e-02 3.23364198e-01 3.23364198e-01 2.51935184e-01
      3.01135592e-02 3.10896933e-01 3.10896933e-01 3.10896933e-01
      1.88776508e-01 3.10896933e-01 3.10896933e-01 3.10896933e-01
      6.71099797e-02 3.85215878e-02 2.49034822e-01 3.10896933e-01
      2.76586056e-01 1.32566765e-01 1.58161461e-01 3.10896933e-01</_>
    <_>
      2.57125109e-01 2.72199418e-02 2.66683668e-01 2.41178542e-01
      3.76847029e-01 3.08892578e-02 6.66008219e-02 3.76847029e-01
      3.76847029e-01 5.84003553e-02 1.40666619e-01 2.68428594e-01
      3.76847029e-01 5.79083487e-02 3.84982042e-02 3.55755359e-01
      3.50135922e-01 2.54699647e-01 7.46057555e-02 9.48401764e-02
      3.50135922e-01 2.53882945e-01 2.23834574e-01 1.74951434e-01
      1.65487126e-01 3.50135922e-01 3.50135922e-01 4.91676386e-03
      9.12636444e-02 3.50135922e-01 3.50135922e-01 2.43390799e-02
      5.97205088e-02 3.32043260e-01 3.32043260e-01 2.95919050e-02
      2.22528622e-01 3.32043260e-01 3.32043260e-01 7.17396662e-03
      3.22509378e-01 1.21280350e-01 3.27299923e-01 3.21407050e-01
      3.32043260e-01 1.64666951e-01 1.57876894e-01 1.01078205e-01</_>
    <_>
      3.54854405e-01 1.13996142e-03 3.10424920e-02 3.54854405e-01
      3.54854405e-01 7.88610987e-03 7.18717556e-03 3.54854405e-01
      3.54854405e-01 1.03179924e-02 3.27150431e-03 3.34690452e-01
      3.54854405e-01 3.95191927e-03 4.21157181e-02 3.54854405e-01
      3.65464151e-01 1.35950133e-01 3.75742353e-02 1.98779151e-01
      3.18088531e-01 6.69052675e-02 2.61437625e-01 3.65464151e-01
      2.07444295e-01 3.65464151e-01 2.38578796e-01 2.94120293e-02
      8.28613490e-02 2.65817761e-01 3.65464151e-01 2.24356547e-01
      3.25707197e-02 3.67139041e-01 3.85893196e-01 3.39387357e-02
      1.49617299e-01 3.63886088e-01 3.85893196e-01 3.90372947e-02
      1.08262599e-01 7.11438730e-02 3.42291147e-01 1.85553908e-01
      3.85893196e-01 1.81765333e-01 2.09144726e-01 1.04510173e-01</_>
    <_>
      3.45262617e-01 3.45262617e-01 3.40379216e-02 9.13909636e-03
      2.16615096e-01 3.45262617e-01 1.62914544e-01 1.20082889e-02
      3.45262617e-01 2.89085716e-01 1.93693414e-02 2.57208467e-01
      3.45262617e-01 2.89272428e-01 1.34718865e-01 2.71550626e-01
      3.82959962e-01 3.94546613e-02 3.73429805e-02 3.82959962e-01
      3.82959962e-01 5.99612966e-02 1.48593619e-01 3.82959962e-01
      2.41498753e-01 1.26780355e-02 5.62840775e-02 3.04921150e-01
      2.54009217e-01 2.98126470e-02 1.19243450e-01 3.82959962e-01
      6.72190785e-02 2.43535638e-02 1.11423686e-01 1.59022287e-01
      5.81422895e-02 7.82571062e-02 4.40982580e-01 1.96438268e-01
      6.54350966e-02 1.18433431e-01 5.43912828e-01 1.42261282e-01
      1.33296717e-02 2.35175386e-01 5.43912828e-01 1.53235301e-01</_>
    <_>
      1.56107917e-01 2.31394425e-01 2.98812240e-01 7.80954510e-02
      1.98050305e-01 1.18242532e-01 2.98812240e-01 2.98812240e-01
      2.98812240e-01 2.98812240e-01 2.98812240e-01 7.89850727e-02
      2.98812240e-01 2.98812240e-01 2.23516077e-01 2.98812240e-01
      2.48994201e-01 2.88293362e-01 2.86124766e-01 3.19388099e-02
      2.04010963e-01 2.88293362e-01 2.88293362e-01 1.81623235e-01
      2.88293362e-01 2.88293362e-01 2.88293362e-01 1.23427100e-01
      2.56235391e-01 2.88293362e-01 2.88293362e-01 1.78411931e-01
      2.88334131e-01 2.88334131e-01 1.56480774e-01 1.56700358e-01
      2.88334131e-01 2.88334131e-01 1.83026895e-01 2.11414531e-01
      2.87168950e-01 2.88334131e-01 1.94503412e-01 2.88334131e-01
      2.88334131e-01 2.88334131e-01 2.54395187e-01 1.40625536e-01</_>
    <_>
      3.15399081e-01 1.18218876e-01 6.09343462e-02 3.50773722e-01
      3.64177167e-01 1.55928329e-01 4.00376245e-02 2.37309739e-01
      3.64177167e-01 9.40700993e-02 1.42376805e-02 3.64177167e-01
      3.64177167e-01 3.66342962e-02 2.00576279e-02 3.64177167e-01
      3.26603949e-01 2.75003225e-01 7.08142121e-04 3.26603949e-01
      3.26603949e-01 2.28357464e-02 1.01761147e-01 3.26603949e-01
      3.26603949e-01 3.26603949e-01 1.50391879e-02 5.11220023e-02
      2.20686749e-01 7.30020776e-02 3.26603949e-01 3.26603949e-01
      3.64586115e-01 3.64586115e-01 1.02979802e-01 1.91755760e-02
      1.20725721e-01 8.19437206e-02 3.64586115e-01 2.15529576e-01
      2.40217552e-01 3.64586115e-01 3.57777566e-01 2.79553384e-02
      6.77282363e-02 1.99751541e-01 3.64586115e-01 1.48487911e-01</_>
    <_>
      2.95298755e-01 2.23148093e-01 1.48099840e-01 2.95298755e-01
      2.95298755e-01 2.10979789e-01 4.82698567e-02 1.85763434e-01
      2.95298755e-01 2.95298755e-01 2.05795556e-01 2.95298755e-01
      2.95298755e-01 2.95298755e-01 1.29638866e-01 2.95298755e-01
      2.31242552e-01 2.95274854e-01 1.93641961e-01 2.95274854e-01
      2.95274854e-01 2.95274854e-01 2.65918046e-01 2.25758210e-01
      5.67448474e-02 2.16802225e-01 2.50365049e-01 2.95274854e-01
      7.25514442e-02 2.95274854e-01 2.95274854e-01 2.36473575e-01
      4.80429968e-03 6.03033155e-02 3.30701798e-01 3.34444672e-01
      2.32222844e-02 3.34444672e-01 3.12890559e-01 3.34444672e-01
      2.21726727e-02 3.15166377e-02 3.01294953e-01 3.34444672e-01
      5.83223924e-02 1.51172593e-01 3.27736109e-01 3.34444672e-01</_>
    <_>
      1.12005687e-07 6.51395023e-02 4.11420077e-01 1.33920416e-01
      2.08583493e-02 1.10375360e-02 4.11420077e-01 3.97630304e-01
      1.32244065e-06 2.68661588e-01 4.11420077e-01 4.44620401e-02
      3.79074775e-02 6.06833845e-02 4.11420077e-01 2.42289558e-01
      2.67138314e-02 3.56103510e-01 3.56103510e-01 1.39487088e-02
      2.28785779e-02 2.62462944e-01 3.56103510e-01 6.80266470e-02
      2.04544693e-01 3.56103510e-01 2.23861575e-01 1.61183223e-01
      2.62858808e-01 3.56103510e-01 3.09691548e-01 6.71667233e-02
      2.06904665e-01 5.20772487e-02 2.70754788e-02 2.41620228e-01
      4.90664214e-01 6.90732002e-02 5.78123257e-02 1.85974106e-01
      4.90664214e-01 5.68660423e-02 3.08846943e-02 2.21274689e-01
      4.90664214e-01 5.22067249e-02 1.14006000e-02 2.63637900e-01</_>
    <_>
      8.37080088e-03 6.56166300e-02 4.69958514e-01 4.06622998e-02
      5.08491769e-02 8.93759951e-02 4.69958514e-01 8.97751227e-02
      4.93404567e-02 6.47078082e-02 4.69958514e-01 1.51612148e-01
      1.28489614e-01 1.67508155e-01 4.69958514e-01 1.14119880e-01
      1.48957551e-01 1.43752158e-01 2.94156611e-01 2.33458564e-01
      2.39966795e-01 2.10245624e-01 2.43962318e-01 2.94156611e-01
      2.46076658e-01 2.18253031e-01 2.78173029e-01 2.23474279e-01
      2.68531084e-01 2.90979743e-01 2.94156611e-01 2.94156611e-01
      1.66998938e-01 1.42961100e-01 2.32608438e-01 3.43087733e-01
      1.71462268e-01 3.10520470e-01 3.43087733e-01 3.00165951e-01
      8.66450891e-02 5.02978116e-02 1.65295914e-01 3.43087733e-01
      3.35826665e-01 2.02009320e-01 1.28191501e-01 3.43087733e-01</_>
    <_>
      3.32730383e-01 1.04598500e-01 1.75563216e-01 2.26352215e-01
      3.32730383e-01 1.51648298e-01 3.29332240e-02 3.08719814e-01
      3.32730383e-01 3.32730383e-01 1.48892522e-01 2.17433691e-01
      3.32730383e-01 3.32730383e-01 1.83319956e-01 1.30297065e-01
      2.20803276e-01 2.66752720e-01 1.75539330e-01 3.06033880e-01
      1.54847130e-01 3.06033880e-01 3.06033880e-01 1.56003192e-01
      1.23609312e-01 2.35965341e-01 3.06033880e-01 3.06033880e-01
      1.37678400e-01 2.78849214e-01 3.06033880e-01 2.61324823e-01
      5.97887747e-02 1.22366399e-01 2.74190873e-01 3.68615568e-01
      3.41255337e-01 1.15513057e-01 3.03645074e-01 3.14646870e-01
      1.53987765e-01 1.20297745e-02 1.08260408e-01 3.68615568e-01
      3.68615568e-01 1.59884393e-02 4.73745652e-02 3.68615568e-01</_>
    <_>
      2.22263649e-01 3.29151601e-01 3.29151601e-01 8.97517800e-02
      9.70901027e-02 3.29151601e-01 2.21784607e-01 9.76159945e-02
      3.29151601e-01 3.29151601e-01 2.79841453e-01 1.00695319e-01
      3.29151601e-01 3.29151601e-01 1.15600891e-01 1.04457133e-01
      3.65161210e-01 2.02601522e-01 8.21101442e-02 1.91817120e-01
      3.65161210e-01 1.86574802e-01 7.83154517e-02 1.39284328e-01
      3.65161210e-01 3.65161210e-01 1.20481007e-01 1.90459326e-01
      3.65161210e-01 2.51270980e-01 2.46446982e-01 1.00238562e-01
      2.68757522e-01 3.61998737e-01 1.60973445e-01 5.22338338e-02
      9.61082131e-02 3.61998737e-01 3.61998737e-01 3.72021496e-02
      1.50959790e-01 3.61998737e-01 1.02326050e-01 8.70112926e-02
      2.34518304e-01 3.61998737e-01 3.56937587e-01 8.02617967e-02</_>
    <_>
      4.06364910e-03 1.52802438e-01 3.61996114e-01 1.05157755e-01
      8.80369097e-02 3.61996114e-01 3.61996114e-01 2.40269378e-02
      5.91008626e-02 9.68223661e-02 3.61996114e-01 3.00974637e-01
      3.60450029e-01 3.61996114e-01 2.27014095e-01 1.16248444e-01
      1.33824021e-01 1.23422682e-01 3.22973698e-01 1.97301611e-01
      3.22973698e-01 2.85778522e-01 1.25876978e-01 1.40784502e-01
      1.66491300e-01 3.22973698e-01 3.22973698e-01 1.25341922e-01
      3.22973698e-01 3.22973698e-01 3.22973698e-01 1.83723137e-01
      1.89525604e-01 3.59272808e-01 3.59272808e-01 1.64339572e-01
      2.22336754e-01 3.59272808e-01 3.59272808e-01 3.04112673e-01
      4.31547761e-02 2.26952538e-01 2.32016355e-01 3.35782208e-02
      4.46137264e-02 2.97181487e-01 2.67216623e-01 7.22236410e-02</_>
    <_>
      5.11974357e-02 3.09924006e-01 3.09924006e-01 7.43778273e-02
      1.21924534e-01 3.09924006e-01 3.09924006e-01 2.28407770e-01
      1.18019313e-01 3.09924006e-01 3.09924006e-01 9.24893245e-02
      1.86427832e-01 3.09924006e-01 3.09924006e-01 3.09924006e-01
      1.61761299e-01 2.90412188e-01 2.08760396e-01 7.56681040e-02
      2.71486014e-01 2.90412188e-01 2.90412188e-01 2.90412188e-01
      2.90412188e-01 2.30069354e-01 1.71439752e-01 1.33095339e-01
      2.90412188e-01 2.90412188e-01 2.84464896e-01 2.76744187e-01
      2.72502095e-01 1.82320997e-01 1.15055449e-01 2.02560201e-01
      2.72502095e-01 2.32951179e-01 1.96646854e-01 2.72502095e-01
      2.72502095e-01 2.72502095e-01 2.72502095e-01 2.72502095e-01
      2.72502095e-01 2.72502095e-01 2.72502095e-01 2.72502095e-01</_>
    <_>
      3.40655178e-01 3.40655178e-01 6.17253780e-02 2.27300636e-02
      3.40655178e-01 3.40655178e-01 1.67852759e-01 8.65427554e-02
      3.08306694e-01 3.40655178e-01 1.21148497e-01 6.91989809e-02
      3.19560647e-01 3.40655178e-01 1.58002809e-01 1.36848211e-01
      3.13360900e-01 3.13360900e-01 5.30362539e-02 1.49016485e-01
      3.13360900e-01 3.13360900e-01 3.40482816e-02 2.35595018e-01
      3.13360900e-01 1.61700889e-01 3.83512452e-02 3.13360900e-01
      3.13360900e-01 3.13360900e-01 6.17448054e-02 3.13360900e-01
      2.28848726e-01 8.89721140e-02 2.07111493e-01 2.26584926e-01
      3.10068190e-01 3.10068190e-01 2.26798445e-01 7.91144148e-02
      1.49656102e-01 8.86550769e-02 3.10068190e-01 3.10068190e-01
      2.85357118e-01 3.10068190e-01 3.10068190e-01 3.10068190e-01</_>
    <_>
      3.17765832e-01 2.42438629e-01 2.97032427e-02 2.68162668e-01
      3.17765832e-01 1.54942825e-01 1.05972275e-01 3.17765832e-01
      3.17765832e-01 3.17765832e-01 4.60022055e-02 1.91842839e-01
      3.17765832e-01 2.04560071e-01 2.05978036e-01 3.17765832e-01
      3.27079087e-01 3.27079087e-01 6.21483363e-02 7.77361467e-02
      2.58128047e-01 2.36739978e-01 3.27079087e-01 3.27079087e-01
      2.46322572e-01 3.27079087e-01 1.31726831e-01 5.22562563e-02
      1.04913451e-01 3.27079087e-01 3.27079087e-01 1.53366119e-01
      1.76367566e-01 3.40753227e-01 1.43972099e-01 1.12266250e-01
      1.91913217e-01 3.40753227e-01 3.40753227e-01 9.92519632e-02
      1.25754386e-01 3.40753227e-01 1.66477606e-01 3.02748442e-01
      3.40753227e-01 3.40753227e-01 2.15398803e-01 8.49574283e-02</_>
    <_>
      2.13614777e-01 3.01038563e-01 1.52167335e-01 1.28218144e-01
      3.27641398e-01 3.27641398e-01 1.70064449e-01 2.55084902e-01
      3.27641398e-01 2.23707691e-01 3.24719660e-02 2.99218237e-01
      3.27641398e-01 2.18343258e-01 4.28543873e-02 3.27641398e-01
      3.81627649e-01 3.30626816e-01 1.12079857e-02 2.74330467e-01
      3.81627649e-01 7.86916167e-02 4.71542180e-02 3.81627649e-01
      3.81627649e-01 3.81627649e-01 3.48235629e-02 4.39934693e-02
      1.32261306e-01 1.57554299e-01 1.46389887e-01 8.93404260e-02
      2.36178860e-01 4.23351198e-01 4.09016870e-02 6.21149456e-03
      2.56797355e-02 3.72042358e-01 2.17180803e-01 3.77923697e-02
      1.41231775e-01 4.23351198e-01 1.06064379e-01 1.83240511e-02
      3.15058418e-02 4.23351198e-01 4.23351198e-01 3.43354605e-02</_>
    <_>
      3.37302297e-01 4.90576066e-02 2.85018563e-01 3.37302297e-01
      8.53320211e-02 3.15907970e-02 2.23343745e-01 3.37302297e-01
      1.01257913e-01 2.07552522e-01 3.37302297e-01 3.37302297e-01
      4.48577330e-02 5.54291904e-02 3.37302297e-01 3.37302297e-01
      5.58557473e-02 2.29029313e-01 3.61370981e-01 3.43586564e-01
      2.28666440e-02 9.78403240e-02 3.61370981e-01 2.59524941e-01
      1.43630132e-01 1.36541218e-01 3.61370981e-01 3.61370981e-01
      1.08564235e-01 1.56694546e-01 3.14517945e-01 2.20056683e-01
      1.16345838e-01 9.22633931e-02 3.49387437e-01 3.49387437e-01
      1.81012228e-01 9.03193057e-02 2.45435178e-01 3.01529676e-01
      5.91052473e-02 1.75560966e-01 3.49387437e-01 3.49387437e-01
      1.00303575e-01 7.46533424e-02 3.49387437e-01 3.49387437e-01</_>
    <_>
      4.80743311e-02 3.89854587e-03 3.35359156e-01 3.35359156e-01
      3.35359156e-01 1.71723869e-02 3.35359156e-01 3.35359156e-01
      1.12142429e-01 7.52625987e-02 3.35359156e-01 2.58703709e-01
      3.35359156e-01 2.58537620e-01 1.53965756e-01 1.76217571e-01
      1.83207527e-01 1.37131378e-01 3.69596153e-01 5.84772304e-02
      3.69596153e-01 3.69596153e-01 7.04065263e-02 1.90833379e-02
      3.69596153e-01 1.92484021e-01 2.75361955e-01 4.98326495e-02
      3.69596153e-01 3.69596153e-01 1.43275615e-02 5.08897752e-03
      4.07110751e-01 2.00742647e-01 7.78216422e-02 1.79634374e-02
      4.07110751e-01 2.04879701e-01 1.05903880e-03 2.39385874e-03
      4.07110751e-01 4.07110751e-01 8.76554288e-03 2.93482281e-03
      4.07110751e-01 2.80000359e-01 2.75305763e-04 9.61613748e-03</_>
    <_>
      3.04081827e-01 1.93733126e-01 3.04081827e-01 3.04081827e-01
      2.03516424e-01 1.30951256e-01 3.04081827e-01 2.38244802e-01
      1.68050840e-01 1.76799253e-01 3.04081827e-01 3.04081827e-01
      1.51755840e-01 1.47804961e-01 3.04081827e-01 3.04081827e-01
      1.64845735e-01 1.13254771e-01 2.04532027e-01 2.61209220e-01
      3.06262732e-01 2.27193594e-01 1.52662128e-01 3.06262732e-01
      1.66145936e-01 3.06262732e-01 1.99903503e-01 2.18652129e-01
      3.06262732e-01 3.06262732e-01 3.06262732e-01 3.06262732e-01
      2.66721874e-01 2.05114394e-01 1.86064035e-01 2.71519542e-01
      2.03972831e-01 2.71519542e-01 2.71519542e-01 2.54604846e-01
      2.71519542e-01 2.71519542e-01 2.71519542e-01 2.71519542e-01
      1.77780807e-01 2.18892395e-01 2.71519542e-01 2.71519542e-01</_>
    <_>
      6.77068904e-02 3.24412882e-01 3.24412882e-01 1.61703467e-01
      1.63164169e-01 3.24412882e-01 1.83186248e-01 8.20763409e-03
      2.51282871e-01 3.24412882e-01 3.24412882e-01 3.24412882e-01
      3.24412882e-01 3.24412882e-01 1.97738204e-02 1.71860252e-02
      1.62537932e-01 1.80146292e-01 2.38320291e-01 3.40899140e-01
      3.15150052e-01 3.40899140e-01 3.51139754e-02 1.45877618e-02
      5.13762273e-02 2.65138537e-01 3.40899140e-01 3.40899140e-01
      8.42749104e-02 3.40899140e-01 3.36571455e-01 7.60197714e-02
      3.53694241e-03 7.19852522e-02 3.53756607e-01 3.81010979e-01
      2.52350084e-02 3.81010979e-01 2.42578983e-01 2.83566564e-01
      3.08849593e-03 7.31774699e-03 2.89878249e-01 3.81010979e-01
      8.25025737e-02 1.86496168e-01 1.40023738e-01 3.81010979e-01</_>
    <_>
      8.45468491e-02 3.75677198e-01 3.75677198e-01 1.64868191e-01
      1.16363250e-01 3.75677198e-01 3.75677198e-01 1.40688360e-01
      1.02944560e-01 2.42046893e-01 1.38477758e-01 6.39016628e-02
      1.06939048e-01 3.75677198e-01 3.15749377e-01 1.39065266e-01
      2.72579312e-01 3.17612469e-01 2.22012073e-01 3.67583483e-02
      2.44411379e-01 3.17612469e-01 3.17612469e-01 3.07994157e-01
      1.95414007e-01 3.17612469e-01 1.97023138e-01 1.48978131e-02
      1.17727518e-01 3.17612469e-01 3.17612469e-01 1.44694641e-01
      2.34118164e-01 3.56054932e-01 9.01323482e-02 1.16791669e-02
      1.53655753e-01 3.21065158e-01 2.46015191e-01 1.75568208e-01
      2.41586849e-01 3.56054932e-01 2.39104241e-01 7.54045695e-02
      3.08785319e-01 3.56054932e-01 2.71093369e-01 2.12000415e-01</_>
    <_>
      3.34955752e-01 8.88482481e-02 1.99690208e-01 8.52631554e-02
      3.34955752e-01 6.88802674e-02 7.08369985e-02 3.13080102e-01
      3.34955752e-01 3.34955752e-01 1.30521715e-01 1.68462589e-01
      3.34955752e-01 3.34955752e-01 1.10926956e-01 3.20841491e-01
      1.75263181e-01 3.50305140e-01 1.04839943e-01 2.38141805e-01
      2.22585127e-01 3.50305140e-01 8.88419673e-02 2.21991971e-01
      2.38052577e-01 3.50305140e-01 7.87903592e-02 2.01597542e-01
      3.50305140e-01 3.50305140e-01 4.48650718e-02 2.68817127e-01
      2.68472642e-01 3.40237141e-01 1.20317757e-01 5.74068315e-02
      3.40237141e-01 3.40237141e-01 1.06360748e-01 1.09585702e-01
      3.40237141e-01 3.28558892e-01 1.12617791e-01 6.98993504e-02
      3.40237141e-01 3.40237141e-01 2.50448942e-01 2.48429552e-02</_>
    <_>
      3.31154615e-01 3.86036523e-02 2.05449350e-02 3.31154615e-01
      2.94811159e-01 6.93705231e-02 3.02064121e-02 3.31154615e-01
      3.31154615e-01 3.31154615e-01 1.78897846e-02 3.31154615e-01
      3.31154615e-01 8.44615400e-02 1.31831974e-01 3.31154615e-01
      2.37493321e-01 3.80807310e-01 3.88764665e-02 7.38368556e-02
      1.11326128e-01 2.76843667e-01 2.37602875e-01 3.80807310e-01
      5.36425412e-02 3.80807310e-01 2.18725562e-01 8.26223008e-03
      1.76201966e-02 3.80807310e-01 3.80807310e-01 1.05687432e-01
      3.42062116e-03 3.61112952e-01 3.61112952e-01 4.22736444e-02
      1.58302803e-02 3.61112952e-01 3.61112952e-01 2.21008286e-02
      1.55241962e-03 7.11651742e-02 3.61112952e-01 2.09988669e-01
      8.65392089e-02 3.61112952e-01 3.61112952e-01 1.56157419e-01</_>
    <_>
      3.49939138e-01 5.23653887e-02 6.77989200e-02 2.64588803e-01
      3.49939138e-01 4.01630476e-02 2.69122142e-03 3.49939138e-01
      3.49939138e-01 3.20463508e-01 8.50479528e-02 2.06244200e-01
      3.49939138e-01 1.64353937e-01 5.75667433e-02 3.49939138e-01
      3.02929223e-01 3.02929223e-01 9.53113437e-02 1.58080921e-01
      3.02929223e-01 3.01438183e-01 2.10612267e-01 1.92909658e-01
      3.02929223e-01 3.02929223e-01 1.67633027e-01 2.08362177e-01
      2.59439200e-01 3.02929223e-01 3.02929223e-01 9.63091403e-02
      2.78978676e-01 3.19442689e-01 2.05505550e-01 2.49090418e-01
      3.19442689e-01 3.19442689e-01 1.79825649e-01 5.82326390e-02
      3.19442689e-01 2.44737282e-01 1.72609225e-01 3.03789705e-01
      3.19442689e-01 2.92020470e-01 9.73857474e-03 3.74803841e-02</_>
    <_>
      2.99061924e-01 2.07224473e-01 2.99061924e-01 2.18327180e-01
      2.99061924e-01 8.65985751e-02 2.47379199e-01 2.99061924e-01
      2.99061924e-01 2.99061924e-01 2.99061924e-01 1.77040800e-01
      2.37257645e-01 2.10818708e-01 1.86493248e-01 2.11617500e-01
      2.88447946e-01 2.69074559e-01 2.00321659e-01 2.88447946e-01
      2.88447946e-01 1.50556162e-01 9.44907740e-02 2.77985126e-01
      2.88447946e-01 2.88447946e-01 2.88447946e-01 1.91752374e-01
      2.88447946e-01 2.88447946e-01 1.90991029e-01 1.91968933e-01
      3.32799375e-01 3.32799375e-01 2.19437882e-01 1.15796238e-01
      3.32799375e-01 3.32799375e-01 1.42944649e-01 7.04595223e-02
      3.32799375e-01 2.22285792e-01 1.03810370e-01 2.56576657e-01
      3.32799375e-01 3.32799375e-01 3.75821181e-02 8.36415067e-02</_>
    <_>
      4.52894047e-02 4.31128711e-01 2.19887868e-01 3.62310186e-02
      7.17291161e-02 4.31128711e-01 3.45408097e-02 4.98443515e-05
      1.84245616e-01 4.31128711e-01 2.09164619e-01 1.87843174e-01
      2.84649074e-01 4.31128711e-01 1.18594617e-02 2.45185592e-03
      3.03746581e-01 3.09192866e-01 1.86381996e-01 3.09192866e-01
      3.09192866e-01 3.09192866e-01 8.32673814e-03 8.70666839e-03
      3.09192866e-01 2.36304343e-01 2.18829557e-01 3.09192866e-01
      3.09192866e-01 3.09192866e-01 3.30571160e-02 1.20176030e-02
      2.97008067e-01 2.81033188e-01 2.77939647e-01 3.19927156e-01
      3.19927156e-01 3.19927156e-01 1.64024934e-01 2.24966742e-02
      9.30449814e-02 1.22237407e-01 2.62427092e-01 3.19927156e-01
      1.09422527e-01 3.19927156e-01 3.05223733e-01 1.24820486e-01</_>
    <_>
      4.46801595e-02 8.21810141e-02 4.59985107e-01 3.65248024e-02
      5.78238852e-02 1.61637366e-01 4.59985107e-01 3.40713337e-02
      5.89141026e-02 6.99507296e-02 4.59985107e-01 9.36085060e-02
      2.18644798e-01 1.79020345e-01 4.59985107e-01 1.06605828e-01
      1.45996019e-01 1.28988817e-01 3.32502753e-01 1.76650986e-01
      3.32502753e-01 2.36376047e-01 2.46050358e-01 1.99987352e-01
      2.15749234e-01 2.59683222e-01 3.07474285e-01 2.43399695e-01
      3.32502753e-01 3.32502753e-01 1.47044912e-01 1.98716775e-01
      3.04295450e-01 2.38646388e-01 2.09631756e-01 1.73544660e-01
      3.62134904e-01 3.60623389e-01 8.23999494e-02 8.59033391e-02
      3.62134904e-01 1.53052241e-01 1.31902114e-01 2.92198211e-01
      3.62134904e-01 2.99039036e-01 1.15210317e-01 7.89097771e-02</_>
    <_>
      2.67494023e-01 1.17507838e-01 2.85841018e-01 2.16047928e-01
      2.85841018e-01 2.85841018e-01 2.08979741e-01 1.75696164e-01
      2.85841018e-01 2.25369111e-01 2.85841018e-01 2.85841018e-01
      2.85841018e-01 2.85841018e-01 2.22398534e-01 1.91497281e-01
      1.94670737e-01 2.36720517e-01 2.88634211e-01 2.01768979e-01
      3.32675427e-01 3.32675427e-01 1.15897983e-01 1.29495636e-01
      3.32675427e-01 1.63634539e-01 1.08129710e-01 3.32675427e-01
      3.32675427e-01 2.21409678e-01 1.75392240e-01 2.77314305e-01
      2.91756094e-01 2.91756094e-01 1.96332380e-01 2.76556283e-01
      2.91756094e-01 2.16068909e-01 2.91756094e-01 1.79786563e-01
      2.30254546e-01 2.91756094e-01 2.78894603e-01 1.08575812e-02
      2.91756094e-01 2.91756094e-01 2.76102692e-01 6.68865908e-03</_>
    <_>
      2.55704105e-01 3.08101803e-01 2.75637597e-01 9.13816169e-02
      2.80809194e-01 3.08101803e-01 1.98682085e-01 8.37292671e-02
      2.31645808e-01 3.08101803e-01 3.08101803e-01 1.71642080e-01
      1.66706994e-01 3.08101803e-01 3.08101803e-01 2.03467056e-01
      8.76948759e-02 3.00883174e-01 3.00883174e-01 2.85434246e-01
      9.18502659e-02 3.00883174e-01 3.00883174e-01 2.88276166e-01
      8.04404765e-02 2.67166734e-01 3.00883174e-01 3.00883174e-01
      7.16202036e-02 2.43849471e-01 3.00883174e-01 2.00337499e-01
      5.06130867e-02 8.94848108e-02 3.99990559e-01 3.99990559e-01
      6.98240995e-02 1.03346162e-01 2.03099057e-01 2.50318587e-01
      1.73151158e-02 4.27978337e-02 3.99990559e-01 3.99990559e-01
      6.43932968e-02 1.13549717e-01 2.16417760e-01 3.99990559e-01</_>
    <_>
      5.00458777e-02 3.82036790e-02 3.39895576e-01 6.37289733e-02
      3.39895576e-01 5.22667319e-02 3.39895576e-01 1.80643395e-01
      3.39895576e-01 6.79687560e-02 3.39895576e-01 1.78243563e-01
      3.39895576e-01 1.18980162e-01 3.39895576e-01 3.06536943e-01
      3.07316184e-01 1.60403818e-01 3.07316184e-01 1.73749894e-01
      3.07316184e-01 1.99463457e-01 1.11978725e-01 2.10182831e-01
      3.07316184e-01 3.07316184e-01 2.79800564e-01 1.75882265e-01
      3.07316184e-01 3.07316184e-01 6.65847063e-02 2.64101893e-01
      3.01434278e-01 3.01434278e-01 2.71627814e-01 6.20442890e-02
      2.87180513e-01 3.01434278e-01 2.73950219e-01 9.77275372e-02
      2.50905424e-01 3.01434278e-01 3.01434278e-01 6.58304989e-02
      2.18882963e-01 3.01434278e-01 3.01434278e-01 3.23944017e-02</_>
    <_>
      3.31904829e-01 3.15547556e-01 5.66794313e-02 1.11430660e-01
      4.57566828e-02 5.52245416e-02 3.31904829e-01 3.31904829e-01
      3.06888998e-01 3.31904829e-01 2.88238496e-01 3.18911821e-02
      1.23135541e-02 1.92210421e-01 3.31904829e-01 3.31904829e-01
      1.76741675e-01 3.12922388e-01 3.12922388e-01 4.51045632e-02
      2.00407505e-02 3.07589591e-01 3.12922388e-01 1.38545811e-01
      2.04333469e-01 3.12922388e-01 3.12922388e-01 2.34516382e-01
      1.60724774e-01 2.39788011e-01 3.12922388e-01 2.85989285e-01
      2.57449895e-01 2.94227690e-01 2.25230649e-01 2.94227690e-01
      1.99099183e-01 2.89246887e-01 2.94227690e-01 2.94227690e-01
      1.68169871e-01 1.85299248e-01 1.32070512e-01 2.94227690e-01
      1.42740995e-01 2.56071508e-01 2.67057627e-01 2.94227690e-01</_>
    <_>
      6.05669692e-02 3.71610820e-02 2.66162694e-01 3.95217597e-01
      1.65638506e-01 4.68834713e-02 2.17112422e-01 3.95217597e-01
      1.48353040e-01 2.91758366e-02 2.61258900e-01 3.95217597e-01
      2.19379231e-01 6.85154349e-02 2.73244053e-01 3.95217597e-01
      6.03371374e-02 1.58129156e-01 3.54326606e-01 2.26015210e-01
      9.00306925e-02 2.56177694e-01 3.54326606e-01 2.54229128e-01
      3.25502865e-02 3.54326606e-01 3.54326606e-01 5.84498197e-02
      5.56013770e-02 3.54326606e-01 3.54326606e-01 1.32345170e-01
      1.22774065e-01 2.19883099e-01 2.71594882e-01 1.41183123e-01
      1.43439621e-01 1.68900684e-01 3.40481013e-01 2.54312396e-01
      3.40481013e-01 1.71034411e-01 2.53924489e-01 3.40481013e-01
      3.40481013e-01 1.01060838e-01 2.05236971e-01 3.40481013e-01</_>
    <_>
      3.60868037e-01 1.02562249e-01 3.91530655e-02 3.09166402e-01
      3.60868037e-01 1.31299242e-01 2.66615767e-02 2.57651597e-01
      3.60868037e-01 1.64495721e-01 1.10930530e-02 3.60868037e-01
      3.60868037e-01 1.81401204e-02 6.10745475e-02 3.49362701e-01
      3.16454679e-01 3.16454679e-01 6.35132864e-02 2.26321638e-01
      2.35003099e-01 8.76965895e-02 2.31034443e-01 2.75135487e-01
      3.16454679e-01 3.16454679e-01 1.78194150e-01 1.70855507e-01
      1.97001442e-01 3.15952301e-01 3.16454679e-01 2.22015902e-01
      2.50676274e-01 3.01548749e-01 2.50446320e-01 9.98028740e-02
      2.38402903e-01 3.01548749e-01 3.01548749e-01 9.14847851e-02
      2.39886686e-01 3.01548749e-01 3.01548749e-01 1.09696075e-01
      2.91418403e-01 3.01548749e-01 3.01548749e-01 7.23444745e-02</_>
    <_>
      4.42845166e-01 1.17294401e-01 1.52405922e-03 1.24245569e-01
      4.42845166e-01 6.36881292e-02 1.19719456e-03 2.44736731e-01
      4.42845166e-01 1.19578615e-01 1.21419747e-04 1.70124829e-01
      4.42845166e-01 8.66990685e-02 0. 2.59268135e-01 4.40472692e-01
      6.95914775e-02 8.66769464e-04 1.56405836e-01 4.40472692e-01
      7.60112256e-02 3.10465544e-02 2.23736450e-01 4.40472692e-01
      2.04721481e-01 6.89518973e-02 4.03913707e-02 3.07803422e-01
      2.23836079e-01 3.64745498e-01 3.55507731e-02 1.35395452e-01
      2.52853304e-01 2.37838298e-01 2.07415354e-02 2.88530365e-02
      3.03196877e-01 4.44421619e-01 3.96012748e-03 1.82154607e-02
      1.64321691e-01 4.44421619e-01 9.70712677e-02 6.85502309e-04
      3.64693046e-01 4.44421619e-01 3.50825861e-02</_>
    <_>
      9.57452431e-02 9.13593546e-02 1.36254027e-01 5.11656642e-01
      1.71039134e-01 1.93957295e-02 1.74386993e-01 5.11656642e-01
      2.56282855e-02 1.08382605e-01 1.95601776e-01 1.21173315e-01
      8.03711340e-02 9.57542285e-02 2.62559056e-01 4.74628925e-01
      7.57815735e-03 2.63527393e-01 2.69639492e-01 4.26004305e-02
      1.53116500e-02 2.49062315e-01 3.87316227e-01 7.12632909e-02
      7.80375302e-02 3.87316227e-01 3.87316227e-01 3.87665480e-02
      1.08862720e-01 3.87316227e-01 3.87316227e-01 1.23483680e-01
      3.48582357e-01 3.48582357e-01 1.69980094e-01 3.72935347e-02
      2.95692295e-01 2.72400051e-01 2.08898544e-01 1.47427842e-01
      3.48582357e-01 3.48582357e-01 4.90366248e-03 7.63281286e-02
      3.48582357e-01 1.29588157e-01 2.80816369e-02 3.29004318e-01</_>
    <_>
      1.22895069e-01 9.83893797e-02 2.93901175e-01 2.93901175e-01
      2.93901175e-01 1.90714970e-01 2.93901175e-01 2.93901175e-01
      2.93901175e-01 1.90962404e-01 1.68303072e-01 2.93901175e-01
      2.93901175e-01 1.96635529e-01 2.34623611e-01 2.93901175e-01
      1.84720248e-01 3.04688603e-01 2.42535576e-01 1.98610365e-01
      1.86045319e-01 3.04688603e-01 3.04688603e-01 2.62945533e-01
      1.44807890e-01 1.04138330e-01 3.04688603e-01 3.04688603e-01
      1.10852897e-01 2.86777884e-01 3.04688603e-01 2.78309464e-01
      6.71804622e-02 9.14949458e-03 3.55816454e-01 3.55816454e-01
      7.03451335e-02 1.10424995e-01 3.55816454e-01 3.12652886e-01
      4.17096131e-02 5.76134883e-02 3.55816454e-01 2.88616270e-01
      1.36348605e-01 1.01847403e-01 3.55816454e-01 3.55816454e-01</_>
    <_>
      1.49693545e-02 1.15055032e-01 3.09934258e-01 2.52434254e-01
      8.13842267e-02 3.09934258e-01 3.09934258e-01 1.80081069e-01
      1.84891060e-01 3.09934258e-01 3.09934258e-01 1.78801924e-01
      3.09934258e-01 2.67947257e-01 2.65142202e-01 3.09934258e-01
      3.04381043e-01 2.47577161e-01 1.50039226e-01 1.15817733e-01
      2.87667155e-01 2.06837654e-01 1.68945357e-01 2.20238224e-01
      3.04381043e-01 2.61982232e-01 1.61407813e-01 3.04381043e-01
      2.80636907e-01 3.04381043e-01 2.45913804e-01 3.04381043e-01
      3.21182936e-01 3.21182936e-01 9.65058208e-02 3.21182936e-01
      1.02709390e-01 1.18012995e-01 1.82111606e-01 3.21182936e-01
      3.21182936e-01 3.21182936e-01 1.84473619e-01 2.35569879e-01
      4.80355546e-02 1.12860553e-01 3.21182936e-01 3.21182936e-01</_>
    <_>
      1.18091740e-01 3.64972837e-02 3.41735959e-01 1.51030809e-01
      3.09724480e-01 8.23633149e-02 1.18003950e-01 1.81461573e-01
      4.09524292e-01 7.54962415e-02 1.10081010e-01 4.09524292e-01
      4.09524292e-01 3.64692099e-02 3.85122970e-02 4.09524292e-01
      3.42519879e-01 2.96347320e-01 1.67498048e-02 2.19375476e-01
      3.42519879e-01 1.11458473e-01 1.44076556e-01 3.42519879e-01
      3.42519879e-01 3.42519879e-01 6.44035265e-02 1.67019330e-02
      1.20946921e-01 3.06459785e-01 3.42519879e-01 1.01375520e-01
      2.23883778e-01 3.41364771e-01 2.07899615e-01 9.77295823e-03
      1.05025403e-01 3.41364771e-01 3.41364771e-01 1.98710784e-02
      1.14475735e-01 3.41364771e-01 2.33453527e-01 9.09212232e-02
      3.41364771e-01 3.41364771e-01 3.41364771e-01 1.18771289e-02</_>
    <_>
      2.01391980e-01 2.31782049e-01 3.16250414e-01 9.50906873e-02
      3.16250414e-01 3.16250414e-01 2.93296844e-01 5.56648187e-02
      2.33949661e-01 1.88026562e-01 3.16250414e-01 2.19274417e-01
      3.16250414e-01 3.16250414e-01 2.49773830e-01 6.12704046e-02
      2.00994402e-01 2.08354354e-01 3.08373004e-01 2.02320948e-01
      3.08373004e-01 3.08373004e-01 1.56686947e-01 2.80938894e-02
      3.08373004e-01 2.82372862e-01 3.08373004e-01 2.54194766e-01
      3.08373004e-01 3.08373004e-01 1.53185830e-01 1.15593620e-01
      2.74605930e-01 2.74605930e-01 2.74605930e-01 1.97121084e-01
      2.74605930e-01 2.59559989e-01 2.34477207e-01 1.59887016e-01
      2.71170497e-01 2.74605930e-01 2.67380983e-01 2.34131306e-01
      2.74605930e-01 2.74605930e-01 2.74605930e-01 8.58686119e-02</_>
    <_>
      1.80247456e-01 3.95700522e-02 1.81661829e-01 1.61709324e-01
      4.08587068e-01 9.92156640e-02 5.56707643e-02 1.71352252e-01
      4.13301855e-01 6.43997639e-02 6.36460707e-02 4.13301855e-01
      4.13301855e-01 3.33377831e-02 2.88820416e-02 4.13301855e-01
      3.41829926e-01 3.19001079e-01 1.36325946e-02 2.63377637e-01
      3.41829926e-01 1.15971304e-01 1.37683377e-01 3.41829926e-01
      2.79704779e-01 3.41829926e-01 4.82473783e-02 1.63028669e-02
      6.95013478e-02 3.41829926e-01 3.41829926e-01 7.82186016e-02
      1.18754603e-01 3.71245086e-01 1.41132236e-01 2.01301668e-02
      3.45048867e-02 3.71245086e-01 3.71245086e-01 1.50353294e-02
      6.62808046e-02 3.71245086e-01 1.79913566e-01 1.98715627e-01
      2.35434026e-01 3.71245086e-01 3.71245086e-01 4.27976660e-02</_>
    <_>
      3.34828228e-01 9.80185121e-02 1.68558896e-01 1.92648679e-01
      3.34828228e-01 1.97022453e-01 1.22949801e-01 3.34828228e-01
      3.34828228e-01 1.81443453e-01 2.47618973e-01 1.98986441e-01
      3.34828228e-01 2.18889639e-01 1.14812478e-01 3.34828228e-01
      3.30317289e-01 2.49959007e-01 2.85978764e-01 1.01211049e-01
      3.30317289e-01 1.86624542e-01 1.21272698e-01 2.03116715e-01
      3.30317289e-01 3.30317289e-01 3.21556211e-01 2.69130059e-02
      1.96873024e-01 3.30317289e-01 2.40255579e-01 7.24463910e-02
      1.38935387e-01 3.91203195e-01 3.23630512e-01 1.07681863e-02
      4.39990498e-02 3.91203195e-01 2.59002924e-01 1.16163651e-02
      1.80773258e-01 3.91203195e-01 2.23442540e-01 7.39397034e-02
      2.45220870e-01 3.91203195e-01 1.97588012e-01 5.81047572e-02</_>
    <_>
      3.27316970e-01 3.27316970e-01 2.41092797e-02 8.23738202e-02
      3.26994658e-01 3.27316970e-01 9.81478952e-03 3.66020948e-02
      3.27316970e-01 3.11004281e-01 3.81632261e-02 2.51450360e-01
      3.27316970e-01 3.27316970e-01 4.02185395e-02 2.74149299e-01
      2.91503698e-01 2.54127055e-01 6.46835566e-02 2.79928088e-01
      2.60882765e-01 2.91503698e-01 1.10824294e-01 2.91503698e-01
      2.91503698e-01 2.91503698e-01 1.66835994e-01 2.32298210e-01
      1.30490348e-01 2.75637299e-01 2.91503698e-01 2.91503698e-01
      2.58680850e-01 2.91391820e-01 1.94807053e-01 1.22463480e-01
      1.53470546e-01 2.88627267e-01 2.91391820e-01 2.78967917e-01
      2.79273331e-01 2.91391820e-01 2.83914059e-01 1.09703071e-01
      2.32622713e-01 2.91391820e-01 2.91391820e-01 2.07962975e-01</_>
    <_>
      2.91671485e-01 2.91671485e-01 1.70219645e-01 2.80850291e-01
      1.78003088e-01 2.91671485e-01 7.48120397e-02 2.11411744e-01
      2.91671485e-01 2.91671485e-01 1.45900160e-01 2.91671485e-01
      2.68549234e-01 2.91671485e-01 1.82409585e-01 2.91671485e-01
      2.63463140e-01 2.79354274e-01 1.97838947e-01 2.79354274e-01
      1.58015609e-01 2.79354274e-01 2.79354274e-01 2.79354274e-01
      6.36150911e-02 2.79354274e-01 2.75574416e-01 2.79354274e-01
      5.75356819e-02 2.79354274e-01 2.79354274e-01 2.79354274e-01
      4.52370383e-02 2.07429320e-01 3.11647683e-01 3.45448494e-01
      7.29582831e-02 3.45448494e-01 3.45448494e-01 3.45448494e-01
      7.93260261e-02 3.64502780e-02 2.05054641e-01 3.45448494e-01
      1.10312872e-01 8.70509893e-02 2.52199411e-01 3.45448494e-01</_>
    <_>
      1.47475079e-01 1.23965897e-01 2.43300036e-01 3.08726281e-01
      3.08726281e-01 1.22194231e-01 1.67322770e-01 3.08726281e-01
      2.41730064e-01 1.68969586e-01 3.08726281e-01 3.08726281e-01
      2.94548064e-01 2.32390285e-01 3.08726281e-01 2.40948394e-01
      1.12843961e-01 3.02369595e-01 3.19485039e-01 2.51790762e-01
      8.36686268e-02 2.10638434e-01 3.19485039e-01 9.04284939e-02
      9.70859826e-02 3.19485039e-01 3.19485039e-01 3.19485039e-01
      1.26989067e-01 3.19485039e-01 3.19485039e-01 1.72206372e-01
      8.86348411e-02 2.04615816e-01 2.72333056e-01 3.16517919e-01
      2.54644334e-01 3.16517919e-01 1.01196952e-01 2.04058379e-01
      1.58031225e-01 1.05703227e-01 3.16517919e-01 3.16517919e-01
      2.86734045e-01 3.16517919e-01 1.91725880e-01 3.16517919e-01</_>
    <_>
      2.47140616e-01 3.34621996e-01 3.34621996e-01 1.57821029e-01
      3.34621996e-01 3.34621996e-01 9.32411999e-02 1.41158804e-01
      3.34621996e-01 2.05192015e-01 1.34304866e-01 1.77722186e-01
      3.34621996e-01 3.34621996e-01 4.07317951e-02 6.97271228e-02
      1.95167705e-01 2.73813009e-01 2.82766610e-01 1.84378579e-01
      2.84601718e-01 3.61114621e-01 1.27139688e-01 3.40360440e-02
      1.12915136e-01 2.47461364e-01 3.61114621e-01 3.61114621e-01
      1.98687330e-01 3.61114621e-01 1.57844707e-01 1.05170436e-01
      2.07519680e-01 4.51005362e-02 1.45634457e-01 4.24738258e-01
      2.19736502e-01 2.78177917e-01 1.58721268e-01 2.69609988e-01
      1.67628109e-01 2.88442746e-02 1.72812641e-01 4.24738258e-01
      1.67795330e-01 8.41934234e-02 2.65806943e-01 4.24738258e-01</_>
    <_>
      2.59234071e-01 3.12668502e-01 4.81670313e-02 3.12668502e-01
      1.20412856e-01 3.12668502e-01 1.10507421e-01 3.12668502e-01
      3.12668502e-01 3.12668502e-01 8.44965577e-02 1.63726315e-01
      1.11587256e-01 3.12668502e-01 2.68610924e-01 3.12668502e-01
      2.94853151e-01 3.16669941e-01 2.66122252e-01 7.00972155e-02
      1.04587093e-01 3.16669941e-01 3.16669941e-01 2.51288801e-01
      1.19003057e-01 3.16669941e-01 3.16669941e-01 1.30700022e-01
      1.58699572e-01 3.16669941e-01 3.16669941e-01 4.11039628e-02
      1.18772328e-01 2.13885471e-01 3.06550533e-01 3.06550533e-01
      3.06550533e-01 3.06550533e-01 2.02233225e-01 8.74821916e-02
      1.76366642e-01 1.88118637e-01 3.06550533e-01 3.06550533e-01
      3.06550533e-01 3.06550533e-01 2.16511130e-01 1.52888581e-01</_>
    <_>
      1.20140284e-01 1.79621130e-01 3.19767594e-01 3.19767594e-01
      1.85320139e-01 2.25086272e-01 2.73575425e-01 3.19767594e-01
      3.40433121e-02 2.53612220e-01 3.19767594e-01 3.19767594e-01
      2.16070451e-02 3.19767594e-01 3.19767594e-01 9.24784765e-02
      3.67119461e-02 1.45175636e-01 3.41275424e-01 3.41275424e-01
      3.50762345e-02 3.22309077e-01 3.41275424e-01 1.55615628e-01
      5.27423397e-02 1.05521105e-01 3.41275424e-01 3.41275424e-01
      1.08935244e-01 1.63586855e-01 3.41275424e-01 3.05743784e-01
      4.62662168e-02 1.82135478e-01 3.53241265e-01 3.53241265e-01
      1.66421548e-01 1.77101880e-01 3.53241265e-01 3.53241265e-01
      2.74058133e-02 2.15507120e-01 3.53241265e-01 1.51300639e-01
      3.36282104e-02 2.66463369e-01 3.53241265e-01 1.05827868e-01</_>
    <_>
      4.43471014e-01 2.06047352e-02 1.83655813e-01 1.03963852e-01
      1.60749301e-01 3.13467644e-02 4.43471014e-01 1.98509499e-01
      1.55388340e-01 1.58536974e-02 4.43471014e-01 1.65501028e-01
      9.63997375e-03 1.44874994e-02 4.43471014e-01 2.13593632e-01
      1.92030482e-02 3.67346616e-03 4.61713314e-01 1.68289751e-01
      2.72552995e-03 2.24321317e-02 4.61713314e-01 1.55094385e-01
      5.88116003e-04 1.43031171e-02 4.61713314e-01 1.89114824e-01
      4.78025191e-02 1.90646350e-01 4.61713314e-01 1.21665493e-01
      1.88672617e-02 1.73394252e-02 3.44726503e-01 2.58105338e-01
      2.71117091e-01 2.30222836e-01 3.44726503e-01 1.96610078e-01
      9.80298892e-02 4.31636013e-02 3.44726503e-01 3.44726503e-01
      3.44726503e-01 1.21006392e-01 1.58065364e-01 3.44726503e-01</_>
    <_>
      2.89573163e-01 2.79225439e-01 1.22691914e-01 2.27065191e-01
      2.89573163e-01 2.54637450e-01 1.11487590e-01 2.64020413e-01
      2.89573163e-01 2.89573163e-01 1.91877708e-01 2.89573163e-01
      1.98826864e-01 2.89573163e-01 2.11353064e-01 2.85334975e-01
      2.95573354e-01 2.46484846e-01 7.05873892e-02 2.95573354e-01
      1.99049294e-01 2.08263367e-01 8.31532404e-02 2.95573354e-01
      2.38842800e-01 2.95573354e-01 1.81211278e-01 2.95573354e-01
      2.95573354e-01 2.95573354e-01 2.29364619e-01 2.95573354e-01
      3.13941866e-01 3.53328377e-01 1.48652449e-01 1.97636783e-01
      3.53328377e-01 3.53328377e-01 1.65310204e-01 1.86208904e-01
      2.98176378e-01 1.94862530e-01 1.97839476e-02 1.38319954e-01
      3.53328377e-01 3.53328377e-01 3.36197056e-02 5.48830368e-02</_>
    <_>
      3.16500276e-01 3.16500276e-01 1.11377329e-01 2.52192944e-01
      3.16500276e-01 3.16500276e-01 2.59768758e-02 1.29323542e-01
      3.16500276e-01 2.27635026e-01 1.50461093e-01 2.99397171e-01
      3.16500276e-01 3.16500276e-01 1.44656435e-01 1.31166056e-01
      2.27115467e-01 2.74646461e-01 2.65027642e-01 1.32095546e-01
      2.82779336e-01 2.82779336e-01 1.59244284e-01 2.02398509e-01
      2.82779336e-01 2.82779336e-01 2.63817877e-01 1.96890011e-01
      2.82779336e-01 2.82779336e-01 2.82779336e-01 2.19168097e-01
      2.03950569e-01 3.10565084e-01 2.02775598e-01 2.86103606e-01
      2.41131738e-01 3.10565084e-01 3.10565084e-01 2.19827682e-01
      6.88838884e-02 2.78909028e-01 1.11818671e-01 3.10565084e-01
      1.02952629e-01 2.54837334e-01 2.70232528e-01 3.10565084e-01</_>
    <_>
      6.45194575e-02 1.79323271e-01 3.35644573e-01 2.17454866e-01
      1.29125893e-01 2.03116655e-01 3.35644573e-01 3.35644573e-01
      1.03275537e-01 1.31678879e-01 3.35644573e-01 3.35644573e-01
      1.38864592e-01 1.38639584e-01 3.35644573e-01 3.35644573e-01
      3.32399458e-02 4.50606868e-02 3.82408261e-01 2.00864673e-01
      8.95818174e-02 1.44000873e-01 3.82408261e-01 1.92169338e-01
      3.64016183e-03 3.10484409e-01 3.82408261e-01 1.17442012e-01
      6.87775686e-02 3.82408261e-01 3.82408261e-01 2.02213511e-01
      8.57528765e-03 3.43261927e-01 3.43261927e-01 5.13098650e-02
      2.84661315e-02 3.43261927e-01 3.43261927e-01 8.81468877e-02
      6.77111000e-02 3.31121415e-01 3.43261927e-01 1.18882544e-01
      6.93650916e-02 3.08463752e-01 3.43261927e-01 2.23586470e-01</_>
    <_>
      2.45373875e-01 1.73617363e-01 2.60660589e-01 1.22578710e-01
      3.29276323e-01 2.28685245e-01 8.98868889e-02 3.29276323e-01
      3.29276323e-01 2.21622735e-01 2.93460935e-01 1.10531926e-01
      3.29276323e-01 2.56330848e-01 8.79732072e-02 3.29276323e-01
      3.52401465e-01 1.71849936e-01 1.09757856e-01 7.67446980e-02
      3.52401465e-01 1.09760158e-01 5.25917225e-02 2.53128260e-01
      3.52401465e-01 3.52401465e-01 1.35930955e-01 5.28509542e-02
      2.99997211e-01 3.46051067e-01 3.52401465e-01 1.34792209e-01
      2.66996741e-01 2.96139061e-01 2.33978897e-01 6.98284283e-02
      6.41275644e-02 2.96139061e-01 2.96139061e-01 1.21707201e-01
      2.03026876e-01 2.96139061e-01 2.96139061e-01 1.29233778e-01
      2.96139061e-01 2.96139061e-01 2.96139061e-01 2.96139061e-01</_>
    <_>
      1.08965211e-01 3.00955296e-01 3.00955296e-01 3.00955296e-01
      8.59441012e-02 2.49449149e-01 2.43183881e-01 3.00381988e-01
      1.86218068e-01 3.00955296e-01 1.65228203e-01 3.00955296e-01
      2.07275778e-01 3.00955296e-01 1.64866194e-01 3.00955296e-01
      1.90063611e-01 3.17843169e-01 1.20853499e-01 1.69556335e-01
      2.24474996e-01 3.17843169e-01 2.47587472e-01 3.16978782e-01
      2.33345464e-01 3.17843169e-01 1.40010059e-01 1.69927835e-01
      3.17843169e-01 3.17843169e-01 2.60880411e-01 1.70506522e-01
      2.73343712e-01 3.04396749e-01 2.02560440e-01 2.48718575e-01
      2.15626016e-01 3.04396749e-01 3.04396749e-01 1.17870159e-01
      2.10180447e-01 1.53258026e-01 1.80289537e-01 3.04396749e-01
      2.42359698e-01 3.04396749e-01 2.10027009e-01 3.04396749e-01</_>
    <_>
      1.49404451e-01 1.58711744e-03 4.20482606e-02 4.03944224e-01
      4.03944224e-01 2.24161358e-03 1.58691742e-02 4.03944224e-01
      2.84594804e-01 4.70012985e-02 6.22264715e-03 2.68624067e-01
      4.03944224e-01 1.89730991e-02 5.97716062e-05 4.03944224e-01
      2.22226530e-01 4.34870094e-01 3.61586139e-02 6.41009659e-02
      2.71156728e-01 2.67720461e-01 2.89862510e-02 3.41874659e-01
      4.20034304e-02 4.34870094e-01 2.02479869e-01 2.18974287e-03
      5.04345410e-02 4.34870094e-01 2.51088113e-01 4.73728590e-02
      3.55683230e-02 4.38243836e-01 1.66200563e-01 0. 3.04705016e-02
      4.38243836e-01 2.26361051e-01 1.47781742e-04 6.73441067e-02
      4.38243836e-01 1.47247851e-01 2.56283325e-03 4.64064740e-02
      4.38243836e-01 3.43450308e-01 9.16365418e-04</_>
    <_>
      1.57849595e-01 3.17823559e-01 3.17823559e-01 1.95165172e-01
      1.22496225e-01 3.17823559e-01 3.17823559e-01 2.32999086e-01
      3.17823559e-01 1.59608603e-01 1.45783275e-01 3.17823559e-01
      1.38056159e-01 1.22351222e-01 2.76920170e-01 3.17823559e-01
      2.94975102e-01 2.07935423e-02 7.51286671e-02 3.43556285e-01
      2.87687093e-01 2.26445738e-02 1.31277710e-01 3.43556285e-01
      1.16482370e-01 1.12581976e-01 3.43556285e-01 3.43556285e-01
      2.03428134e-01 1.64798394e-01 3.43556285e-01 3.43556285e-01
      2.39191055e-02 1.64178744e-01 3.99474561e-01 2.05644935e-01
      3.60570550e-02 2.17207938e-01 3.99474561e-01 3.17721874e-01
      3.97499390e-02 6.84234947e-02 3.99474561e-01 2.55196035e-01
      4.26122434e-02 7.69229680e-02 3.99474561e-01 2.43570387e-01</_>
    <_>
      3.43673438e-01 8.52134153e-02 3.43673438e-01 1.61353573e-01
      3.43673438e-01 6.77197352e-02 8.65512937e-02 2.06617728e-01
      3.43673438e-01 2.25342289e-01 3.43673438e-01 1.25919729e-01
      3.43673438e-01 1.42106563e-01 7.08214641e-02 3.28615844e-01
      3.40832263e-01 3.40832263e-01 1.40336305e-01 2.14328580e-02
      3.40832263e-01 2.89853126e-01 7.76868612e-02 1.76158667e-01
      3.40832263e-01 3.40832263e-01 6.77769035e-02 8.00127909e-03
      3.40832263e-01 3.40832263e-01 1.45054832e-01 1.28428966e-01
      3.45291615e-01 3.45291615e-01 4.77512144e-02 4.36128862e-02
      3.21818918e-01 3.45291615e-01 8.72239098e-02 5.45875989e-02
      3.45291615e-01 3.45291615e-01 1.00789152e-01 1.56156003e-01
      3.45291615e-01 3.45291615e-01 8.90809298e-02 3.39096189e-02</_>
    <_>
      3.96489576e-02 2.61797737e-02 2.02273428e-02 3.36965248e-02
      1.29544482e-01 8.28517973e-02 2.52017938e-02 1.13419846e-01
      4.98771399e-01 8.35916102e-02 8.22049007e-02 2.89039671e-01
      4.98771399e-01 3.22852314e-01 7.89282471e-02 4.98771399e-01
      3.44454259e-01 8.62909704e-02 4.43485789e-02 2.04500094e-01
      3.44454259e-01 2.16189712e-01 6.24952838e-02 3.40727597e-01
      3.44454259e-01 2.61202067e-01 1.57831088e-01 2.08159894e-01
      3.44454259e-01 3.44454259e-01 1.88254416e-01 1.15909785e-01
      1.23548046e-01 1.80502385e-01 2.12357506e-01 3.51043671e-01
      3.51043671e-01 3.51043671e-01 1.49136111e-01 7.40558580e-02
      2.31050774e-01 1.57247074e-02 1.57002687e-01 3.51043671e-01
      3.51043671e-01 2.59508431e-01 5.97903989e-02 3.32364947e-01</_>
    <_>
      3.38008314e-01 3.38008314e-01 4.83944193e-02 1.04011588e-01
      3.38008314e-01 3.38008314e-01 5.74080832e-03 4.02390882e-02
      3.38008314e-01 2.17270240e-01 3.98259126e-02 2.18148917e-01
      3.38008314e-01 3.03868234e-01 5.27946725e-02 3.23740661e-01
      3.46030295e-01 3.46030295e-01 1.19012043e-01 1.12703197e-01
      2.65964210e-01 3.46030295e-01 1.65256202e-01 2.79958874e-01
      1.54375866e-01 3.46030295e-01 2.71821558e-01 6.24433197e-02
      2.39000037e-01 3.46030295e-01 1.51265070e-01 1.13790534e-01
      2.40006581e-01 3.22178870e-01 1.61793679e-01 1.26288027e-01
      3.22178870e-01 3.22178870e-01 3.61153595e-02 2.43572835e-02
      3.22178870e-01 3.22178870e-01 2.07043082e-01 3.22178870e-01
      3.22178870e-01 3.22178870e-01 1.29764482e-01 7.10970759e-02</_>
    <_>
      3.27605009e-01 7.83033371e-02 2.19332442e-01 3.27605009e-01
      5.91037236e-02 1.81132238e-02 3.02904338e-01 3.27605009e-01
      1.32011712e-01 2.40130141e-01 3.27605009e-01 3.24995309e-01
      1.08026028e-01 1.02881700e-01 3.27605009e-01 3.27605009e-01
      5.20199351e-02 3.17945421e-01 3.17945421e-01 2.15688065e-01
      2.44621471e-01 1.71175778e-01 3.17945421e-01 3.17945421e-01
      2.01022834e-01 3.17945421e-01 1.80379525e-01 1.41867787e-01
      1.78540885e-01 1.86324269e-01 3.17945421e-01 3.03730428e-01
      3.36140960e-01 2.34715715e-01 5.49047925e-02 3.32833618e-01
      1.43332809e-01 1.06661424e-01 3.22328776e-01 3.10011566e-01
      3.35088909e-01 2.23744977e-02 1.37212783e-01 3.36140960e-01
      3.28602761e-01 1.46252764e-02 1.30593836e-01 3.36140960e-01</_>
    <_>
      3.43034953e-01 3.81796472e-02 3.43034953e-01 1.96479663e-01
      3.43034953e-01 1.09646074e-01 8.94447044e-02 2.64195502e-01
      3.43034953e-01 2.38476872e-01 9.00818706e-02 2.66603082e-01
      3.43034953e-01 1.56025857e-01 1.56033281e-02 3.43034953e-01
      3.26352894e-01 3.26352894e-01 5.27418405e-02 2.52351284e-01
      3.26352894e-01 3.26352894e-01 4.99810949e-02 1.37910932e-01
      1.93076313e-01 3.26352894e-01 2.06455544e-01 3.26352894e-01
      1.86683595e-01 3.26352894e-01 2.11144850e-01 6.22898303e-02
      5.10416552e-02 2.98820972e-01 2.23342106e-01 3.60884637e-01
      8.57298002e-02 3.60884637e-01 2.37984121e-01 2.02844694e-01
      7.26115033e-02 5.34430742e-02 1.51625603e-01 3.60884637e-01
      2.63064057e-01 3.40215236e-01 1.11635931e-01 3.60884637e-01</_>
    <_>
      2.88730621e-01 3.11466902e-01 1.68197900e-01 8.83895978e-02
      1.78288624e-01 3.11466902e-01 3.11466902e-01 2.50404328e-01
      3.11466902e-01 3.11466902e-01 8.68090987e-02 2.34034956e-01
      3.11466902e-01 3.11466902e-01 1.35010839e-01 1.52684078e-01
      3.18781972e-01 7.76462629e-02 1.52604356e-02 3.18781972e-01
      3.18781972e-01 4.84789945e-02 4.40612547e-02 3.18781972e-01
      3.18781972e-01 3.18781972e-01 3.75633687e-02 3.18781972e-01
      3.18781972e-01 7.74641857e-02 2.53479779e-01 3.18781972e-01
      3.06614906e-01 3.06614906e-01 7.38631040e-02 6.56602904e-02
      2.88188696e-01 2.15162575e-01 3.06614906e-01 3.06614906e-01
      3.06614906e-01 3.06614906e-01 1.60056010e-01 6.88526034e-02
      2.38898382e-01 2.91809767e-01 3.06614906e-01 1.64768428e-01</_>
    <_>
      2.03504950e-01 4.10707854e-02 3.28982681e-01 1.80084541e-01
      3.28982681e-01 1.12933382e-01 3.28982681e-01 2.14593694e-01
      2.59766370e-01 1.75799295e-01 3.28982681e-01 2.63943672e-01
      3.28982681e-01 3.28982681e-01 1.74252465e-01 1.20769724e-01
      1.96953744e-01 2.32754722e-01 3.16473186e-01 2.73737371e-01
      3.16473186e-01 3.16473186e-01 7.31439218e-02 3.96145657e-02
      3.16473186e-01 1.93729997e-01 3.16473186e-01 2.85889953e-01
      3.16473186e-01 3.16473186e-01 3.33121903e-02 2.36612931e-02
      4.39849824e-01 8.53100792e-02 2.21646801e-01 2.49969035e-01
      4.39849824e-01 1.94185764e-01 6.80988701e-03 5.23593798e-02
      4.39849824e-01 8.48880634e-02 8.31025913e-02 1.49324819e-01
      4.39849824e-01 7.69468024e-02 2.66850218e-02 1.38948321e-01</_>
    <_>
      2.22645864e-01 2.81532556e-01 2.35507905e-01 1.96512148e-01
      2.90972859e-01 2.90972859e-01 2.90972859e-01 2.64560848e-01
      2.05289200e-01 1.86406299e-01 2.60324061e-01 1.78755209e-01
      2.43971705e-01 2.90972859e-01 2.90972859e-01 2.11485133e-01
      3.08070272e-01 1.85790807e-01 2.93081522e-01 2.26812929e-01
      3.08070272e-01 2.14676559e-01 2.07309648e-01 3.08070272e-01
      3.08070272e-01 1.42689019e-01 1.41654000e-01 1.84251741e-01
      3.08070272e-01 2.47813284e-01 1.75411567e-01 3.08070272e-01
      2.70887196e-01 1.48346305e-01 1.25249550e-01 7.54200667e-02
      2.87511438e-01 2.87511438e-01 2.67642140e-01 2.59986371e-01
      2.71765649e-01 2.39958450e-01 2.75806576e-01 2.10653469e-01
      2.87511438e-01 2.87511438e-01 2.87511438e-01 2.75580585e-01</_>
    <_>
      4.15688567e-02 3.19037825e-01 3.19037825e-01 2.51787752e-01
      5.70965670e-02 3.19037825e-01 3.19037825e-01 1.56866595e-01
      6.42232746e-02 3.19037825e-01 3.19037825e-01 3.19037825e-01
      1.18181303e-01 3.19037825e-01 1.87519535e-01 1.90483615e-01
      4.63760421e-02 3.27457219e-01 2.72690177e-01 3.27457219e-01
      1.19756244e-01 3.27457219e-01 1.12145931e-01 2.59558856e-01
      2.72141900e-02 2.21064508e-01 2.80368388e-01 3.27457219e-01
      1.19420059e-01 3.27457219e-01 2.00203374e-01 3.27457219e-01
      9.47786588e-03 1.24042332e-01 2.51234710e-01 3.55410039e-01
      6.15342408e-02 3.55410039e-01 2.63414145e-01 3.55410039e-01
      2.86758356e-02 1.16516218e-01 2.09115177e-01 3.55410039e-01
      2.49892399e-02 2.34117597e-01 3.15493137e-01 3.55410039e-01</_>
    <_>
      7.64550716e-02 3.29281449e-01 2.08348036e-01 2.69142866e-01
      6.81507140e-02 3.29281449e-01 1.67247429e-01 2.79320534e-02
      3.15792412e-01 1.42829210e-01 2.28514180e-01 3.29281449e-01
      3.29281449e-01 3.29281449e-01 1.36820480e-01 3.29281449e-01
      3.13622802e-01 7.86708072e-02 7.87284225e-02 3.13622802e-01
      3.13622802e-01 9.17245299e-02 1.92289595e-02 3.13622802e-01
      3.13622802e-01 3.01663667e-01 1.07517362e-01 2.67042905e-01
      3.13622802e-01 3.13622802e-01 1.22265197e-01 3.13622802e-01
      2.97604650e-01 2.97604650e-01 1.41413301e-01 2.32007474e-01
      2.97604650e-01 2.97604650e-01 2.89585114e-01 1.57525495e-01
      2.03333914e-01 2.97604650e-01 1.81911528e-01 2.22419769e-01
      2.37131596e-01 2.97604650e-01 2.97604650e-01 1.20037183e-01</_>
    <_>
      1.95730418e-01 1.11930288e-01 3.14638019e-01 1.89893469e-01
      1.69033006e-01 3.14638019e-01 3.14638019e-01 2.91190684e-01
      1.63502634e-01 9.22216624e-02 3.14638019e-01 3.14638019e-01
      1.94700226e-01 1.74550489e-01 3.14638019e-01 3.14638019e-01
      1.62144050e-01 1.13145754e-01 2.37321317e-01 3.09359014e-01
      1.28137529e-01 7.61438087e-02 3.09359014e-01 3.09359014e-01
      1.86293885e-01 3.09359014e-01 3.05791855e-01 2.56875873e-01
      1.97201192e-01 2.68275887e-01 3.09359014e-01 3.09359014e-01
      1.00179024e-01 2.84420937e-01 1.98799253e-01 1.65220514e-01
      1.18663110e-01 2.84420937e-01 2.75782526e-01 2.84420937e-01
      2.84420937e-01 2.19750687e-01 2.84420937e-01 2.84420937e-01
      2.84420937e-01 2.49310151e-01 2.69366115e-01 2.84420937e-01</_>
    <_>
      2.82531619e-01 2.98885673e-01 2.98885673e-01 2.49253228e-01
      9.97795314e-02 8.59748349e-02 2.98885673e-01 2.98885673e-01
      2.06711590e-01 2.98885673e-01 2.98885673e-01 2.13956699e-01
      1.06193662e-01 1.52542114e-01 2.98885673e-01 2.98885673e-01
      2.65371233e-01 8.13730508e-02 1.70611575e-01 3.48911136e-01
      1.81899384e-01 6.74955174e-02 2.18217432e-01 3.48911136e-01
      3.48911136e-01 9.90010872e-02 2.40146279e-01 3.48911136e-01
      1.98055625e-01 3.29014063e-02 2.97700107e-01 3.48911136e-01
      2.50688344e-01 9.48305205e-02 2.71790683e-01 3.23333204e-01
      1.50069550e-01 2.24599615e-02 3.13483894e-01 3.23333204e-01
      2.99989164e-01 3.66846547e-02 3.23333204e-01 3.23333204e-01
      9.88622680e-02 3.72172073e-02 3.23333204e-01 3.23333204e-01</_>
    <_>
      4.79247421e-02 7.89709315e-02 3.49313438e-01 1.52084216e-01
      3.49313438e-01 2.18352303e-01 3.49313438e-01 1.30258337e-01
      5.64481653e-02 2.24643856e-01 3.49313438e-01 2.09915116e-01
      3.49313438e-01 3.49313438e-01 2.42049828e-01 1.08532719e-01
      4.19816598e-02 2.26480454e-01 3.37026924e-01 2.39195645e-01
      1.68604374e-01 3.37026924e-01 2.25365922e-01 8.07476565e-02
      1.91790149e-01 1.66536748e-01 3.37026924e-01 2.50885487e-01
      3.37026924e-01 3.37026924e-01 1.41388327e-01 2.91953534e-01
      2.14388445e-01 2.02378944e-01 3.12824070e-01 1.58491984e-01
      3.12824070e-01 3.12824070e-01 9.08282325e-02 1.94095120e-01
      3.12824070e-01 3.12824070e-01 1.91853538e-01 3.08661282e-01
      3.12824070e-01 3.12824070e-01 4.15457003e-02 1.41754016e-01</_>
    <_>
      2.51052409e-01 1.32544413e-01 1.32915318e-01 3.23576093e-01
      1.89287499e-01 2.29562655e-01 3.23576093e-01 2.37563908e-01
      2.18703672e-01 1.97778642e-01 3.23576093e-01 3.23576093e-01
      1.29472315e-01 1.47037297e-01 3.23576093e-01 3.23576093e-01
      1.71842679e-01 1.73415780e-01 2.77006447e-01 2.82754809e-01
      1.25966370e-01 6.01766370e-02 3.08747977e-01 3.08747977e-01
      1.81344241e-01 3.08747977e-01 3.05268794e-01 1.80928975e-01
      2.17186198e-01 2.80239016e-01 3.08747977e-01 3.08747977e-01
      1.60190299e-01 2.96345532e-01 2.06737399e-01 1.10199012e-01
      1.55632854e-01 2.96345532e-01 2.96345532e-01 2.96345532e-01
      2.96345532e-01 1.94862247e-01 2.82009751e-01 2.96345532e-01
      1.85171381e-01 2.26472601e-01 2.96345532e-01 2.72852212e-01</_>
    <_>
      2.99953282e-01 1.01179525e-01 3.12803417e-01 3.12803417e-01
      1.30530685e-01 1.16352089e-01 2.63066769e-01 1.26362428e-01
      2.47983128e-01 1.16456836e-01 3.12803417e-01 3.12803417e-01
      3.12803417e-01 2.06811309e-01 2.84144431e-01 3.05157095e-01
      2.15154558e-01 7.85697475e-02 2.24824488e-01 3.03327590e-01
      3.03327590e-01 2.80598938e-01 1.62668556e-01 3.03327590e-01
      1.68523073e-01 2.22286358e-01 1.76102892e-01 1.89432010e-01
      3.03327590e-01 3.03327590e-01 3.03327590e-01 3.03327590e-01
      1.82052702e-01 2.00427055e-01 1.73939288e-01 1.28403470e-01
      2.91754782e-01 2.91754782e-01 2.91754782e-01 2.88141578e-01
      2.91754782e-01 2.77195841e-01 1.45253628e-01 1.22880548e-01
      2.91754782e-01 2.91754782e-01 2.91754782e-01 2.91754782e-01</_>
    <_>
      3.99693161e-01 4.31231223e-02 2.03571439e-01 2.25772500e-01
      3.99693161e-01 2.95299403e-02 1.08890839e-01 1.78202644e-01
      3.99693161e-01 1.65559679e-01 1.01557031e-01 2.55398780e-01
      3.99693161e-01 9.65672284e-02 1.55131310e-01 2.86156803e-01
      3.02728981e-01 3.02728981e-01 1.38257369e-01 2.06504658e-01
      1.77688643e-01 3.02728981e-01 2.04536125e-01 2.00834587e-01
      2.34078199e-01 3.02728981e-01 3.02728981e-01 3.02728981e-01
      1.22414395e-01 3.02728981e-01 3.02728981e-01 1.36148706e-01
      1.43499121e-01 3.06272924e-01 3.06272924e-01 2.35092118e-01
      1.31305456e-01 3.06272924e-01 3.06272924e-01 8.71495530e-02
      2.11341858e-01 3.06272924e-01 2.72397995e-01 3.06272924e-01
      2.82655627e-01 3.06272924e-01 1.42780110e-01 1.43091112e-01</_>
    <_>
      9.46463719e-02 3.17291707e-01 3.34156483e-01 1.34129867e-01
      3.66539061e-02 3.34156483e-01 3.34156483e-01 7.66587928e-02
      2.04371959e-01 9.74462256e-02 2.38556638e-01 3.34156483e-01
      3.34156483e-01 9.59853604e-02 2.72889584e-01 3.34156483e-01
      3.29568744e-01 5.53825684e-02 3.75209861e-02 3.29568744e-01
      3.29568744e-01 1.36779426e-02 4.51064631e-02 3.29568744e-01
      3.29568744e-01 5.32390960e-02 2.12319583e-01 3.29568744e-01
      3.05330932e-01 2.84677856e-02 2.96226352e-01 3.29568744e-01
      1.47449002e-01 1.00241952e-01 3.39895695e-01 3.39895695e-01
      9.44572240e-02 3.59756388e-02 3.39895695e-01 3.39895695e-01
      1.15399607e-01 1.03540964e-01 3.39895695e-01 3.39895695e-01
      7.60361329e-02 2.33611353e-02 3.39895695e-01 3.39895695e-01</_>
    <_>
      1.85582712e-01 6.31494401e-03 3.19238931e-01 3.19238931e-01
      3.19238931e-01 3.46081331e-02 2.91998446e-01 2.66750932e-01
      3.19238931e-01 5.39408997e-02 3.19238931e-01 3.19238931e-01
      3.19238931e-01 1.11017585e-01 1.94372788e-01 1.95710614e-01
      3.24394941e-01 1.16070546e-01 3.24394941e-01 2.53376573e-01
      3.24394941e-01 1.50363356e-01 6.07301369e-02 1.10851519e-01
      3.24394941e-01 3.24394941e-01 3.24394941e-01 1.46191686e-01
      3.24394941e-01 3.24394941e-01 1.08271919e-01 7.44970590e-02
      3.29416037e-01 3.29416037e-01 2.49523297e-01 7.17372447e-02
      3.29416037e-01 3.29416037e-01 1.21327288e-01 1.70060303e-02
      3.29416037e-01 3.29416037e-01 6.08554408e-02 1.99188039e-01
      3.29416037e-01 3.29416037e-01 4.49589901e-02 2.77665984e-02</_>
    <_>
      7.08043352e-02 1.03472464e-01 3.02977592e-01 2.84367174e-01
      3.34715873e-01 3.54380935e-01 1.30482003e-01 1.19549185e-01
      3.54380935e-01 4.32796068e-02 1.27766192e-01 3.54380935e-01
      3.54380935e-01 1.30841538e-01 3.84833738e-02 3.54380935e-01
      3.48041505e-01 2.43974596e-01 2.00737175e-02 2.72303462e-01
      3.48041505e-01 2.20590532e-01 7.51993507e-02 3.48041505e-01
      2.72763669e-01 3.48041505e-01 8.85380358e-02 3.61137949e-02
      1.65211439e-01 3.48041505e-01 2.92914480e-01 7.63564110e-02
      6.48228303e-02 3.75045508e-01 3.18112880e-01 5.61559349e-02
      8.01896863e-03 3.75045508e-01 3.75045508e-01 6.81817578e-03
      1.33802276e-03 7.13931173e-02 3.75045508e-01 1.88262016e-01
      1.18444851e-02 3.75045508e-01 3.75045508e-01 5.43564707e-02</_>
    <_>
      1.25535756e-01 3.90149164e-03 3.24062318e-01 3.42130393e-01
      1.55818924e-01 8.43049400e-03 2.21122563e-01 3.42130393e-01
      3.02340269e-01 2.02938523e-02 3.42130393e-01 3.42130393e-01
      8.95888507e-02 1.94476601e-02 3.42130393e-01 3.42130393e-01
      2.05787182e-01 8.61890242e-02 3.32174748e-01 3.32174748e-01
      3.09945401e-02 6.25931798e-03 3.32174748e-01 3.32174748e-01
      1.23495199e-01 2.15327188e-01 3.32174748e-01 3.32174748e-01
      3.28940526e-02 2.20216438e-02 3.32174748e-01 3.32174748e-01
      8.29226524e-02 1.85162157e-01 3.41377795e-01 3.41377795e-01
      4.98451740e-02 7.18218163e-02 3.41377795e-01 3.41377795e-01
      4.05785851e-02 6.91008419e-02 3.41377795e-01 3.41377795e-01
      7.03084841e-02 6.41079992e-02 3.41377795e-01 3.41377795e-01</_>
    <_>
      6.24797009e-02 1.19720856e-02 3.61074656e-01 2.88065284e-01
      3.61074656e-01 8.39299560e-02 2.24864483e-01 1.38924554e-01
      3.61074656e-01 2.29486753e-03 2.20916554e-01 3.61074656e-01
      3.61074656e-01 1.14363916e-02 3.55790406e-02 3.61074656e-01
      3.91831696e-01 1.79681107e-02 3.03890742e-02 3.91831696e-01
      3.91831696e-01 1.52037479e-02 8.87820264e-04 3.91831696e-01
      3.91831696e-01 1.44164667e-01 1.72620185e-03 1.16407648e-01
      3.91831696e-01 1.77124053e-01 7.94813689e-03 8.74156505e-02
      3.51340234e-01 3.36505055e-01 1.88809889e-03 3.37512754e-02
      3.51340234e-01 3.51340234e-01 2.37911902e-02 1.75043270e-02
      3.51340234e-01 3.51340234e-01 1.37611469e-02 8.31034686e-03
      3.51340234e-01 3.51340234e-01 1.27178609e-01 2.69518476e-02</_>
    <_>
      2.48933882e-01 3.00355524e-01 3.00355524e-01 1.64820045e-01
      3.00355524e-01 3.00355524e-01 2.70147979e-01 2.23969713e-01
      2.09378272e-01 3.00355524e-01 1.87313050e-01 9.90498215e-02
      2.22449124e-01 3.00355524e-01 3.00355524e-01 1.22509837e-01
      1.89570814e-01 3.36195827e-01 2.51728058e-01 8.84770080e-02
      1.02117419e-01 3.36195827e-01 3.36195827e-01 1.41493574e-01
      1.57283559e-01 3.36195827e-01 2.78540611e-01 1.18531212e-01
      1.05885930e-01 3.26762259e-01 3.36195827e-01 2.44057178e-01
      1.41401961e-01 2.31095597e-01 2.90330052e-01 2.27290496e-01
      2.00864226e-01 2.92776555e-01 2.92776555e-01 2.92776555e-01
      1.50986895e-01 1.20771624e-01 2.92776555e-01 2.92776555e-01
      2.09622219e-01 2.92776555e-01 2.92776555e-01 2.56952465e-01</_>
    <_>
      3.14431638e-02 1.00765713e-01 3.50397766e-01 1.83578178e-01
      8.76711234e-02 1.82123348e-01 3.50397766e-01 2.95514315e-01
      1.85790181e-01 1.76690981e-01 3.50397766e-01 2.85970479e-01
      2.52276331e-01 2.41404355e-01 2.50841141e-01 3.50397766e-01
      3.10133159e-01 1.26701042e-01 2.30431437e-01 2.29308754e-01
      3.10133159e-01 8.39704573e-02 7.64106736e-02 3.10133159e-01
      3.10133159e-01 3.10133159e-01 1.33736894e-01 2.07890660e-01
      3.10133159e-01 1.78079501e-01 3.10133159e-01 3.10133159e-01
      2.57948935e-01 3.05791467e-01 2.02893496e-01 1.95125282e-01
      1.47647753e-01 3.05791467e-01 3.05791467e-01 1.92708522e-01
      3.14108394e-02 3.05791467e-01 2.90326148e-01 3.05791467e-01
      1.92382231e-01 3.05791467e-01 3.05791467e-01 1.24035299e-01</_>
    <_>
      5.91318011e-02 4.77734476e-01 2.47384742e-01 3.63248587e-02
      5.37630543e-02 4.77734476e-01 2.41490975e-01 1.59900133e-02
      7.70307109e-02 2.54276067e-01 2.58257747e-01 5.29751107e-02
      9.64874551e-02 4.77734476e-01 1.63432896e-01 8.33339691e-02
      3.91163200e-01 1.56041741e-01 8.56457129e-02 2.33344391e-01
      2.92129666e-01 2.19189525e-01 3.87318321e-02 2.56398588e-01
      3.91163200e-01 1.37195410e-02 1.84029061e-02 3.91163200e-01
      2.95723557e-01 2.15105936e-02 9.41146910e-02 3.91163200e-01
      2.03689978e-01 0. 6.65866062e-02 4.09997672e-01 5.25796041e-02
      2.02193968e-02 2.42173865e-01 4.09997672e-01 4.96462397e-02 0.
      2.12238789e-01 4.09997672e-01 7.38001661e-03 1.02187200e-02
      4.09997672e-01 4.09997672e-01</_>
    <_>
      1.85736120e-01 2.29067519e-01 1.45827994e-01 4.86680083e-02
      3.16336721e-01 2.46991634e-01 1.51323855e-01 1.92726061e-01
      3.16336721e-01 3.16336721e-01 2.74625808e-01 1.14593506e-01
      3.16336721e-01 3.16336721e-01 3.16336721e-01 2.76085824e-01
      2.89466113e-01 1.92211598e-01 1.13557383e-01 1.45166248e-01
      2.89466113e-01 2.29333431e-01 2.89466113e-01 2.89466113e-01
      2.89466113e-01 2.89466113e-01 1.82702944e-01 1.04762867e-01
      2.89466113e-01 2.74095654e-01 2.89466113e-01 2.89466113e-01
      3.05542558e-01 3.05542558e-01 1.50121450e-01 1.17356703e-01
      3.05542558e-01 2.48144940e-01 3.05542558e-01 3.05542558e-01
      2.17317805e-01 3.05542558e-01 2.29013517e-01 4.47246544e-02
      1.80337936e-01 3.05542558e-01 3.05542558e-01 1.34222150e-01</_>
    <_>
      6.40185177e-02 3.52745026e-01 3.56836736e-01 1.81805208e-01
      2.52572596e-01 3.56836736e-01 1.41401082e-01 6.38964549e-02
      4.64427769e-02 1.57051399e-01 3.19559604e-01 3.08669955e-01
      3.56836736e-01 3.56836736e-01 6.93706498e-02 9.28686634e-02
      6.77282214e-02 5.66942655e-02 2.60280788e-01 3.08254153e-01
      3.08254153e-01 3.08254153e-01 7.02252984e-02 1.00974634e-01
      3.08254153e-01 2.12561041e-01 3.08254153e-01 3.08254153e-01
      3.08254153e-01 3.08254153e-01 1.51369706e-01 2.79257715e-01
      2.66939938e-01 2.66939938e-01 2.66939938e-01 2.66939938e-01
      2.66939938e-01 2.66939938e-01 2.66939938e-01 2.01441780e-01
      2.49024719e-01 2.66939938e-01 1.90402687e-01 2.66939938e-01
      2.40602344e-01 2.66939938e-01 2.66939938e-01 1.29504219e-01</_>
    <_>
      9.22692418e-02 1.85121223e-02 3.45680565e-01 2.05599800e-01
      2.55027622e-01 3.11974343e-02 3.45680565e-01 2.80849099e-01
      1.18848838e-01 1.05746668e-02 3.45680565e-01 3.01882416e-01
      3.45680565e-01 8.82815942e-02 3.45680565e-01 2.99818665e-01
      1.55366346e-01 2.34568454e-02 3.26609790e-01 2.65885919e-01
      3.26609790e-01 1.06551066e-01 3.26609790e-01 1.77867636e-01
      3.26609790e-01 4.95965630e-02 3.26609790e-01 3.26609790e-01
      3.26609790e-01 1.34651631e-01 2.74616897e-01 1.25057533e-01
      3.10308307e-01 5.06673530e-02 3.10308307e-01 3.10308307e-01
      3.10308307e-01 1.05872981e-01 1.66952655e-01 1.74510136e-01
      3.10308307e-01 4.43457179e-02 3.09882253e-01 3.10308307e-01
      3.10308307e-01 6.07228465e-02 2.29750320e-01 3.10308307e-01</_>
    <_>
      3.34565610e-01 2.92843431e-01 1.67164832e-01 2.69219816e-01
      3.34565610e-01 1.63882673e-01 2.15072762e-02 3.34565610e-01
      3.34565610e-01 3.34565610e-01 1.59937069e-01 1.21590577e-01
      1.90557957e-01 3.34565610e-01 1.01593480e-01 1.56696737e-01
      2.18147814e-01 3.42917860e-01 1.64738327e-01 1.13182053e-01
      9.95515510e-02 3.42917860e-01 1.92977324e-01 3.40643190e-02
      3.42917860e-01 3.42917860e-01 1.76241651e-01 3.25240195e-01
      2.98099220e-01 3.42917860e-01 1.51815951e-01 1.54946655e-01
      3.23304981e-01 2.51378477e-01 2.20658034e-01 3.23304981e-01
      3.23304981e-01 3.02314609e-01 8.57423097e-02 1.55928701e-01
      3.23304981e-01 1.21168375e-01 1.76109448e-01 3.23304981e-01
      3.23304981e-01 2.53864437e-01 4.65729795e-02 1.49531394e-01</_>
    <_>
      3.44097316e-01 3.44097316e-01 8.94932300e-02 3.78804654e-02
      3.44097316e-01 3.23311865e-01 4.60543707e-02 1.06131934e-01
      3.44097316e-01 3.44097316e-01 1.62334666e-01 7.57039860e-02
      3.44097316e-01 3.44097316e-01 5.99513873e-02 6.85855150e-02
      3.38376403e-01 3.32306772e-01 6.10920973e-02 1.50608301e-01
      3.38376403e-01 2.76145041e-01 7.39507899e-02 1.75490797e-01
      3.38376403e-01 3.38376403e-01 6.49469793e-02 9.45485681e-02
      3.38376403e-01 3.35355133e-01 1.31862521e-01 1.78194255e-01
      3.97025526e-01 3.72178763e-01 2.42939051e-02 5.25944643e-02
      3.97025526e-01 2.17928797e-01 3.52844521e-02 8.50040019e-02
      3.97025526e-01 2.36769766e-01 1.00024359e-03 1.38589770e-01
      3.97025526e-01 7.74087384e-02 1.57612935e-03 2.93967903e-01</_>
    <_>
      1.15970366e-01 1.55963153e-01 2.11100414e-01 2.45188147e-01
      1.17019355e-01 2.00306341e-01 3.02811533e-01 3.02811533e-01
      2.86443885e-02 3.02811533e-01 3.02811533e-01 3.02811533e-01
      2.57536083e-01 3.02811533e-01 3.02811533e-01 3.02811533e-01
      5.54086175e-03 2.86752462e-01 3.32434148e-01 3.32434148e-01
      1.12625025e-01 3.32434148e-01 2.30422392e-01 1.80877402e-01
      7.11108092e-03 9.77321267e-02 2.70076394e-01 3.32434148e-01
      1.39954433e-01 3.32434148e-01 2.25210667e-01 3.32434148e-01
      8.56606197e-03 4.42615859e-02 2.21045136e-01 4.06177431e-01
      1.13211222e-01 2.65621781e-01 2.18631789e-01 4.06177431e-01
      1.01235351e-02 1.52201816e-01 2.62424797e-01 3.78391922e-01
      5.30190431e-02 1.35324582e-01 2.49996468e-01 4.06177431e-01</_>
    <_>
      7.26978108e-02 2.09825143e-01 3.46810907e-01 1.23416506e-01
      3.19668740e-01 1.86487779e-01 3.46810907e-01 1.71891123e-01
      3.46810907e-01 2.10545719e-01 2.30178371e-01 1.98389232e-01
      3.46810907e-01 1.08860552e-01 1.24779522e-01 3.46810907e-01
      3.13360363e-01 3.13360363e-01 2.77940445e-02 1.42286196e-01
      3.13360363e-01 3.13360363e-01 8.96634459e-02 2.86605269e-01
      2.49368161e-01 3.13360363e-01 1.10832885e-01 3.00337374e-01
      1.70136929e-01 3.13360363e-01 3.13360363e-01 6.84715137e-02
      1.40105098e-01 1.66682690e-01 1.49917111e-01 3.51460546e-01
      1.74231485e-01 3.51460546e-01 3.22797745e-01 3.51460546e-01
      2.68452018e-01 6.31821807e-03 2.87528969e-02 3.51460546e-01
      3.15768093e-01 2.12915726e-02 3.64306234e-02 3.51460546e-01</_>
    <_>
      2.98789412e-01 2.61497855e-01 3.82229909e-02 2.98789412e-01
      2.98428893e-01 2.89831430e-01 3.49811092e-02 2.98789412e-01
      2.98789412e-01 2.98789412e-01 4.16299589e-02 2.97947228e-01
      2.02491239e-01 2.56641239e-01 1.40935257e-01 2.98789412e-01
      3.15204769e-01 3.15204769e-01 9.64839533e-02 1.61770001e-01
      1.09837510e-01 1.59262136e-01 2.47773036e-01 3.15204769e-01
      3.15204769e-01 3.15204769e-01 2.96750844e-01 6.66177496e-02
      3.30825970e-02 3.15204769e-01 3.15204769e-01 2.71071494e-01
      8.87794793e-02 3.44875306e-01 3.44875306e-01 6.62647421e-03
      1.34195182e-02 3.44875306e-01 3.44875306e-01 3.40304375e-02
      1.17510103e-01 3.44875306e-01 3.44875306e-01 5.30305728e-02
      2.05248162e-01 3.44875306e-01 3.05707395e-01 5.01291007e-02</_>
    <_>
      3.40697557e-01 3.40697557e-01 1.02956332e-01 4.41301465e-02
      9.37189460e-02 3.40697557e-01 3.40697557e-01 8.16335827e-02
      3.40697557e-01 3.40697557e-01 1.57544807e-01 6.85218945e-02
      8.85453597e-02 2.90438920e-01 3.40697557e-01 1.85383201e-01
      1.44085526e-01 3.46609324e-01 3.46609324e-01 4.99573164e-02
      3.48294340e-02 3.46609324e-01 3.46609324e-01 1.10331841e-01
      9.16365609e-02 1.96257696e-01 3.46609324e-01 2.41237521e-01
      1.97720844e-02 2.31758446e-01 3.46609324e-01 2.82583505e-01
      1.12384856e-01 3.20404135e-02 3.12395871e-01 3.36083442e-01
      3.12800594e-02 7.81696588e-02 3.36083442e-01 3.36083442e-01
      4.28694300e-02 1.42941847e-01 3.36083442e-01 3.36083442e-01
      8.93817842e-02 2.39543378e-01 3.36083442e-01 3.36083442e-01</_>
    <_>
      2.24546692e-03 5.35699679e-03 4.79475498e-01 1.16073288e-01 0.
      1.62806362e-02 4.79475498e-01 1.75501630e-01 3.03412875e-04
      2.29949094e-02 4.79475498e-01 1.00944236e-01 7.60431774e-03
      7.63629451e-02 4.79475498e-01 1.20181583e-01 6.39710866e-04
      4.34900708e-02 4.50052649e-01 7.77372271e-02 2.36598589e-02
      2.03891248e-01 4.50052649e-01 5.29240780e-02 3.68865319e-02
      5.13236858e-02 4.50052649e-01 7.83995464e-02 2.48534262e-01
      2.43062288e-01 4.50052649e-01 3.81842293e-02 2.86208540e-01
      4.03978042e-02 4.17039722e-01 1.95312455e-01 4.17039722e-01
      1.61835968e-01 1.79460585e-01 7.30091855e-02 4.17039722e-01
      4.51298356e-02 1.92605972e-01 2.36551210e-01 4.17039722e-01
      1.04169570e-01 8.65704101e-03 9.33133513e-02</_>
    <_>
      5.12014255e-02 2.75299028e-02 3.09089273e-01 2.90832907e-01
      1.49316207e-01 1.53913796e-01 3.09089273e-01 2.54764915e-01
      3.09089273e-01 5.13606817e-02 3.09089273e-01 3.09089273e-01
      3.09089273e-01 1.76439732e-01 3.09089273e-01 3.09089273e-01
      2.92046040e-01 9.64714661e-02 2.30214864e-01 2.92046040e-01
      2.92046040e-01 7.73044974e-02 2.92046040e-01 2.92046040e-01
      2.92046040e-01 2.30664715e-01 2.01579615e-01 2.67157674e-01
      2.82486588e-01 3.82165685e-02 2.92046040e-01 2.92046040e-01
      2.90681332e-01 2.90681332e-01 2.90681332e-01 1.03925616e-01
      2.56091624e-01 9.10729393e-02 2.90681332e-01 2.53042340e-01
      2.90681332e-01 2.90681332e-01 2.90681332e-01 4.59921509e-02
      2.90681332e-01 2.89372355e-01 2.90681332e-01 4.55493554e-02</_>
    <_>
      2.07039848e-01 3.93928021e-01 1.30550116e-01 4.80311224e-03
      5.49886189e-02 3.93928021e-01 3.01166505e-01 0. 3.93928021e-01
      3.93928021e-01 6.08283095e-02 3.33687775e-02 2.21134514e-01
      3.93928021e-01 1.01722635e-01 4.94969152e-02 3.51924121e-01
      3.51924121e-01 9.15287361e-02 5.87057993e-02 2.48785064e-01
      3.27728659e-01 1.63358986e-01 1.16543576e-01 3.51924121e-01
      3.51924121e-01 1.32915884e-01 7.71358907e-02 2.96347678e-01
      3.51924121e-01 1.95998505e-01 7.73597881e-02 3.50565612e-01
      3.50565612e-01 4.15047742e-02 1.19071603e-01 3.50565612e-01
      3.50565612e-01 6.51375875e-02 7.68186897e-02 3.12595874e-01
      3.50565612e-01 7.37316981e-02 9.61037204e-02 2.99239188e-01
      3.50565612e-01 1.68735683e-01 5.16814664e-02</_>
    <_>
      2.70172358e-01 2.70172358e-01 2.70172358e-01 2.39925772e-01
      2.70172358e-01 2.70172358e-01 2.70172358e-01 2.07498938e-01
      2.25698814e-01 2.70172358e-01 2.70172358e-01 1.40709698e-01
      2.70172358e-01 2.70172358e-01 2.70172358e-01 1.51711926e-01
      2.23838151e-01 2.95937121e-01 1.77142486e-01 1.11973822e-01
      2.95937121e-01 2.95937121e-01 2.95937121e-01 1.64046258e-01
      2.95937121e-01 2.13785678e-01 7.15018660e-02 1.92573711e-01
      2.95937121e-01 2.95937121e-01 2.95937121e-01 2.95937121e-01
      3.25013369e-01 1.04166843e-01 1.54835125e-02 3.00769508e-01
      3.25013369e-01 2.67669261e-01 2.29344860e-01 3.25013369e-01
      3.25013369e-01 7.15958476e-02 7.50193819e-02 3.25013369e-01
      3.25013369e-01 1.06920421e-01 9.66029316e-02 3.25013369e-01</_>
    <_>
      2.51549691e-01 2.51549691e-01 2.51549691e-01 2.51549691e-01
      2.51549691e-01 2.51549691e-01 2.51549691e-01 2.51549691e-01
      2.51549691e-01 2.51549691e-01 2.51549691e-01 2.51549691e-01
      2.47303426e-01 2.24601179e-01 2.51549691e-01 2.51549691e-01
      2.63356060e-01 2.63356060e-01 2.63356060e-01 2.63356060e-01
      1.94446415e-01 1.69767767e-01 2.63356060e-01 2.50378847e-01
      2.63356060e-01 2.63356060e-01 2.63356060e-01 2.63356060e-01
      2.63356060e-01 1.89132512e-01 2.63356060e-01 2.63356060e-01
      2.51517981e-01 2.51517981e-01 2.51517981e-01 2.51517981e-01
      2.51517981e-01 2.51517981e-01 2.51517981e-01 2.51517981e-01
      2.31858179e-01 2.51517981e-01 2.51517981e-01 2.40977302e-01
      2.51517981e-01 2.51517981e-01 2.51517981e-01 2.51517981e-01</_>
    <_>
      3.80385011e-01 1.43392473e-01 1.03711218e-01 1.05668560e-01
      3.80385011e-01 2.97521979e-01 8.83657783e-02 2.88957655e-01
      3.80385011e-01 1.71567112e-01 7.06397835e-03 1.27045035e-01
      3.80385011e-01 6.81585595e-02 1.25407893e-02 3.80385011e-01
      3.64831656e-01 3.64831656e-01 1.39916297e-02 5.57664745e-02
      3.64831656e-01 3.06532502e-01 5.80383837e-02 2.56592482e-01
      1.76137760e-01 3.64831656e-01 9.08997506e-02 1.68110654e-01
      1.60459787e-01 3.64831656e-01 2.62611985e-01 4.59069796e-02
      3.09950188e-02 3.80221605e-01 1.53698564e-01 3.80221605e-01
      3.00369747e-02 3.80221605e-01 2.46429607e-01 6.88980222e-02
      1.03170360e-02 1.25804052e-01 1.70901403e-01 3.80221605e-01
      5.74591756e-02 3.80221605e-01 1.07007138e-01 3.50008398e-01</_>
    <_>
      2.91041523e-01 3.58147562e-01 8.66276920e-02 3.89899798e-02
      2.05306292e-01 3.58147562e-01 1.01257734e-01 8.92867707e-03
      3.36927027e-01 3.58147562e-01 1.07952848e-01 1.69165984e-01
      3.32142919e-01 3.58147562e-01 2.60689616e-01 7.11403340e-02
      1.72533154e-01 2.32790291e-01 1.74666181e-01 3.31182510e-01
      3.42983574e-01 3.42983574e-01 2.27422386e-01 8.84135440e-02
      3.42983574e-01 9.18397307e-02 1.84678301e-01 3.42983574e-01
      3.42983574e-01 2.31545269e-01 5.35269976e-02 1.60245150e-01
      2.93204814e-01 6.82539046e-02 1.52792409e-01 3.50069851e-01
      3.50069851e-01 3.50069851e-01 9.14811343e-02 1.40929431e-01
      9.87733230e-02 5.98480888e-02 1.93637103e-01 3.50069851e-01
      2.06886083e-01 3.50069851e-01 1.59281865e-01 3.50069851e-01</_>
    <_>
